<?xml version="1.0"?>
<MethodSetup Method="MLP::MLP">
  <GeneralInfo>
    <Info name="TMVA Release" value="4.1.2 [262402]"/>
    <Info name="ROOT Release" value="5.32/01 [335873]"/>
    <Info name="Creator" value="inutard"/>
    <Info name="Date" value="Fri Dec  6 10:28:18 2013"/>
    <Info name="Host" value="Linux lxbuild148.cern.ch 2.6.18-238.5.1.el5 #1 SMP Wed Mar 2 15:08:52 CET 2011 x86_64 x86_64 x86_64 GNU/Linux"/>
    <Info name="Dir" value="/home/inutard/thesis/tmva/test"/>
    <Info name="Training events" value="6000"/>
    <Info name="TrainingTime" value="4.23174369e+01"/>
    <Info name="AnalysisType" value="Classification"/>
  </GeneralInfo>
  <Options>
    <Option name="NCycles" modified="Yes">600</Option>
    <Option name="HiddenLayers" modified="Yes">N+5</Option>
    <Option name="NeuronType" modified="Yes">tanh</Option>
    <Option name="RandomSeed" modified="No">1</Option>
    <Option name="EstimatorType" modified="No">MSE</Option>
    <Option name="NeuronInputType" modified="No">sum</Option>
    <Option name="V" modified="Yes">False</Option>
    <Option name="VerbosityLevel" modified="No">Default</Option>
    <Option name="VarTransform" modified="Yes">N</Option>
    <Option name="H" modified="Yes">False</Option>
    <Option name="CreateMVAPdfs" modified="No">False</Option>
    <Option name="IgnoreNegWeightsInTraining" modified="No">False</Option>
    <Option name="TrainingMethod" modified="No">BP</Option>
    <Option name="LearningRate" modified="No">2.000000e-02</Option>
    <Option name="DecayRate" modified="No">1.000000e-02</Option>
    <Option name="TestRate" modified="Yes">5</Option>
    <Option name="EpochMonitoring" modified="No">False</Option>
    <Option name="Sampling" modified="No">1.000000e+00</Option>
    <Option name="SamplingEpoch" modified="No">1.000000e+00</Option>
    <Option name="SamplingImportance" modified="No">1.000000e+00</Option>
    <Option name="SamplingTraining" modified="No">True</Option>
    <Option name="SamplingTesting" modified="No">False</Option>
    <Option name="ResetStep" modified="No">50</Option>
    <Option name="Tau" modified="No">3.000000e+00</Option>
    <Option name="BPMode" modified="No">sequential</Option>
    <Option name="BatchSize" modified="No">-1</Option>
    <Option name="ConvergenceImprove" modified="No">1.000000e-30</Option>
    <Option name="ConvergenceTests" modified="No">-1</Option>
    <Option name="UseRegulator" modified="Yes">False</Option>
    <Option name="UpdateLimit" modified="No">10000</Option>
    <Option name="CalculateErrors" modified="No">False</Option>
    <Option name="WeightRange" modified="No">1.000000e+00</Option>
  </Options>
  <Variables NVar="6">
    <Variable VarIndex="0" Expression="var1+var2" Label="myvar1" Title="myvar1" Unit="" Internal="myvar1" Type="F" Min="-8.96602058e+00" Max="7.69307804e+00"/>
    <Variable VarIndex="1" Expression="var1-var2" Label="myvar2" Title="myvar2" Unit="" Internal="myvar2" Type="F" Min="-4.08540010e+00" Max="4.02589369e+00"/>
    <Variable VarIndex="2" Expression="var3" Label="var3" Title="var3" Unit="" Internal="var3" Type="F" Min="-5.05078554e+00" Max="4.35967064e+00"/>
    <Variable VarIndex="3" Expression="var4" Label="var4" Title="var4" Unit="" Internal="var4" Type="F" Min="-5.95050764e+00" Max="4.92254400e+00"/>
    <Variable VarIndex="4" Expression="var1" Label="var1" Title="var1" Unit="" Internal="var1" Type="F" Min="-4.95827770e+00" Max="4.76391029e+00"/>
    <Variable VarIndex="5" Expression="var2" Label="var2" Title="var2" Unit="" Internal="var2" Type="F" Min="-5.24535990e+00" Max="4.82998085e+00"/>
  </Variables>
  <Spectators NSpec="0"/>
  <Classes NClass="2">
    <Class Name="Signal" Index="0"/>
    <Class Name="Background" Index="1"/>
  </Classes>
  <Transformations NTransformations="1">
    <Transform Name="Normalize">
      <Selection>
        <Input NInputs="6">
          <Input Type="Variable" Label="myvar1" Expression="var1+var2"/>
          <Input Type="Variable" Label="myvar2" Expression="var1-var2"/>
          <Input Type="Variable" Label="var3" Expression="var3"/>
          <Input Type="Variable" Label="var4" Expression="var4"/>
          <Input Type="Variable" Label="var1" Expression="var1"/>
          <Input Type="Variable" Label="var2" Expression="var2"/>
        </Input>
        <Output NOutputs="6">
          <Output Type="Variable" Label="myvar1" Expression="var1+var2"/>
          <Output Type="Variable" Label="myvar2" Expression="var1-var2"/>
          <Output Type="Variable" Label="var3" Expression="var3"/>
          <Output Type="Variable" Label="var4" Expression="var4"/>
          <Output Type="Variable" Label="var1" Expression="var1"/>
          <Output Type="Variable" Label="var2" Expression="var2"/>
        </Output>
      </Selection>
      <Class ClassIndex="0">
        <Ranges>
          <Range Index="0" Min="-5.0562591552734375e+00" Max="6.3994679450988770e+00"/>
          <Range Index="1" Min="-4.0854001045227051e+00" Max="3.4012691974639893e+00"/>
          <Range Index="2" Min="-3.1826326847076416e+00" Max="3.8475654125213623e+00"/>
          <Range Index="3" Min="-2.9959020614624023e+00" Max="4.5351858139038086e+00"/>
          <Range Index="4" Min="-3.5323245525360107e+00" Max="3.5471346378326416e+00"/>
          <Range Index="5" Min="-3.2713189125061035e+00" Max="3.6371939182281494e+00"/>
        </Ranges>
      </Class>
      <Class ClassIndex="1">
        <Ranges>
          <Range Index="0" Min="-8.9660205841064453e+00" Max="7.6930780410766602e+00"/>
          <Range Index="1" Min="-3.6791675090789795e+00" Max="4.0258936882019043e+00"/>
          <Range Index="2" Min="-5.0507855415344238e+00" Max="4.3596706390380859e+00"/>
          <Range Index="3" Min="-5.9505076408386230e+00" Max="4.9225440025329590e+00"/>
          <Range Index="4" Min="-4.9582777023315430e+00" Max="4.7639102935791016e+00"/>
          <Range Index="5" Min="-5.2453598976135254e+00" Max="4.8299808502197266e+00"/>
        </Ranges>
      </Class>
      <Class ClassIndex="2">
        <Ranges>
          <Range Index="0" Min="-8.9660205841064453e+00" Max="7.6930780410766602e+00"/>
          <Range Index="1" Min="-4.0854001045227051e+00" Max="4.0258936882019043e+00"/>
          <Range Index="2" Min="-5.0507855415344238e+00" Max="4.3596706390380859e+00"/>
          <Range Index="3" Min="-5.9505076408386230e+00" Max="4.9225440025329590e+00"/>
          <Range Index="4" Min="-4.9582777023315430e+00" Max="4.7639102935791016e+00"/>
          <Range Index="5" Min="-5.2453598976135254e+00" Max="4.8299808502197266e+00"/>
        </Ranges>
      </Class>
    </Transform>
  </Transformations>
  <MVAPdfs/>
  <Weights>
    <Layout NLayers="3">
      <Layer Index="0" NNeurons="7">
        <Neuron NSynapses="11">
          5.3481147926761641e-01 1.7763546684777636e+00 6.1631209038612234e-01 1.2093454821808878e+00 -4.0456384044330820e+00 -1.2396715396350186e+00 -7.9061515698590568e-01 1.7365301022087936e+00 -1.1961539704969286e+00 -2.0067445663528329e+00 -1.2291527709680641e+00 
        </Neuron>
        <Neuron NSynapses="11">
          -6.5889974574521767e-02 -6.6096032887194300e-01 -7.7981061884942204e-01 2.3713633065845986e-02 -5.9634977144602652e-01 -6.3993396375405387e-01 8.2500604800760380e-01 -2.2515059723064179e-01 1.0466371117890088e+00 -1.0309406172036131e-01 -7.9767384174115039e-02 
        </Neuron>
        <Neuron NSynapses="11">
          1.0648480572605261e+00 -3.0720896132622000e-01 -1.7333801619127072e+00 -5.3600163730832695e-01 -1.3639831681608163e+00 -8.1735437301266423e-01 -1.7319155178643113e+00 1.0858379171559995e-01 4.7153284869088979e-01 5.1998720219562444e-01 -9.1969673047411604e-02 
        </Neuron>
        <Neuron NSynapses="11">
          -1.0909993577565262e+00 1.8335430104224060e+00 4.9518150505543418e-01 -1.3623846123190542e+00 7.7428058441231435e+00 -7.2846182938694093e-01 1.0267204034485955e+00 3.8999773308140573e-01 1.5719274112326216e+00 1.7860777764537945e+00 1.3785441428183696e+00 
        </Neuron>
        <Neuron NSynapses="11">
          1.4634973671112878e-01 -1.6142799127529506e+00 4.4145704414768211e-01 -1.4624855134183196e-01 -7.9122733542362589e-01 1.5048444798342440e+00 1.2283468812685130e+00 9.8887919544995839e-01 -1.5451961437590180e+00 5.8339882345589000e-01 -1.1720639671283808e+00 
        </Neuron>
        <Neuron NSynapses="11">
          -3.2929601383181134e-01 -1.7554429196174945e+00 -1.8340179516484787e+00 8.0800759483500328e-01 -5.0068587633449713e-01 -1.3388617385383610e+00 7.5419297568353993e-01 -3.5617908621719035e-01 1.0296036592431757e+00 9.5196135773970059e-01 -2.7012488279966157e-01 
        </Neuron>
        <Neuron NSynapses="11">
          2.9633331009594071e-02 -1.5259123212505366e-01 -4.3947552609236596e-03 -1.3625630432048577e-02 -4.9563811378684586e-01 6.9931385927962872e-02 7.7070566685066857e-02 3.2468155272681855e-02 -1.0612655549545642e-01 -1.0298273740590910e-01 -2.9454269462114993e+00 
        </Neuron>
      </Layer>
      <Layer Index="1" NNeurons="12">
        <Neuron NSynapses="1">
          3.3139795303466180e-01 
        </Neuron>
        <Neuron NSynapses="1">
          -5.1576507964831331e-01 
        </Neuron>
        <Neuron NSynapses="1">
          -1.4245988506163243e-01 
        </Neuron>
        <Neuron NSynapses="1">
          2.3231642829226223e-01 
        </Neuron>
        <Neuron NSynapses="1">
          1.2027103935696750e+00 
        </Neuron>
        <Neuron NSynapses="1">
          4.0421779145462897e-02 
        </Neuron>
        <Neuron NSynapses="1">
          -1.1060286921796206e-01 
        </Neuron>
        <Neuron NSynapses="1">
          7.3896312134451747e-02 
        </Neuron>
        <Neuron NSynapses="1">
          -3.5610417027685898e-01 
        </Neuron>
        <Neuron NSynapses="1">
          -4.4242955527590155e-01 
        </Neuron>
        <Neuron NSynapses="1">
          -1.3363640278580033e+00 
        </Neuron>
        <Neuron NSynapses="1">
          -7.4469297904049914e-01 
        </Neuron>
      </Layer>
      <Layer Index="2" NNeurons="1">
        <Neuron NSynapses="0"/>
      </Layer>
    </Layout>
  </Weights>
</MethodSetup>
