<?xml version="1.0"?>
<MethodSetup Method="MLP::MLP">
  <GeneralInfo>
    <Info name="TMVA Release" value="4.1.4 [262404]"/>
    <Info name="ROOT Release" value="5.34/09 [336393]"/>
    <Info name="Creator" value="inutard"/>
    <Info name="Date" value="Mon Jan 13 22:03:41 2014"/>
    <Info name="Host" value="Linux panlong 3.2.0-37-generic #58-Ubuntu SMP Thu Jan 24 15:28:10 UTC 2013 x86_64 x86_64 x86_64 GNU/Linux"/>
    <Info name="Dir" value="/home/inutard/Desktop/tmva-studies/lean_tmva"/>
    <Info name="Training events" value="23465"/>
    <Info name="TrainingTime" value="1.30028500e+02"/>
    <Info name="AnalysisType" value="Classification"/>
  </GeneralInfo>
  <Options>
    <Option name="NCycles" modified="Yes">600</Option>
    <Option name="HiddenLayers" modified="Yes">N+5</Option>
    <Option name="NeuronType" modified="Yes">tanh</Option>
    <Option name="RandomSeed" modified="No">1</Option>
    <Option name="EstimatorType" modified="No">MSE</Option>
    <Option name="NeuronInputType" modified="No">sum</Option>
    <Option name="V" modified="Yes">False</Option>
    <Option name="VerbosityLevel" modified="No">Default</Option>
    <Option name="VarTransform" modified="Yes">N</Option>
    <Option name="H" modified="Yes">False</Option>
    <Option name="CreateMVAPdfs" modified="No">False</Option>
    <Option name="IgnoreNegWeightsInTraining" modified="No">False</Option>
    <Option name="TrainingMethod" modified="No">BP</Option>
    <Option name="LearningRate" modified="No">2.000000e-02</Option>
    <Option name="DecayRate" modified="No">1.000000e-02</Option>
    <Option name="TestRate" modified="Yes">5</Option>
    <Option name="EpochMonitoring" modified="No">False</Option>
    <Option name="Sampling" modified="No">1.000000e+00</Option>
    <Option name="SamplingEpoch" modified="No">1.000000e+00</Option>
    <Option name="SamplingImportance" modified="No">1.000000e+00</Option>
    <Option name="SamplingTraining" modified="No">True</Option>
    <Option name="SamplingTesting" modified="No">False</Option>
    <Option name="ResetStep" modified="No">50</Option>
    <Option name="Tau" modified="No">3.000000e+00</Option>
    <Option name="BPMode" modified="No">sequential</Option>
    <Option name="BatchSize" modified="No">-1</Option>
    <Option name="ConvergenceImprove" modified="No">1.000000e-30</Option>
    <Option name="ConvergenceTests" modified="No">-1</Option>
    <Option name="UseRegulator" modified="Yes">False</Option>
    <Option name="UpdateLimit" modified="No">10000</Option>
    <Option name="CalculateErrors" modified="No">False</Option>
    <Option name="WeightRange" modified="No">1.000000e+00</Option>
  </Options>
  <Variables NVar="7">
    <Variable VarIndex="0" Expression="(Ht&gt;2500e3)?2500e3:Ht" Label="(Ht&gt;2500e3)?2500e3:Ht" Title="Ht" Unit="MeV" Internal="_Ht_2500e3__2500e3:Ht" Type="F" Min="5.09029906e+05" Max="2.50000000e+06"/>
    <Variable VarIndex="1" Expression="met_et" Label="met_et" Title="met_et" Unit="nan" Internal="met_et" Type="F" Min="9.88338867e+02" Max="1.21268388e+06"/>
    <Variable VarIndex="2" Expression="n_btags_70" Label="n_btags_70" Title="n_btags_70" Unit="nan" Internal="n_btags_70" Type="I" Min="0.00000000e+00" Max="5.00000000e+00"/>
    <Variable VarIndex="3" Expression="mwt" Label="mwt" Title="mwt" Unit="nan" Internal="mwt" Type="F" Min="6.92663527e+00" Max="1.53971162e+06"/>
    <Variable VarIndex="4" Expression="Whad_pt" Label="Whad_pt" Title="Whad_pt" Unit="nan" Internal="Whad_pt" Type="F" Min="2.50003984e+05" Max="1.42880900e+06"/>
    <Variable VarIndex="5" Expression="Wlep_eta" Label="Wlep_eta" Title="Wlep_eta" Unit="nan" Internal="Wlep_eta" Type="F" Min="-4.75985718e+00" Max="6.55746222e+00"/>
    <Variable VarIndex="6" Expression="dR_Wlep_blep" Label="dR_Wlep_blep" Title="dR_Wlep_blep" Unit="nan" Internal="dR_Wlep_blep" Type="F" Min="1.96545534e-02" Max="7.90818357e+00"/>
  </Variables>
  <Spectators NSpec="0"/>
  <Classes NClass="2">
    <Class Name="Signal" Index="0"/>
    <Class Name="Background" Index="1"/>
  </Classes>
  <Transformations NTransformations="1">
    <Transform Name="Normalize">
      <Selection>
        <Input NInputs="7">
          <Input Type="Variable" Label="(Ht&gt;2500e3)?2500e3:Ht" Expression="(Ht&gt;2500e3)?2500e3:Ht"/>
          <Input Type="Variable" Label="met_et" Expression="met_et"/>
          <Input Type="Variable" Label="n_btags_70" Expression="n_btags_70"/>
          <Input Type="Variable" Label="mwt" Expression="mwt"/>
          <Input Type="Variable" Label="Whad_pt" Expression="Whad_pt"/>
          <Input Type="Variable" Label="Wlep_eta" Expression="Wlep_eta"/>
          <Input Type="Variable" Label="dR_Wlep_blep" Expression="dR_Wlep_blep"/>
        </Input>
        <Output NOutputs="7">
          <Output Type="Variable" Label="(Ht&gt;2500e3)?2500e3:Ht" Expression="(Ht&gt;2500e3)?2500e3:Ht"/>
          <Output Type="Variable" Label="met_et" Expression="met_et"/>
          <Output Type="Variable" Label="n_btags_70" Expression="n_btags_70"/>
          <Output Type="Variable" Label="mwt" Expression="mwt"/>
          <Output Type="Variable" Label="Whad_pt" Expression="Whad_pt"/>
          <Output Type="Variable" Label="Wlep_eta" Expression="Wlep_eta"/>
          <Output Type="Variable" Label="dR_Wlep_blep" Expression="dR_Wlep_blep"/>
        </Output>
      </Selection>
      <Class ClassIndex="0">
        <Ranges>
          <Range Index="0" Min="6.5619487500000000e+05" Max="2.5000000000000000e+06"/>
          <Range Index="1" Min="9.8833886718750000e+02" Max="1.2126838750000000e+06"/>
          <Range Index="2" Min="0.0000000000000000e+00" Max="5.0000000000000000e+00"/>
          <Range Index="3" Min="6.9266352653503418e+00" Max="1.5397116250000000e+06"/>
          <Range Index="4" Min="2.5002457812500000e+05" Max="1.4288090000000000e+06"/>
          <Range Index="5" Min="-4.7598571777343750e+00" Max="6.5574622154235840e+00"/>
          <Range Index="6" Min="1.9654553383588791e-02" Max="7.9081835746765137e+00"/>
        </Ranges>
      </Class>
      <Class ClassIndex="1">
        <Ranges>
          <Range Index="0" Min="5.0902990625000000e+05" Max="2.5000000000000000e+06"/>
          <Range Index="1" Min="1.9245733642578125e+03" Max="7.3320987500000000e+05"/>
          <Range Index="2" Min="0.0000000000000000e+00" Max="4.0000000000000000e+00"/>
          <Range Index="3" Min="1.4713669776916504e+01" Max="8.9711681250000000e+05"/>
          <Range Index="4" Min="2.5000398437500000e+05" Max="1.1049521250000000e+06"/>
          <Range Index="5" Min="-4.1175570487976074e+00" Max="4.1632008552551270e+00"/>
          <Range Index="6" Min="3.5139981657266617e-02" Max="5.8540520668029785e+00"/>
        </Ranges>
      </Class>
      <Class ClassIndex="2">
        <Ranges>
          <Range Index="0" Min="5.0902990625000000e+05" Max="2.5000000000000000e+06"/>
          <Range Index="1" Min="9.8833886718750000e+02" Max="1.2126838750000000e+06"/>
          <Range Index="2" Min="0.0000000000000000e+00" Max="5.0000000000000000e+00"/>
          <Range Index="3" Min="6.9266352653503418e+00" Max="1.5397116250000000e+06"/>
          <Range Index="4" Min="2.5000398437500000e+05" Max="1.4288090000000000e+06"/>
          <Range Index="5" Min="-4.7598571777343750e+00" Max="6.5574622154235840e+00"/>
          <Range Index="6" Min="1.9654553383588791e-02" Max="7.9081835746765137e+00"/>
        </Ranges>
      </Class>
    </Transform>
  </Transformations>
  <MVAPdfs/>
  <Weights>
    <Layout NLayers="3">
      <Layer Index="0" NNeurons="8">
        <Neuron NSynapses="12">
          -8.2294554597402303e-01 1.3382410953724806e+00 3.2975261826504471e-01 1.2612686685567331e+00 -3.3225819252014728e+00 -3.4136260038164195e+00 1.0083504825874128e+00 1.2371482062754078e+00 -8.7318746392901858e-01 -9.3084882195151153e-02 -3.5973841644841174e+00 -4.2411856964806943e-01 
        </Neuron>
        <Neuron NSynapses="12">
          -4.4635724850707287e-01 7.8453125054976564e-02 -3.2128473499844484e-01 4.8370888128278039e-01 -3.5496944974073035e+00 1.0367358073244370e+00 -3.2423619117331087e-01 1.2669654390111920e+00 6.4376845928209236e-01 -3.4536690827885991e-01 2.8808300027572633e+00 4.3025543674356520e-01 
        </Neuron>
        <Neuron NSynapses="12">
          -1.6979600152817858e+00 -8.0694573311762918e-01 3.8475865721033375e-01 -1.0750299947911885e+00 -2.0971725620290633e+00 1.0664962395649122e+00 5.3722108764327769e-01 1.6023299718219548e+00 1.2234911910705165e-01 1.7642909886692512e-01 -1.5221074177016731e+00 1.4806843048143958e-01 
        </Neuron>
        <Neuron NSynapses="12">
          -8.2614788402366757e-01 2.4524232656995930e+00 -8.9230115551467071e-01 8.6939544998952201e-01 1.5199838530833045e+00 -3.6295611781390735e-01 3.7889762313669573e-01 2.0431050553991574e+00 -1.5439905633093749e+00 -1.3192938492865476e+00 -4.1520325732766661e-01 6.0537396057968762e-01 
        </Neuron>
        <Neuron NSynapses="12">
          2.4401468777707209e+00 1.0321324324206032e+00 1.0815524132395999e+00 8.2240715556725408e-01 1.2212705059768949e+00 2.3301929978772220e+00 -9.5542862056638866e-01 -3.0164589949286635e-01 -2.0728117872749530e+00 -3.5355193046296229e-01 1.8620096319677120e+00 5.5602643232763893e-01 
        </Neuron>
        <Neuron NSynapses="12">
          -3.0287038310947467e-01 -5.1063787143684099e-02 -5.0384183391059545e-01 6.6417832028609058e-01 1.0585956129451994e-01 -2.2895115763451776e-01 1.5975514835677487e-01 -1.0326958968959210e+00 4.3428793183706660e-01 -4.0644737528693442e-01 -1.6744216453539770e-01 -8.7144420209559914e-01 
        </Neuron>
        <Neuron NSynapses="12">
          6.2688506886554962e-01 1.0720605210892395e+00 1.1892632523914839e+00 -5.8344571650252808e-01 -1.5816808062606731e+00 -3.4161354903425831e+00 -1.4933417900449661e-01 1.0128686940682496e+00 6.4667506367296890e-01 8.2878363019117385e-01 8.8119318363140964e-01 -3.0068084182475280e-01 
        </Neuron>
        <Neuron NSynapses="12">
          -2.4629547312052646e+00 -2.7876336935396773e-01 7.7771430909253847e-01 -7.9713696695671488e-01 -4.9779712447713385e+00 -2.5484891377327878e+00 4.4610547685094942e-01 -1.0901509030798480e+00 1.9880811391098925e+00 -1.7092505944748673e+00 -8.7371813674710375e-01 9.3198096971778110e-01 
        </Neuron>
      </Layer>
      <Layer Index="1" NNeurons="13">
        <Neuron NSynapses="1">
          -4.7514904638562311e-01 
        </Neuron>
        <Neuron NSynapses="1">
          -3.9182298752266909e-01 
        </Neuron>
        <Neuron NSynapses="1">
          4.0075360396140958e-02 
        </Neuron>
        <Neuron NSynapses="1">
          -3.4560129686504744e-02 
        </Neuron>
        <Neuron NSynapses="1">
          -3.6710738281776795e-01 
        </Neuron>
        <Neuron NSynapses="1">
          -6.1706636880378607e-01 
        </Neuron>
        <Neuron NSynapses="1">
          -1.4751972227292426e-01 
        </Neuron>
        <Neuron NSynapses="1">
          3.3884165642311337e-01 
        </Neuron>
        <Neuron NSynapses="1">
          -6.4520412037563024e-01 
        </Neuron>
        <Neuron NSynapses="1">
          -7.0264710048020748e-02 
        </Neuron>
        <Neuron NSynapses="1">
          -5.9528898558098053e-01 
        </Neuron>
        <Neuron NSynapses="1">
          -1.1331976452444392e-02 
        </Neuron>
        <Neuron NSynapses="1">
          -4.2924679144772993e-01 
        </Neuron>
      </Layer>
      <Layer Index="2" NNeurons="1">
        <Neuron NSynapses="0"/>
      </Layer>
    </Layout>
  </Weights>
</MethodSetup>
