<?xml version="1.0"?>
<MethodSetup Method="BDT::BDT">
  <GeneralInfo>
    <Info name="TMVA Release" value="4.1.2 [262402]"/>
    <Info name="ROOT Release" value="5.32/01 [335873]"/>
    <Info name="Creator" value="inutard"/>
    <Info name="Date" value="Sat Apr 12 02:49:15 2014"/>
    <Info name="Host" value="Linux lxbuild148.cern.ch 2.6.18-238.5.1.el5 #1 SMP Wed Mar 2 15:08:52 CET 2011 x86_64 x86_64 x86_64 GNU/Linux"/>
    <Info name="Dir" value="/home/inutard/tmva-studies/lean_tmva"/>
    <Info name="Training events" value="103624"/>
    <Info name="TrainingTime" value="8.17446880e+01"/>
    <Info name="AnalysisType" value="Classification"/>
  </GeneralInfo>
  <Options>
    <Option name="V" modified="Yes">False</Option>
    <Option name="VerbosityLevel" modified="No">Default</Option>
    <Option name="VarTransform" modified="No">None</Option>
    <Option name="H" modified="Yes">False</Option>
    <Option name="CreateMVAPdfs" modified="No">False</Option>
    <Option name="IgnoreNegWeightsInTraining" modified="No">False</Option>
    <Option name="NTrees" modified="Yes">400</Option>
    <Option name="RenormByClass" modified="No">False</Option>
    <Option name="BoostType" modified="Yes">AdaBoost</Option>
    <Option name="AdaBoostR2Loss" modified="No">quadratic</Option>
    <Option name="UseBaggedGrad" modified="No">False</Option>
    <Option name="GradBaggingFraction" modified="No">6.000000e-01</Option>
    <Option name="Shrinkage" modified="No">1.000000e+00</Option>
    <Option name="AdaBoostBeta" modified="No">1.000000e+00</Option>
    <Option name="UseRandomisedTrees" modified="No">False</Option>
    <Option name="UseNvars" modified="No">4</Option>
    <Option name="UsePoissonNvars" modified="No">True</Option>
    <Option name="UseNTrainEvents" modified="No">103624</Option>
    <Option name="UseWeightedTrees" modified="No">True</Option>
    <Option name="UseYesNoLeaf" modified="No">True</Option>
    <Option name="NodePurityLimit" modified="No">5.000000e-01</Option>
    <Option name="SeparationType" modified="Yes">giniindex</Option>
    <Option name="nEventsMin" modified="Yes">400</Option>
    <Option name="nCuts" modified="Yes">20</Option>
    <Option name="UseFisherCuts" modified="No">False</Option>
    <Option name="MinLinCorrForFisher" modified="No">8.000000e-01</Option>
    <Option name="UseExclusiveVars" modified="No">False</Option>
    <Option name="PruneStrength" modified="No">0.000000e+00</Option>
    <Option name="PruneMethod" modified="Yes">nopruning</Option>
    <Option name="PruneBeforeBoost" modified="No">False</Option>
    <Option name="PruningValFraction" modified="No">5.000000e-01</Option>
    <Option name="NNodesMax" modified="No">100000</Option>
    <Option name="MaxDepth" modified="Yes">3</Option>
    <Option name="DoBoostMonitor" modified="No">False</Option>
    <Option name="NegWeightTreatment" modified="No">inverseboostnegweights</Option>
  </Options>
  <Variables NVar="13">
    <Variable VarIndex="0" Expression="lep_eta" Label="lep_eta" Title="lep_eta" Unit="nan" Internal="lep_eta" Type="F" Min="-2.48856997e+00" Max="2.48635578e+00"/>
    <Variable VarIndex="1" Expression="met_et" Label="met_et" Title="met_et" Unit="nan" Internal="met_et" Type="F" Min="1.49342865e+02" Max="2.21697760e+07"/>
    <Variable VarIndex="2" Expression="met_phi" Label="met_phi" Title="met_phi" Unit="nan" Internal="met_phi" Type="F" Min="-3.14153075e+00" Max="3.14158893e+00"/>
    <Variable VarIndex="3" Expression="Whad_pt" Label="Whad_pt" Title="Whad_pt" Unit="nan" Internal="Whad_pt" Type="F" Min="1.50002906e+05" Max="1.37324350e+06"/>
    <Variable VarIndex="4" Expression="Whad_dR" Label="Whad_dR" Title="Whad_dR" Unit="nan" Internal="Whad_dR" Type="F" Min="-1.00000000e+00" Max="7.99996138e-01"/>
    <Variable VarIndex="5" Expression="Wlep_pt" Label="Wlep_pt" Title="Wlep_pt" Unit="nan" Internal="Wlep_pt" Type="F" Min="7.50703857e+02" Max="2.22581360e+07"/>
    <Variable VarIndex="6" Expression="Wlep_phi" Label="Wlep_phi" Title="Wlep_phi" Unit="nan" Internal="Wlep_phi" Type="F" Min="-3.14157581e+00" Max="3.14151740e+00"/>
    <Variable VarIndex="7" Expression="dR_lb_lep" Label="dR_lb_lep" Title="dR_lb_lep" Unit="nan" Internal="dR_lb_lep" Type="F" Min="4.00038838e-01" Max="5.28502321e+00"/>
    <Variable VarIndex="8" Expression="dR_Whad_blep" Label="dR_Whad_blep" Title="dR_Whad_blep" Unit="nan" Internal="dR_Whad_blep" Type="F" Min="1.95066482e-01" Max="5.52754450e+00"/>
    <Variable VarIndex="9" Expression="dR_Whad_b1" Label="dR_Whad_b1" Title="dR_Whad_b1" Unit="nan" Internal="dR_Whad_b1" Type="F" Min="2.93148309e-01" Max="5.46824741e+00"/>
    <Variable VarIndex="10" Expression="mindR_lb" Label="mindR_lb" Title="mindR_lb" Unit="nan" Internal="mindR_lb" Type="F" Min="4.00038838e-01" Max="4.66488743e+00"/>
    <Variable VarIndex="11" Expression="mindR_jj" Label="mindR_jj" Title="mindR_jj" Unit="nan" Internal="mindR_jj" Type="F" Min="3.57963324e-01" Max="3.63540411e+00"/>
    <Variable VarIndex="12" Expression="Ht" Label="Ht" Title="Ht" Unit="nan" Internal="Ht" Type="F" Min="2.93939469e+05" Max="2.29691260e+07"/>
  </Variables>
  <Spectators NSpec="0"/>
  <Classes NClass="2">
    <Class Name="Signal" Index="0"/>
    <Class Name="Background" Index="1"/>
  </Classes>
  <Transformations NTransformations="0"/>
  <MVAPdfs/>
  <Weights NTrees="400" AnalysisType="0">
    <BinaryTree type="DecisionTree" boostWeight="2.1611665102169124e+00" itree="0">
      <Node pos="s" depth="0" NCoef="0" IVar="3" Cut="2.6650200000000000e+05" cType="0" res="-9.9000000000000000e+01" rms="0.0000000000000000e+00" purity="6.1774098873138428e-01" nType="0">
        <Node pos="l" depth="1" NCoef="0" IVar="7" Cut="1.3305120468139648e+00" cType="0" res="-9.9000000000000000e+01" rms="0.0000000000000000e+00" purity="7.9918110370635986e-01" nType="0">
          <Node pos="l" depth="2" NCoef="0" IVar="-1" Cut="3.1798693750000000e+05" cType="0" res="-9.9000000000000000e+01" rms="0.0000000000000000e+00" purity="8.8073533773422241e-01" nType="1"/>
          <Node pos="r" depth="2" NCoef="0" IVar="12" Cut="1.0061625625000000e+06" cType="0" res="-9.9000000000000000e+01" rms="0.0000000000000000e+00" purity="3.9623028039932251e-01" nType="0">
            <Node pos="l" depth="3" NCoef="0" IVar="-1" Cut="0.0000000000000000e+00" cType="1" res="-9.9000000000000000e+01" rms="0.0000000000000000e+00" purity="7.9049587249755859e-01" nType="1"/>
            <Node pos="r" depth="3" NCoef="0" IVar="-1" Cut="0.0000000000000000e+00" cType="1" res="-9.9000000000000000e+01" rms="0.0000000000000000e+00" purity="8.8610120117664337e-02" nType="-1"/>
          </Node>
        </Node>
        <Node pos="r" depth="1" NCoef="0" IVar="12" Cut="7.6815868750000000e+05" cType="0" res="-9.9000000000000000e+01" rms="0.0000000000000000e+00" purity="3.4543389081954956e-01" nType="0">
          <Node pos="l" depth="2" NCoef="0" IVar="12" Cut="8.6415175000000000e+05" cType="0" res="-9.9000000000000000e+01" rms="0.0000000000000000e+00" purity="8.5141122341156006e-01" nType="0">
            <Node pos="l" depth="3" NCoef="0" IVar="-1" Cut="0.0000000000000000e+00" cType="1" res="-9.9000000000000000e+01" rms="0.0000000000000000e+00" purity="9.2175990343093872e-01" nType="1"/>
            <Node pos="r" depth="3" NCoef="0" IVar="-1" Cut="0.0000000000000000e+00" cType="1" res="-9.9000000000000000e+01" rms="0.0000000000000000e+00" purity="4.6436476707458496e-01" nType="-1"/>
          </Node>
          <Node pos="r" depth="2" NCoef="0" IVar="-1" Cut="6.7782875000000000e+05" cType="0" res="-9.9000000000000000e+01" rms="0.0000000000000000e+00" purity="3.4365724772214890e-02" nType="-1"/>
        </Node>
      </Node>
    </BinaryTree>
    <BinaryTree type="DecisionTree" boostWeight="1.1487711961125227e+00" itree="1">
      <Node pos="s" depth="0" NCoef="0" IVar="10" Cut="1.8216550350189209e+00" cType="0" res="-9.9000000000000000e+01" rms="0.0000000000000000e+00" purity="4.4900313019752502e-01" nType="0">
        <Node pos="l" depth="1" NCoef="0" IVar="9" Cut="1.4395836591720581e+00" cType="0" res="-9.9000000000000000e+01" rms="0.0000000000000000e+00" purity="6.4811331033706665e-01" nType="0">
          <Node pos="l" depth="2" NCoef="0" IVar="-1" Cut="1.3737102500000000e+06" cType="0" res="-9.9000000000000000e+01" rms="0.0000000000000000e+00" purity="7.0054835081100464e-01" nType="1"/>
          <Node pos="r" depth="2" NCoef="0" IVar="12" Cut="1.1112773750000000e+06" cType="0" res="-9.9000000000000000e+01" rms="0.0000000000000000e+00" purity="3.9039686322212219e-01" nType="0">
            <Node pos="l" depth="3" NCoef="0" IVar="-1" Cut="0.0000000000000000e+00" cType="1" res="-9.9000000000000000e+01" rms="0.0000000000000000e+00" purity="7.4851471185684204e-01" nType="1"/>
            <Node pos="r" depth="3" NCoef="0" IVar="-1" Cut="0.0000000000000000e+00" cType="1" res="-9.9000000000000000e+01" rms="0.0000000000000000e+00" purity="2.5490915775299072e-01" nType="-1"/>
          </Node>
        </Node>
        <Node pos="r" depth="1" NCoef="0" IVar="12" Cut="1.1686495000000000e+06" cType="0" res="-9.9000000000000000e+01" rms="0.0000000000000000e+00" purity="3.2783523201942444e-01" nType="0">
          <Node pos="l" depth="2" NCoef="0" IVar="7" Cut="9.8328471183776855e-01" cType="0" res="-9.9000000000000000e+01" rms="0.0000000000000000e+00" purity="7.3585343360900879e-01" nType="0">
            <Node pos="l" depth="3" NCoef="0" IVar="-1" Cut="0.0000000000000000e+00" cType="1" res="-9.9000000000000000e+01" rms="0.0000000000000000e+00" purity="8.1963908672332764e-01" nType="1"/>
            <Node pos="r" depth="3" NCoef="0" IVar="-1" Cut="0.0000000000000000e+00" cType="1" res="-9.9000000000000000e+01" rms="0.0000000000000000e+00" purity="3.0926093459129333e-01" nType="-1"/>
          </Node>
          <Node pos="r" depth="2" NCoef="0" IVar="-1" Cut="7.5350281250000000e+05" cType="0" res="-9.9000000000000000e+01" rms="0.0000000000000000e+00" purity="2.1195605397224426e-01" nType="-1"/>
        </Node>
      </Node>
    </BinaryTree>
    <BinaryTree type="DecisionTree" boostWeight="9.2287389342039960e-01" itree="2">
      <Node pos="s" depth="0" NCoef="0" IVar="12" Cut="1.3737102500000000e+06" cType="0" res="-9.9000000000000000e+01" rms="0.0000000000000000e+00" purity="4.6794477105140686e-01" nType="0">
        <Node pos="l" depth="1" NCoef="0" IVar="9" Cut="7.6501876115798950e-01" cType="0" res="-9.9000000000000000e+01" rms="0.0000000000000000e+00" purity="7.2745305299758911e-01" nType="0">
          <Node pos="l" depth="2" NCoef="0" IVar="10" Cut="7.4126720428466797e-01" cType="0" res="-9.9000000000000000e+01" rms="0.0000000000000000e+00" purity="7.5374442338943481e-01" nType="0">
            <Node pos="l" depth="3" NCoef="0" IVar="-1" Cut="0.0000000000000000e+00" cType="1" res="-9.9000000000000000e+01" rms="0.0000000000000000e+00" purity="7.8725814819335938e-01" nType="1"/>
            <Node pos="r" depth="3" NCoef="0" IVar="-1" Cut="0.0000000000000000e+00" cType="1" res="-9.9000000000000000e+01" rms="0.0000000000000000e+00" purity="4.7242498397827148e-01" nType="-1"/>
          </Node>
          <Node pos="r" depth="2" NCoef="0" IVar="-1" Cut="0.0000000000000000e+00" cType="1" res="-9.9000000000000000e+01" rms="0.0000000000000000e+00" purity="3.4523043036460876e-01" nType="-1"/>
        </Node>
        <Node pos="r" depth="1" NCoef="0" IVar="12" Cut="7.5669143750000000e+05" cType="0" res="-9.9000000000000000e+01" rms="0.0000000000000000e+00" purity="4.4252601265907288e-01" nType="0">
          <Node pos="l" depth="2" NCoef="0" IVar="5" Cut="1.3496321875000000e+05" cType="0" res="-9.9000000000000000e+01" rms="0.0000000000000000e+00" purity="5.8165884017944336e-01" nType="0">
            <Node pos="l" depth="3" NCoef="0" IVar="-1" Cut="0.0000000000000000e+00" cType="1" res="-9.9000000000000000e+01" rms="0.0000000000000000e+00" purity="6.4947170019149780e-01" nType="1"/>
            <Node pos="r" depth="3" NCoef="0" IVar="-1" Cut="0.0000000000000000e+00" cType="1" res="-9.9000000000000000e+01" rms="0.0000000000000000e+00" purity="3.5868197679519653e-01" nType="-1"/>
          </Node>
          <Node pos="r" depth="2" NCoef="0" IVar="-1" Cut="2.7025425000000000e+05" cType="1" res="-9.9000000000000000e+01" rms="0.0000000000000000e+00" purity="1.5484103560447693e-01" nType="-1"/>
        </Node>
      </Node>
    </BinaryTree>
    <BinaryTree type="DecisionTree" boostWeight="6.8730232850162976e-01" itree="3">
      <Node pos="s" depth="0" NCoef="0" IVar="3" Cut="2.6650200000000000e+05" cType="1" res="-9.9000000000000000e+01" rms="0.0000000000000000e+00" purity="4.3661347031593323e-01" nType="0">
        <Node pos="l" depth="1" NCoef="0" IVar="12" Cut="6.4960387500000000e+05" cType="0" res="-9.9000000000000000e+01" rms="0.0000000000000000e+00" purity="5.4603904485702515e-01" nType="0">
          <Node pos="l" depth="2" NCoef="0" IVar="12" Cut="8.5284943750000000e+05" cType="1" res="-9.9000000000000000e+01" rms="0.0000000000000000e+00" purity="6.5470182895660400e-01" nType="0">
            <Node pos="l" depth="3" NCoef="0" IVar="-1" Cut="0.0000000000000000e+00" cType="1" res="-9.9000000000000000e+01" rms="0.0000000000000000e+00" purity="8.3646923303604126e-01" nType="1"/>
            <Node pos="r" depth="3" NCoef="0" IVar="-1" Cut="0.0000000000000000e+00" cType="1" res="-9.9000000000000000e+01" rms="0.0000000000000000e+00" purity="4.7638663649559021e-01" nType="-1"/>
          </Node>
          <Node pos="r" depth="2" NCoef="0" IVar="12" Cut="6.1572650000000000e+05" cType="0" res="-9.9000000000000000e+01" rms="0.0000000000000000e+00" purity="2.2895109653472900e-01" nType="0">
            <Node pos="l" depth="3" NCoef="0" IVar="-1" Cut="0.0000000000000000e+00" cType="1" res="-9.9000000000000000e+01" rms="0.0000000000000000e+00" purity="5.8870011568069458e-01" nType="1"/>
            <Node pos="r" depth="3" NCoef="0" IVar="-1" Cut="0.0000000000000000e+00" cType="1" res="-9.9000000000000000e+01" rms="0.0000000000000000e+00" purity="1.4529372751712799e-01" nType="-1"/>
          </Node>
        </Node>
        <Node pos="r" depth="1" NCoef="0" IVar="4" Cut="5.4280579090118408e-01" cType="1" res="-9.9000000000000000e+01" rms="0.0000000000000000e+00" purity="3.7715646624565125e-01" nType="0">
          <Node pos="l" depth="2" NCoef="0" IVar="11" Cut="1.1383063793182373e+00" cType="0" res="-9.9000000000000000e+01" rms="0.0000000000000000e+00" purity="4.3494591116905212e-01" nType="0">
            <Node pos="l" depth="3" NCoef="0" IVar="-1" Cut="0.0000000000000000e+00" cType="1" res="-9.9000000000000000e+01" rms="0.0000000000000000e+00" purity="6.3506585359573364e-01" nType="1"/>
            <Node pos="r" depth="3" NCoef="0" IVar="-1" Cut="0.0000000000000000e+00" cType="1" res="-9.9000000000000000e+01" rms="0.0000000000000000e+00" purity="4.1076251864433289e-01" nType="-1"/>
          </Node>
          <Node pos="r" depth="2" NCoef="0" IVar="-1" Cut="8.8080306250000000e+05" cType="0" res="-9.9000000000000000e+01" rms="0.0000000000000000e+00" purity="2.8507831692695618e-01" nType="-1"/>
        </Node>
      </Node>
    </BinaryTree>
    <BinaryTree type="DecisionTree" boostWeight="5.8742069642727890e-01" itree="4">
      <Node pos="s" depth="0" NCoef="0" IVar="12" Cut="1.3737102500000000e+06" cType="0" res="-9.9000000000000000e+01" rms="0.0000000000000000e+00" purity="5.4405212402343750e-01" nType="0">
        <Node pos="l" depth="1" NCoef="0" IVar="3" Cut="5.5885793750000000e+05" cType="1" res="-9.9000000000000000e+01" rms="0.0000000000000000e+00" purity="7.2265940904617310e-01" nType="0">
          <Node pos="l" depth="2" NCoef="0" IVar="-1" Cut="1.5926694869995117e+00" cType="0" res="-9.9000000000000000e+01" rms="0.0000000000000000e+00" purity="7.9483085870742798e-01" nType="1"/>
          <Node pos="r" depth="2" NCoef="0" IVar="5" Cut="1.3744875000000000e+05" cType="0" res="-9.9000000000000000e+01" rms="0.0000000000000000e+00" purity="5.7242137193679810e-01" nType="0">
            <Node pos="l" depth="3" NCoef="0" IVar="-1" Cut="0.0000000000000000e+00" cType="1" res="-9.9000000000000000e+01" rms="0.0000000000000000e+00" purity="6.9554293155670166e-01" nType="1"/>
            <Node pos="r" depth="3" NCoef="0" IVar="-1" Cut="0.0000000000000000e+00" cType="1" res="-9.9000000000000000e+01" rms="0.0000000000000000e+00" purity="1.9892236590385437e-01" nType="-1"/>
          </Node>
        </Node>
        <Node pos="r" depth="1" NCoef="0" IVar="12" Cut="7.0527450000000000e+05" cType="0" res="-9.9000000000000000e+01" rms="0.0000000000000000e+00" purity="5.2449321746826172e-01" nType="0">
          <Node pos="l" depth="2" NCoef="0" IVar="9" Cut="1.0324481725692749e+00" cType="0" res="-9.9000000000000000e+01" rms="0.0000000000000000e+00" purity="5.8089667558670044e-01" nType="0">
            <Node pos="l" depth="3" NCoef="0" IVar="-1" Cut="0.0000000000000000e+00" cType="1" res="-9.9000000000000000e+01" rms="0.0000000000000000e+00" purity="6.0697966814041138e-01" nType="1"/>
            <Node pos="r" depth="3" NCoef="0" IVar="-1" Cut="0.0000000000000000e+00" cType="1" res="-9.9000000000000000e+01" rms="0.0000000000000000e+00" purity="3.9957231283187866e-01" nType="-1"/>
          </Node>
          <Node pos="r" depth="2" NCoef="0" IVar="-1" Cut="2.9284801483154297e+00" cType="0" res="-9.9000000000000000e+01" rms="0.0000000000000000e+00" purity="2.6911535859107971e-01" nType="-1"/>
        </Node>
      </Node>
    </BinaryTree>
    <BinaryTree type="DecisionTree" boostWeight="5.8270824701979329e-01" itree="5">
      <Node pos="s" depth="0" NCoef="0" IVar="3" Cut="2.6650200000000000e+05" cType="1" res="-9.9000000000000000e+01" rms="0.0000000000000000e+00" purity="4.7453930974006653e-01" nType="0">
        <Node pos="l" depth="1" NCoef="0" IVar="7" Cut="1.3195593357086182e+00" cType="0" res="-9.9000000000000000e+01" rms="0.0000000000000000e+00" purity="5.6650501489639282e-01" nType="0">
          <Node pos="l" depth="2" NCoef="0" IVar="12" Cut="5.3104906250000000e+05" cType="0" res="-9.9000000000000000e+01" rms="0.0000000000000000e+00" purity="6.2641638517379761e-01" nType="0">
            <Node pos="l" depth="3" NCoef="0" IVar="-1" Cut="0.0000000000000000e+00" cType="1" res="-9.9000000000000000e+01" rms="0.0000000000000000e+00" purity="6.5857779979705811e-01" nType="1"/>
            <Node pos="r" depth="3" NCoef="0" IVar="-1" Cut="0.0000000000000000e+00" cType="1" res="-9.9000000000000000e+01" rms="0.0000000000000000e+00" purity="2.3439814150333405e-01" nType="-1"/>
          </Node>
          <Node pos="r" depth="2" NCoef="0" IVar="-1" Cut="5.2495937500000000e+05" cType="0" res="-9.9000000000000000e+01" rms="0.0000000000000000e+00" purity="3.4339785575866699e-01" nType="-1"/>
        </Node>
        <Node pos="r" depth="1" NCoef="0" IVar="7" Cut="1.3305120468139648e+00" cType="1" res="-9.9000000000000000e+01" rms="0.0000000000000000e+00" purity="4.2836177349090576e-01" nType="0">
          <Node pos="l" depth="2" NCoef="0" IVar="12" Cut="1.0061625625000000e+06" cType="1" res="-9.9000000000000000e+01" rms="0.0000000000000000e+00" purity="5.5024647712707520e-01" nType="0">
            <Node pos="l" depth="3" NCoef="0" IVar="-1" Cut="0.0000000000000000e+00" cType="1" res="-9.9000000000000000e+01" rms="0.0000000000000000e+00" purity="7.5585526227951050e-01" nType="1"/>
            <Node pos="r" depth="3" NCoef="0" IVar="-1" Cut="0.0000000000000000e+00" cType="1" res="-9.9000000000000000e+01" rms="0.0000000000000000e+00" purity="3.5551086068153381e-01" nType="-1"/>
          </Node>
          <Node pos="r" depth="2" NCoef="0" IVar="-1" Cut="6.2851727008819580e-01" cType="1" res="-9.9000000000000000e+01" rms="0.0000000000000000e+00" purity="3.9085507392883301e-01" nType="-1"/>
        </Node>
      </Node>
    </BinaryTree>
    <BinaryTree type="DecisionTree" boostWeight="6.2367848947421134e-01" itree="6">
      <Node pos="s" depth="0" NCoef="0" IVar="12" Cut="1.3737102500000000e+06" cType="0" res="-9.9000000000000000e+01" rms="0.0000000000000000e+00" purity="5.2786129713058472e-01" nType="0">
        <Node pos="l" depth="1" NCoef="0" IVar="0" Cut="8.2535386085510254e-01" cType="1" res="-9.9000000000000000e+01" rms="0.0000000000000000e+00" purity="7.2943437099456787e-01" nType="0">
          <Node pos="l" depth="2" NCoef="0" IVar="-1" Cut="1.4172739062500000e+05" cType="0" res="-9.9000000000000000e+01" rms="0.0000000000000000e+00" purity="7.6218724250793457e-01" nType="1"/>
          <Node pos="r" depth="2" NCoef="0" IVar="7" Cut="2.5479037761688232e+00" cType="1" res="-9.9000000000000000e+01" rms="0.0000000000000000e+00" purity="5.7343071699142456e-01" nType="0">
            <Node pos="l" depth="3" NCoef="0" IVar="-1" Cut="0.0000000000000000e+00" cType="1" res="-9.9000000000000000e+01" rms="0.0000000000000000e+00" purity="7.0946490764617920e-01" nType="1"/>
            <Node pos="r" depth="3" NCoef="0" IVar="-1" Cut="0.0000000000000000e+00" cType="1" res="-9.9000000000000000e+01" rms="0.0000000000000000e+00" purity="4.0175428986549377e-01" nType="-1"/>
          </Node>
        </Node>
        <Node pos="r" depth="1" NCoef="0" IVar="12" Cut="9.6235893750000000e+05" cType="0" res="-9.9000000000000000e+01" rms="0.0000000000000000e+00" purity="5.0455200672149658e-01" nType="0">
          <Node pos="l" depth="2" NCoef="0" IVar="3" Cut="4.4780681250000000e+05" cType="1" res="-9.9000000000000000e+01" rms="0.0000000000000000e+00" purity="6.2707936763763428e-01" nType="0">
            <Node pos="l" depth="3" NCoef="0" IVar="-1" Cut="0.0000000000000000e+00" cType="1" res="-9.9000000000000000e+01" rms="0.0000000000000000e+00" purity="6.7142254114151001e-01" nType="1"/>
            <Node pos="r" depth="3" NCoef="0" IVar="-1" Cut="0.0000000000000000e+00" cType="1" res="-9.9000000000000000e+01" rms="0.0000000000000000e+00" purity="4.1791501641273499e-01" nType="-1"/>
          </Node>
          <Node pos="r" depth="2" NCoef="0" IVar="7" Cut="3.1914584636688232e+00" cType="0" res="-9.9000000000000000e+01" rms="0.0000000000000000e+00" purity="4.0389105677604675e-01" nType="0">
            <Node pos="l" depth="3" NCoef="0" IVar="-1" Cut="0.0000000000000000e+00" cType="1" res="-9.9000000000000000e+01" rms="0.0000000000000000e+00" purity="6.0154771804809570e-01" nType="1"/>
            <Node pos="r" depth="3" NCoef="0" IVar="-1" Cut="0.0000000000000000e+00" cType="1" res="-9.9000000000000000e+01" rms="0.0000000000000000e+00" purity="3.6778917908668518e-01" nType="-1"/>
          </Node>
        </Node>
      </Node>
    </BinaryTree>
    <BinaryTree type="DecisionTree" boostWeight="3.2337213206564508e-01" itree="7">
      <Node pos="s" depth="0" NCoef="0" IVar="10" Cut="8.0621486902236938e-01" cType="0" res="-9.9000000000000000e+01" rms="0.0000000000000000e+00" purity="5.2891433238983154e-01" nType="0">
        <Node pos="l" depth="1" NCoef="0" IVar="4" Cut="6.2856447696685791e-01" cType="1" res="-9.9000000000000000e+01" rms="0.0000000000000000e+00" purity="5.4658061265945435e-01" nType="0">
          <Node pos="l" depth="2" NCoef="0" IVar="8" Cut="3.5489685535430908e+00" cType="1" res="-9.9000000000000000e+01" rms="0.0000000000000000e+00" purity="5.7830357551574707e-01" nType="0">
            <Node pos="l" depth="3" NCoef="0" IVar="-1" Cut="0.0000000000000000e+00" cType="1" res="-9.9000000000000000e+01" rms="0.0000000000000000e+00" purity="5.8896410465240479e-01" nType="1"/>
            <Node pos="r" depth="3" NCoef="0" IVar="-1" Cut="0.0000000000000000e+00" cType="1" res="-9.9000000000000000e+01" rms="0.0000000000000000e+00" purity="4.1330534219741821e-01" nType="-1"/>
          </Node>
          <Node pos="r" depth="2" NCoef="0" IVar="1" Cut="2.2428660937500000e+05" cType="1" res="-9.9000000000000000e+01" rms="0.0000000000000000e+00" purity="4.8991504311561584e-01" nType="0">
            <Node pos="l" depth="3" NCoef="0" IVar="-1" Cut="0.0000000000000000e+00" cType="1" res="-9.9000000000000000e+01" rms="0.0000000000000000e+00" purity="5.2165538072586060e-01" nType="1"/>
            <Node pos="r" depth="3" NCoef="0" IVar="-1" Cut="0.0000000000000000e+00" cType="1" res="-9.9000000000000000e+01" rms="0.0000000000000000e+00" purity="3.1847485899925232e-01" nType="-1"/>
          </Node>
        </Node>
        <Node pos="r" depth="1" NCoef="0" IVar="12" Cut="1.3244957500000000e+06" cType="0" res="-9.9000000000000000e+01" rms="0.0000000000000000e+00" purity="4.2444339394569397e-01" nType="0">
          <Node pos="l" depth="2" NCoef="0" IVar="9" Cut="2.6642949581146240e+00" cType="1" res="-9.9000000000000000e+01" rms="0.0000000000000000e+00" purity="6.1870193481445312e-01" nType="0">
            <Node pos="l" depth="3" NCoef="0" IVar="-1" Cut="0.0000000000000000e+00" cType="1" res="-9.9000000000000000e+01" rms="0.0000000000000000e+00" purity="7.0426791906356812e-01" nType="1"/>
            <Node pos="r" depth="3" NCoef="0" IVar="-1" Cut="0.0000000000000000e+00" cType="1" res="-9.9000000000000000e+01" rms="0.0000000000000000e+00" purity="4.7155076265335083e-01" nType="-1"/>
          </Node>
          <Node pos="r" depth="2" NCoef="0" IVar="5" Cut="1.4963951562500000e+05" cType="1" res="-9.9000000000000000e+01" rms="0.0000000000000000e+00" purity="3.9221552014350891e-01" nType="0">
            <Node pos="l" depth="3" NCoef="0" IVar="-1" Cut="0.0000000000000000e+00" cType="1" res="-9.9000000000000000e+01" rms="0.0000000000000000e+00" purity="5.1437306404113770e-01" nType="1"/>
            <Node pos="r" depth="3" NCoef="0" IVar="-1" Cut="0.0000000000000000e+00" cType="1" res="-9.9000000000000000e+01" rms="0.0000000000000000e+00" purity="3.5243821144104004e-01" nType="-1"/>
          </Node>
        </Node>
      </Node>
    </BinaryTree>
    <BinaryTree type="DecisionTree" boostWeight="3.1449472646830656e-01" itree="8">
      <Node pos="s" depth="0" NCoef="0" IVar="10" Cut="1.8216550350189209e+00" cType="1" res="-9.9000000000000000e+01" rms="0.0000000000000000e+00" purity="4.7742423415184021e-01" nType="0">
        <Node pos="l" depth="1" NCoef="0" IVar="7" Cut="2.4687099456787109e+00" cType="0" res="-9.9000000000000000e+01" rms="0.0000000000000000e+00" purity="5.0837177038192749e-01" nType="0">
          <Node pos="l" depth="2" NCoef="0" IVar="10" Cut="1.0094504356384277e+00" cType="0" res="-9.9000000000000000e+01" rms="0.0000000000000000e+00" purity="5.8684349060058594e-01" nType="0">
            <Node pos="l" depth="3" NCoef="0" IVar="-1" Cut="0.0000000000000000e+00" cType="1" res="-9.9000000000000000e+01" rms="0.0000000000000000e+00" purity="6.6639077663421631e-01" nType="1"/>
            <Node pos="r" depth="3" NCoef="0" IVar="-1" Cut="0.0000000000000000e+00" cType="1" res="-9.9000000000000000e+01" rms="0.0000000000000000e+00" purity="4.5454224944114685e-01" nType="-1"/>
          </Node>
          <Node pos="r" depth="2" NCoef="0" IVar="8" Cut="2.1925742626190186e+00" cType="0" res="-9.9000000000000000e+01" rms="0.0000000000000000e+00" purity="4.8026955127716064e-01" nType="0">
            <Node pos="l" depth="3" NCoef="0" IVar="-1" Cut="0.0000000000000000e+00" cType="1" res="-9.9000000000000000e+01" rms="0.0000000000000000e+00" purity="5.0163626670837402e-01" nType="1"/>
            <Node pos="r" depth="3" NCoef="0" IVar="-1" Cut="0.0000000000000000e+00" cType="1" res="-9.9000000000000000e+01" rms="0.0000000000000000e+00" purity="3.8726693391799927e-01" nType="-1"/>
          </Node>
        </Node>
        <Node pos="r" depth="1" NCoef="0" IVar="12" Cut="1.3737102500000000e+06" cType="0" res="-9.9000000000000000e+01" rms="0.0000000000000000e+00" purity="4.2951250076293945e-01" nType="0">
          <Node pos="l" depth="2" NCoef="0" IVar="3" Cut="6.0822087500000000e+05" cType="1" res="-9.9000000000000000e+01" rms="0.0000000000000000e+00" purity="6.2186020612716675e-01" nType="0">
            <Node pos="l" depth="3" NCoef="0" IVar="-1" Cut="0.0000000000000000e+00" cType="1" res="-9.9000000000000000e+01" rms="0.0000000000000000e+00" purity="6.9930934906005859e-01" nType="1"/>
            <Node pos="r" depth="3" NCoef="0" IVar="-1" Cut="0.0000000000000000e+00" cType="1" res="-9.9000000000000000e+01" rms="0.0000000000000000e+00" purity="3.5013502836227417e-01" nType="-1"/>
          </Node>
          <Node pos="r" depth="2" NCoef="0" IVar="12" Cut="1.0651901250000000e+06" cType="0" res="-9.9000000000000000e+01" rms="0.0000000000000000e+00" purity="4.1233679652214050e-01" nType="0">
            <Node pos="l" depth="3" NCoef="0" IVar="-1" Cut="0.0000000000000000e+00" cType="1" res="-9.9000000000000000e+01" rms="0.0000000000000000e+00" purity="5.5681729316711426e-01" nType="1"/>
            <Node pos="r" depth="3" NCoef="0" IVar="-1" Cut="0.0000000000000000e+00" cType="1" res="-9.9000000000000000e+01" rms="0.0000000000000000e+00" purity="3.5963687300682068e-01" nType="-1"/>
          </Node>
        </Node>
      </Node>
    </BinaryTree>
    <BinaryTree type="DecisionTree" boostWeight="2.4966526487045046e-01" itree="9">
      <Node pos="s" depth="0" NCoef="0" IVar="7" Cut="2.2609853744506836e+00" cType="0" res="-9.9000000000000000e+01" rms="0.0000000000000000e+00" purity="4.6324965357780457e-01" nType="0">
        <Node pos="l" depth="1" NCoef="0" IVar="10" Cut="1.8218321800231934e+00" cType="1" res="-9.9000000000000000e+01" rms="0.0000000000000000e+00" purity="5.0598388910293579e-01" nType="0">
          <Node pos="l" depth="2" NCoef="0" IVar="-1" Cut="1.4156394004821777e+00" cType="0" res="-9.9000000000000000e+01" rms="0.0000000000000000e+00" purity="5.5408322811126709e-01" nType="1"/>
          <Node pos="r" depth="2" NCoef="0" IVar="8" Cut="2.1896066665649414e+00" cType="0" res="-9.9000000000000000e+01" rms="0.0000000000000000e+00" purity="4.7583639621734619e-01" nType="0">
            <Node pos="l" depth="3" NCoef="0" IVar="-1" Cut="0.0000000000000000e+00" cType="1" res="-9.9000000000000000e+01" rms="0.0000000000000000e+00" purity="5.1504468917846680e-01" nType="1"/>
            <Node pos="r" depth="3" NCoef="0" IVar="-1" Cut="0.0000000000000000e+00" cType="1" res="-9.9000000000000000e+01" rms="0.0000000000000000e+00" purity="4.2141297459602356e-01" nType="-1"/>
          </Node>
        </Node>
        <Node pos="r" depth="1" NCoef="0" IVar="-1" Cut="5.8481612500000000e+05" cType="0" res="-9.9000000000000000e+01" rms="0.0000000000000000e+00" purity="4.2325881123542786e-01" nType="-1"/>
      </Node>
    </BinaryTree>
    <BinaryTree type="DecisionTree" boostWeight="2.5678783790349691e-01" itree="10">
      <Node pos="s" depth="0" NCoef="0" IVar="7" Cut="1.3305120468139648e+00" cType="1" res="-9.9000000000000000e+01" rms="0.0000000000000000e+00" purity="4.8046118021011353e-01" nType="0">
        <Node pos="l" depth="1" NCoef="0" IVar="12" Cut="1.0309044375000000e+06" cType="1" res="-9.9000000000000000e+01" rms="0.0000000000000000e+00" purity="5.3155511617660522e-01" nType="0">
          <Node pos="l" depth="2" NCoef="0" IVar="12" Cut="5.4812775000000000e+05" cType="0" res="-9.9000000000000000e+01" rms="0.0000000000000000e+00" purity="6.0240662097930908e-01" nType="0">
            <Node pos="l" depth="3" NCoef="0" IVar="-1" Cut="0.0000000000000000e+00" cType="1" res="-9.9000000000000000e+01" rms="0.0000000000000000e+00" purity="6.2036436796188354e-01" nType="1"/>
            <Node pos="r" depth="3" NCoef="0" IVar="-1" Cut="0.0000000000000000e+00" cType="1" res="-9.9000000000000000e+01" rms="0.0000000000000000e+00" purity="1.7487998306751251e-01" nType="-1"/>
          </Node>
          <Node pos="r" depth="2" NCoef="0" IVar="-1" Cut="2.4412856101989746e+00" cType="1" res="-9.9000000000000000e+01" rms="0.0000000000000000e+00" purity="4.2216128110885620e-01" nType="-1"/>
        </Node>
        <Node pos="r" depth="1" NCoef="0" IVar="10" Cut="1.4156814813613892e+00" cType="0" res="-9.9000000000000000e+01" rms="0.0000000000000000e+00" purity="4.6474006772041321e-01" nType="0">
          <Node pos="l" depth="2" NCoef="0" IVar="3" Cut="4.3520506250000000e+05" cType="0" res="-9.9000000000000000e+01" rms="0.0000000000000000e+00" purity="4.8684957623481750e-01" nType="0">
            <Node pos="l" depth="3" NCoef="0" IVar="-1" Cut="0.0000000000000000e+00" cType="1" res="-9.9000000000000000e+01" rms="0.0000000000000000e+00" purity="5.8684623241424561e-01" nType="1"/>
            <Node pos="r" depth="3" NCoef="0" IVar="-1" Cut="0.0000000000000000e+00" cType="1" res="-9.9000000000000000e+01" rms="0.0000000000000000e+00" purity="4.7370570898056030e-01" nType="-1"/>
          </Node>
          <Node pos="r" depth="2" NCoef="0" IVar="-1" Cut="2.4438810348510742e+00" cType="0" res="-9.9000000000000000e+01" rms="0.0000000000000000e+00" purity="4.0392118692398071e-01" nType="-1"/>
        </Node>
      </Node>
    </BinaryTree>
    <BinaryTree type="DecisionTree" boostWeight="2.8141437350091569e-01" itree="11">
      <Node pos="s" depth="0" NCoef="0" IVar="4" Cut="7.1428203582763672e-01" cType="1" res="-9.9000000000000000e+01" rms="0.0000000000000000e+00" purity="5.1879465579986572e-01" nType="0">
        <Node pos="l" depth="1" NCoef="0" IVar="3" Cut="2.6675043750000000e+05" cType="1" res="-9.9000000000000000e+01" rms="0.0000000000000000e+00" purity="5.2978354692459106e-01" nType="0">
          <Node pos="l" depth="2" NCoef="0" IVar="12" Cut="8.9648681250000000e+05" cType="1" res="-9.9000000000000000e+01" rms="0.0000000000000000e+00" purity="5.8785742521286011e-01" nType="0">
            <Node pos="l" depth="3" NCoef="0" IVar="-1" Cut="0.0000000000000000e+00" cType="1" res="-9.9000000000000000e+01" rms="0.0000000000000000e+00" purity="6.6622728109359741e-01" nType="1"/>
            <Node pos="r" depth="3" NCoef="0" IVar="-1" Cut="0.0000000000000000e+00" cType="1" res="-9.9000000000000000e+01" rms="0.0000000000000000e+00" purity="4.3819802999496460e-01" nType="-1"/>
          </Node>
          <Node pos="r" depth="2" NCoef="0" IVar="8" Cut="3.0597801208496094e+00" cType="1" res="-9.9000000000000000e+01" rms="0.0000000000000000e+00" purity="5.0850647687911987e-01" nType="0">
            <Node pos="l" depth="3" NCoef="0" IVar="-1" Cut="0.0000000000000000e+00" cType="1" res="-9.9000000000000000e+01" rms="0.0000000000000000e+00" purity="5.3587394952774048e-01" nType="1"/>
            <Node pos="r" depth="3" NCoef="0" IVar="-1" Cut="0.0000000000000000e+00" cType="1" res="-9.9000000000000000e+01" rms="0.0000000000000000e+00" purity="4.3277072906494141e-01" nType="-1"/>
          </Node>
        </Node>
        <Node pos="r" depth="1" NCoef="0" IVar="0" Cut="-8.3026140928268433e-01" cType="1" res="-9.9000000000000000e+01" rms="0.0000000000000000e+00" purity="4.6369728446006775e-01" nType="0">
          <Node pos="l" depth="2" NCoef="0" IVar="3" Cut="2.3885253125000000e+05" cType="1" res="-9.9000000000000000e+01" rms="0.0000000000000000e+00" purity="5.7695055007934570e-01" nType="0">
            <Node pos="l" depth="3" NCoef="0" IVar="-1" Cut="0.0000000000000000e+00" cType="1" res="-9.9000000000000000e+01" rms="0.0000000000000000e+00" purity="6.5409946441650391e-01" nType="1"/>
            <Node pos="r" depth="3" NCoef="0" IVar="-1" Cut="0.0000000000000000e+00" cType="1" res="-9.9000000000000000e+01" rms="0.0000000000000000e+00" purity="4.2853730916976929e-01" nType="-1"/>
          </Node>
          <Node pos="r" depth="2" NCoef="0" IVar="-1" Cut="3.1253640625000000e+05" cType="1" res="-9.9000000000000000e+01" rms="0.0000000000000000e+00" purity="4.2988979816436768e-01" nType="-1"/>
        </Node>
      </Node>
    </BinaryTree>
    <BinaryTree type="DecisionTree" boostWeight="2.1508243685301570e-01" itree="12">
      <Node pos="s" depth="0" NCoef="0" IVar="3" Cut="2.6650200000000000e+05" cType="1" res="-9.9000000000000000e+01" rms="0.0000000000000000e+00" purity="5.0204944610595703e-01" nType="0">
        <Node pos="l" depth="1" NCoef="0" IVar="12" Cut="8.8671350000000000e+05" cType="1" res="-9.9000000000000000e+01" rms="0.0000000000000000e+00" purity="5.5428755283355713e-01" nType="0">
          <Node pos="l" depth="2" NCoef="0" IVar="12" Cut="6.6088168750000000e+05" cType="0" res="-9.9000000000000000e+01" rms="0.0000000000000000e+00" purity="6.1003011465072632e-01" nType="0">
            <Node pos="l" depth="3" NCoef="0" IVar="-1" Cut="0.0000000000000000e+00" cType="1" res="-9.9000000000000000e+01" rms="0.0000000000000000e+00" purity="6.9066286087036133e-01" nType="1"/>
            <Node pos="r" depth="3" NCoef="0" IVar="-1" Cut="0.0000000000000000e+00" cType="1" res="-9.9000000000000000e+01" rms="0.0000000000000000e+00" purity="4.6916687488555908e-01" nType="-1"/>
          </Node>
          <Node pos="r" depth="2" NCoef="0" IVar="-1" Cut="3.3138706684112549e+00" cType="1" res="-9.9000000000000000e+01" rms="0.0000000000000000e+00" purity="4.5863756537437439e-01" nType="-1"/>
        </Node>
        <Node pos="r" depth="1" NCoef="0" IVar="4" Cut="6.2851727008819580e-01" cType="1" res="-9.9000000000000000e+01" rms="0.0000000000000000e+00" purity="4.7388505935668945e-01" nType="0">
          <Node pos="l" depth="2" NCoef="0" IVar="-1" Cut="5.8271968750000000e+05" cType="1" res="-9.9000000000000000e+01" rms="0.0000000000000000e+00" purity="4.8909819126129150e-01" nType="-1"/>
          <Node pos="r" depth="2" NCoef="0" IVar="12" Cut="8.7045900000000000e+05" cType="0" res="-9.9000000000000000e+01" rms="0.0000000000000000e+00" purity="3.9720010757446289e-01" nType="0">
            <Node pos="l" depth="3" NCoef="0" IVar="-1" Cut="0.0000000000000000e+00" cType="1" res="-9.9000000000000000e+01" rms="0.0000000000000000e+00" purity="5.1526010036468506e-01" nType="1"/>
            <Node pos="r" depth="3" NCoef="0" IVar="-1" Cut="0.0000000000000000e+00" cType="1" res="-9.9000000000000000e+01" rms="0.0000000000000000e+00" purity="2.2600993514060974e-01" nType="-1"/>
          </Node>
        </Node>
      </Node>
    </BinaryTree>
    <BinaryTree type="DecisionTree" boostWeight="3.2658718160644418e-01" itree="13">
      <Node pos="s" depth="0" NCoef="0" IVar="12" Cut="1.3737102500000000e+06" cType="0" res="-9.9000000000000000e+01" rms="0.0000000000000000e+00" purity="5.3410768508911133e-01" nType="0">
        <Node pos="l" depth="1" NCoef="0" IVar="3" Cut="5.5885793750000000e+05" cType="1" res="-9.9000000000000000e+01" rms="0.0000000000000000e+00" purity="6.0443174839019775e-01" nType="0">
          <Node pos="l" depth="2" NCoef="0" IVar="-1" Cut="-5.7196408510208130e-01" cType="0" res="-9.9000000000000000e+01" rms="0.0000000000000000e+00" purity="6.6104626655578613e-01" nType="1"/>
          <Node pos="r" depth="2" NCoef="0" IVar="5" Cut="3.3274212500000000e+05" cType="0" res="-9.9000000000000000e+01" rms="0.0000000000000000e+00" purity="4.9190315604209900e-01" nType="0">
            <Node pos="l" depth="3" NCoef="0" IVar="-1" Cut="0.0000000000000000e+00" cType="1" res="-9.9000000000000000e+01" rms="0.0000000000000000e+00" purity="6.4533406496047974e-01" nType="1"/>
            <Node pos="r" depth="3" NCoef="0" IVar="-1" Cut="0.0000000000000000e+00" cType="1" res="-9.9000000000000000e+01" rms="0.0000000000000000e+00" purity="3.6613926291465759e-01" nType="-1"/>
          </Node>
        </Node>
        <Node pos="r" depth="1" NCoef="0" IVar="12" Cut="8.0810831250000000e+05" cType="0" res="-9.9000000000000000e+01" rms="0.0000000000000000e+00" purity="5.2627962827682495e-01" nType="0">
          <Node pos="l" depth="2" NCoef="0" IVar="-1" Cut="1.3496321875000000e+05" cType="1" res="-9.9000000000000000e+01" rms="0.0000000000000000e+00" purity="5.5141425132751465e-01" nType="1"/>
          <Node pos="r" depth="2" NCoef="0" IVar="3" Cut="2.7025425000000000e+05" cType="1" res="-9.9000000000000000e+01" rms="0.0000000000000000e+00" purity="4.6944686770439148e-01" nType="0">
            <Node pos="l" depth="3" NCoef="0" IVar="-1" Cut="0.0000000000000000e+00" cType="1" res="-9.9000000000000000e+01" rms="0.0000000000000000e+00" purity="5.7139492034912109e-01" nType="1"/>
            <Node pos="r" depth="3" NCoef="0" IVar="-1" Cut="0.0000000000000000e+00" cType="1" res="-9.9000000000000000e+01" rms="0.0000000000000000e+00" purity="2.9191124439239502e-01" nType="-1"/>
          </Node>
        </Node>
      </Node>
    </BinaryTree>
    <BinaryTree type="DecisionTree" boostWeight="2.4203326002571174e-01" itree="14">
      <Node pos="s" depth="0" NCoef="0" IVar="12" Cut="1.3737102500000000e+06" cType="0" res="-9.9000000000000000e+01" rms="0.0000000000000000e+00" purity="4.7171097993850708e-01" nType="0">
        <Node pos="l" depth="1" NCoef="0" IVar="7" Cut="9.8370611667633057e-01" cType="1" res="-9.9000000000000000e+01" rms="0.0000000000000000e+00" purity="5.5606430768966675e-01" nType="0">
          <Node pos="l" depth="2" NCoef="0" IVar="-1" Cut="0.0000000000000000e+00" cType="1" res="-9.9000000000000000e+01" rms="0.0000000000000000e+00" purity="7.4827432632446289e-01" nType="1"/>
          <Node pos="r" depth="2" NCoef="0" IVar="9" Cut="1.3720966577529907e+00" cType="0" res="-9.9000000000000000e+01" rms="0.0000000000000000e+00" purity="5.2770406007766724e-01" nType="0">
            <Node pos="l" depth="3" NCoef="0" IVar="-1" Cut="0.0000000000000000e+00" cType="1" res="-9.9000000000000000e+01" rms="0.0000000000000000e+00" purity="5.6067830324172974e-01" nType="1"/>
            <Node pos="r" depth="3" NCoef="0" IVar="-1" Cut="0.0000000000000000e+00" cType="1" res="-9.9000000000000000e+01" rms="0.0000000000000000e+00" purity="3.9926770329475403e-01" nType="-1"/>
          </Node>
        </Node>
        <Node pos="r" depth="1" NCoef="0" IVar="1" Cut="1.2320931250000000e+05" cType="1" res="-9.9000000000000000e+01" rms="0.0000000000000000e+00" purity="4.6257296204566956e-01" nType="0">
          <Node pos="l" depth="2" NCoef="0" IVar="0" Cut="1.0565994977951050e+00" cType="0" res="-9.9000000000000000e+01" rms="0.0000000000000000e+00" purity="4.9641069769859314e-01" nType="0">
            <Node pos="l" depth="3" NCoef="0" IVar="-1" Cut="0.0000000000000000e+00" cType="1" res="-9.9000000000000000e+01" rms="0.0000000000000000e+00" purity="5.7998317480087280e-01" nType="1"/>
            <Node pos="r" depth="3" NCoef="0" IVar="-1" Cut="0.0000000000000000e+00" cType="1" res="-9.9000000000000000e+01" rms="0.0000000000000000e+00" purity="4.7363400459289551e-01" nType="-1"/>
          </Node>
          <Node pos="r" depth="2" NCoef="0" IVar="-1" Cut="8.9675618750000000e+05" cType="0" res="-9.9000000000000000e+01" rms="0.0000000000000000e+00" purity="4.1864797472953796e-01" nType="-1"/>
        </Node>
      </Node>
    </BinaryTree>
    <BinaryTree type="DecisionTree" boostWeight="2.0808982847194413e-01" itree="15">
      <Node pos="s" depth="0" NCoef="0" IVar="4" Cut="6.2856793403625488e-01" cType="1" res="-9.9000000000000000e+01" rms="0.0000000000000000e+00" purity="5.0923913717269897e-01" nType="0">
        <Node pos="l" depth="1" NCoef="0" IVar="4" Cut="3.9591068029403687e-01" cType="0" res="-9.9000000000000000e+01" rms="0.0000000000000000e+00" purity="5.2800726890563965e-01" nType="0">
          <Node pos="l" depth="2" NCoef="0" IVar="-1" Cut="4.5136290788650513e-01" cType="1" res="-9.9000000000000000e+01" rms="0.0000000000000000e+00" purity="5.5572223663330078e-01" nType="1"/>
          <Node pos="r" depth="2" NCoef="0" IVar="-1" Cut="5.7094425000000000e+05" cType="1" res="-9.9000000000000000e+01" rms="0.0000000000000000e+00" purity="4.7138065099716187e-01" nType="-1"/>
        </Node>
        <Node pos="r" depth="1" NCoef="0" IVar="3" Cut="3.1541359375000000e+05" cType="1" res="-9.9000000000000000e+01" rms="0.0000000000000000e+00" purity="4.7457444667816162e-01" nType="0">
          <Node pos="l" depth="2" NCoef="0" IVar="12" Cut="6.4358350000000000e+05" cType="0" res="-9.9000000000000000e+01" rms="0.0000000000000000e+00" purity="5.0132894515991211e-01" nType="0">
            <Node pos="l" depth="3" NCoef="0" IVar="-1" Cut="0.0000000000000000e+00" cType="1" res="-9.9000000000000000e+01" rms="0.0000000000000000e+00" purity="5.2502816915512085e-01" nType="1"/>
            <Node pos="r" depth="3" NCoef="0" IVar="-1" Cut="0.0000000000000000e+00" cType="1" res="-9.9000000000000000e+01" rms="0.0000000000000000e+00" purity="3.9667925238609314e-01" nType="-1"/>
          </Node>
          <Node pos="r" depth="2" NCoef="0" IVar="-1" Cut="1.0719306250000000e+06" cType="0" res="-9.9000000000000000e+01" rms="0.0000000000000000e+00" purity="2.8858745098114014e-01" nType="-1"/>
        </Node>
      </Node>
    </BinaryTree>
    <BinaryTree type="DecisionTree" boostWeight="2.0243054843039884e-01" itree="16">
      <Node pos="s" depth="0" NCoef="0" IVar="4" Cut="4.5713973045349121e-01" cType="1" res="-9.9000000000000000e+01" rms="0.0000000000000000e+00" purity="4.8985305428504944e-01" nType="0">
        <Node pos="l" depth="1" NCoef="0" IVar="3" Cut="5.8719162500000000e+05" cType="1" res="-9.9000000000000000e+01" rms="0.0000000000000000e+00" purity="5.4262083768844604e-01" nType="0">
          <Node pos="l" depth="2" NCoef="0" IVar="-1" Cut="1.2790937500000000e+06" cType="0" res="-9.9000000000000000e+01" rms="0.0000000000000000e+00" purity="5.5926352739334106e-01" nType="1"/>
          <Node pos="r" depth="2" NCoef="0" IVar="12" Cut="1.6678725000000000e+06" cType="0" res="-9.9000000000000000e+01" rms="0.0000000000000000e+00" purity="4.2472136020660400e-01" nType="0">
            <Node pos="l" depth="3" NCoef="0" IVar="-1" Cut="0.0000000000000000e+00" cType="1" res="-9.9000000000000000e+01" rms="0.0000000000000000e+00" purity="5.9151148796081543e-01" nType="1"/>
            <Node pos="r" depth="3" NCoef="0" IVar="-1" Cut="0.0000000000000000e+00" cType="1" res="-9.9000000000000000e+01" rms="0.0000000000000000e+00" purity="3.2515734434127808e-01" nType="-1"/>
          </Node>
        </Node>
        <Node pos="r" depth="1" NCoef="0" IVar="3" Cut="3.8157787500000000e+05" cType="1" res="-9.9000000000000000e+01" rms="0.0000000000000000e+00" purity="4.7002798318862915e-01" nType="0">
          <Node pos="l" depth="2" NCoef="0" IVar="4" Cut="5.7142543792724609e-01" cType="1" res="-9.9000000000000000e+01" rms="0.0000000000000000e+00" purity="4.7995075583457947e-01" nType="0">
            <Node pos="l" depth="3" NCoef="0" IVar="-1" Cut="0.0000000000000000e+00" cType="1" res="-9.9000000000000000e+01" rms="0.0000000000000000e+00" purity="5.2394497394561768e-01" nType="1"/>
            <Node pos="r" depth="3" NCoef="0" IVar="-1" Cut="0.0000000000000000e+00" cType="1" res="-9.9000000000000000e+01" rms="0.0000000000000000e+00" purity="4.6078476309776306e-01" nType="-1"/>
          </Node>
          <Node pos="r" depth="2" NCoef="0" IVar="-1" Cut="1.1286638750000000e+06" cType="0" res="-9.9000000000000000e+01" rms="0.0000000000000000e+00" purity="3.6980745196342468e-01" nType="-1"/>
        </Node>
      </Node>
    </BinaryTree>
    <BinaryTree type="DecisionTree" boostWeight="1.7826583765583062e-01" itree="17">
      <Node pos="s" depth="0" NCoef="0" IVar="3" Cut="2.6650200000000000e+05" cType="1" res="-9.9000000000000000e+01" rms="0.0000000000000000e+00" purity="4.9457389116287231e-01" nType="0">
        <Node pos="l" depth="1" NCoef="0" IVar="10" Cut="1.2125020027160645e+00" cType="0" res="-9.9000000000000000e+01" rms="0.0000000000000000e+00" purity="5.2615404129028320e-01" nType="0">
          <Node pos="l" depth="2" NCoef="0" IVar="12" Cut="8.8671350000000000e+05" cType="1" res="-9.9000000000000000e+01" rms="0.0000000000000000e+00" purity="5.6285536289215088e-01" nType="0">
            <Node pos="l" depth="3" NCoef="0" IVar="-1" Cut="0.0000000000000000e+00" cType="1" res="-9.9000000000000000e+01" rms="0.0000000000000000e+00" purity="6.1401027441024780e-01" nType="1"/>
            <Node pos="r" depth="3" NCoef="0" IVar="-1" Cut="0.0000000000000000e+00" cType="1" res="-9.9000000000000000e+01" rms="0.0000000000000000e+00" purity="4.7419247031211853e-01" nType="-1"/>
          </Node>
          <Node pos="r" depth="2" NCoef="0" IVar="9" Cut="3.4081919193267822e+00" cType="0" res="-9.9000000000000000e+01" rms="0.0000000000000000e+00" purity="4.4218695163726807e-01" nType="0">
            <Node pos="l" depth="3" NCoef="0" IVar="-1" Cut="0.0000000000000000e+00" cType="1" res="-9.9000000000000000e+01" rms="0.0000000000000000e+00" purity="6.4491444826126099e-01" nType="1"/>
            <Node pos="r" depth="3" NCoef="0" IVar="-1" Cut="0.0000000000000000e+00" cType="1" res="-9.9000000000000000e+01" rms="0.0000000000000000e+00" purity="4.2008766531944275e-01" nType="-1"/>
          </Node>
        </Node>
        <Node pos="r" depth="1" NCoef="0" IVar="0" Cut="1.0684753656387329e+00" cType="1" res="-9.9000000000000000e+01" rms="0.0000000000000000e+00" purity="4.7743946313858032e-01" nType="0">
          <Node pos="l" depth="2" NCoef="0" IVar="8" Cut="1.3014881610870361e+00" cType="0" res="-9.9000000000000000e+01" rms="0.0000000000000000e+00" purity="4.9151894450187683e-01" nType="0">
            <Node pos="l" depth="3" NCoef="0" IVar="-1" Cut="0.0000000000000000e+00" cType="1" res="-9.9000000000000000e+01" rms="0.0000000000000000e+00" purity="5.0062036514282227e-01" nType="1"/>
            <Node pos="r" depth="3" NCoef="0" IVar="-1" Cut="0.0000000000000000e+00" cType="1" res="-9.9000000000000000e+01" rms="0.0000000000000000e+00" purity="4.2453402280807495e-01" nType="-1"/>
          </Node>
          <Node pos="r" depth="2" NCoef="0" IVar="-1" Cut="2.1950438022613525e+00" cType="0" res="-9.9000000000000000e+01" rms="0.0000000000000000e+00" purity="4.1048550605773926e-01" nType="-1"/>
        </Node>
      </Node>
    </BinaryTree>
    <BinaryTree type="DecisionTree" boostWeight="2.0518420094850370e-01" itree="18">
      <Node pos="s" depth="0" NCoef="0" IVar="3" Cut="2.6650200000000000e+05" cType="1" res="-9.9000000000000000e+01" rms="0.0000000000000000e+00" purity="4.8222953081130981e-01" nType="0">
        <Node pos="l" depth="1" NCoef="0" IVar="9" Cut="1.0095739364624023e+00" cType="1" res="-9.9000000000000000e+01" rms="0.0000000000000000e+00" purity="5.2914893627166748e-01" nType="0">
          <Node pos="l" depth="2" NCoef="0" IVar="-1" Cut="1.5099207162857056e+00" cType="0" res="-9.9000000000000000e+01" rms="0.0000000000000000e+00" purity="6.3153326511383057e-01" nType="1"/>
          <Node pos="r" depth="2" NCoef="0" IVar="11" Cut="5.5564391613006592e-01" cType="0" res="-9.9000000000000000e+01" rms="0.0000000000000000e+00" purity="5.1465076208114624e-01" nType="0">
            <Node pos="l" depth="3" NCoef="0" IVar="-1" Cut="0.0000000000000000e+00" cType="1" res="-9.9000000000000000e+01" rms="0.0000000000000000e+00" purity="5.5515420436859131e-01" nType="1"/>
            <Node pos="r" depth="3" NCoef="0" IVar="-1" Cut="0.0000000000000000e+00" cType="1" res="-9.9000000000000000e+01" rms="0.0000000000000000e+00" purity="4.3932607769966125e-01" nType="-1"/>
          </Node>
        </Node>
        <Node pos="r" depth="1" NCoef="0" IVar="-1" Cut="6.2851727008819580e-01" cType="1" res="-9.9000000000000000e+01" rms="0.0000000000000000e+00" purity="4.5704355835914612e-01" nType="-1"/>
      </Node>
    </BinaryTree>
    <BinaryTree type="DecisionTree" boostWeight="1.5759276787199419e-01" itree="19">
      <Node pos="s" depth="0" NCoef="0" IVar="10" Cut="1.0093029737472534e+00" cType="0" res="-9.9000000000000000e+01" rms="0.0000000000000000e+00" purity="5.0866556167602539e-01" nType="0">
        <Node pos="l" depth="1" NCoef="0" IVar="3" Cut="5.4921918750000000e+05" cType="1" res="-9.9000000000000000e+01" rms="0.0000000000000000e+00" purity="5.1888930797576904e-01" nType="0">
          <Node pos="l" depth="2" NCoef="0" IVar="3" Cut="1.6901703125000000e+05" cType="0" res="-9.9000000000000000e+01" rms="0.0000000000000000e+00" purity="5.2329581975936890e-01" nType="0">
            <Node pos="l" depth="3" NCoef="0" IVar="-1" Cut="0.0000000000000000e+00" cType="1" res="-9.9000000000000000e+01" rms="0.0000000000000000e+00" purity="5.2580839395523071e-01" nType="1"/>
            <Node pos="r" depth="3" NCoef="0" IVar="-1" Cut="0.0000000000000000e+00" cType="1" res="-9.9000000000000000e+01" rms="0.0000000000000000e+00" purity="4.0641376376152039e-01" nType="-1"/>
          </Node>
          <Node pos="r" depth="2" NCoef="0" IVar="2" Cut="4.4836804270744324e-01" cType="1" res="-9.9000000000000000e+01" rms="0.0000000000000000e+00" purity="4.2962071299552917e-01" nType="0">
            <Node pos="l" depth="3" NCoef="0" IVar="-1" Cut="0.0000000000000000e+00" cType="1" res="-9.9000000000000000e+01" rms="0.0000000000000000e+00" purity="5.2937799692153931e-01" nType="1"/>
            <Node pos="r" depth="3" NCoef="0" IVar="-1" Cut="0.0000000000000000e+00" cType="1" res="-9.9000000000000000e+01" rms="0.0000000000000000e+00" purity="3.4255459904670715e-01" nType="-1"/>
          </Node>
        </Node>
        <Node pos="r" depth="1" NCoef="0" IVar="12" Cut="1.3173651250000000e+06" cType="0" res="-9.9000000000000000e+01" rms="0.0000000000000000e+00" purity="4.7864094376564026e-01" nType="0">
          <Node pos="l" depth="2" NCoef="0" IVar="-1" Cut="9.3661504983901978e-01" cType="1" res="-9.9000000000000000e+01" rms="0.0000000000000000e+00" purity="6.0194724798202515e-01" nType="1"/>
          <Node pos="r" depth="2" NCoef="0" IVar="5" Cut="8.9348695312500000e+04" cType="1" res="-9.9000000000000000e+01" rms="0.0000000000000000e+00" purity="4.5858231186866760e-01" nType="0">
            <Node pos="l" depth="3" NCoef="0" IVar="-1" Cut="0.0000000000000000e+00" cType="1" res="-9.9000000000000000e+01" rms="0.0000000000000000e+00" purity="5.7651805877685547e-01" nType="1"/>
            <Node pos="r" depth="3" NCoef="0" IVar="-1" Cut="0.0000000000000000e+00" cType="1" res="-9.9000000000000000e+01" rms="0.0000000000000000e+00" purity="4.4322001934051514e-01" nType="-1"/>
          </Node>
        </Node>
      </Node>
    </BinaryTree>
    <BinaryTree type="DecisionTree" boostWeight="1.4959204106403465e-01" itree="20">
      <Node pos="s" depth="0" NCoef="0" IVar="7" Cut="1.3305120468139648e+00" cType="1" res="-9.9000000000000000e+01" rms="0.0000000000000000e+00" purity="4.8711851239204407e-01" nType="0">
        <Node pos="l" depth="1" NCoef="0" IVar="8" Cut="3.0761826038360596e+00" cType="0" res="-9.9000000000000000e+01" rms="0.0000000000000000e+00" purity="5.2377176284790039e-01" nType="0">
          <Node pos="l" depth="2" NCoef="0" IVar="12" Cut="9.9073725000000000e+05" cType="1" res="-9.9000000000000000e+01" rms="0.0000000000000000e+00" purity="5.9110468626022339e-01" nType="0">
            <Node pos="l" depth="3" NCoef="0" IVar="-1" Cut="0.0000000000000000e+00" cType="1" res="-9.9000000000000000e+01" rms="0.0000000000000000e+00" purity="6.5362310409545898e-01" nType="1"/>
            <Node pos="r" depth="3" NCoef="0" IVar="-1" Cut="0.0000000000000000e+00" cType="1" res="-9.9000000000000000e+01" rms="0.0000000000000000e+00" purity="4.6742227673530579e-01" nType="-1"/>
          </Node>
          <Node pos="r" depth="2" NCoef="0" IVar="12" Cut="6.0176400000000000e+05" cType="0" res="-9.9000000000000000e+01" rms="0.0000000000000000e+00" purity="4.8964223265647888e-01" nType="0">
            <Node pos="l" depth="3" NCoef="0" IVar="-1" Cut="0.0000000000000000e+00" cType="1" res="-9.9000000000000000e+01" rms="0.0000000000000000e+00" purity="5.0132936239242554e-01" nType="1"/>
            <Node pos="r" depth="3" NCoef="0" IVar="-1" Cut="0.0000000000000000e+00" cType="1" res="-9.9000000000000000e+01" rms="0.0000000000000000e+00" purity="1.3197521865367889e-01" nType="-1"/>
          </Node>
        </Node>
        <Node pos="r" depth="1" NCoef="0" IVar="7" Cut="2.0838706493377686e+00" cType="0" res="-9.9000000000000000e+01" rms="0.0000000000000000e+00" purity="4.7571322321891785e-01" nType="0">
          <Node pos="l" depth="2" NCoef="0" IVar="9" Cut="1.0095739364624023e+00" cType="1" res="-9.9000000000000000e+01" rms="0.0000000000000000e+00" purity="4.8993852734565735e-01" nType="0">
            <Node pos="l" depth="3" NCoef="0" IVar="-1" Cut="0.0000000000000000e+00" cType="1" res="-9.9000000000000000e+01" rms="0.0000000000000000e+00" purity="5.7383364439010620e-01" nType="1"/>
            <Node pos="r" depth="3" NCoef="0" IVar="-1" Cut="0.0000000000000000e+00" cType="1" res="-9.9000000000000000e+01" rms="0.0000000000000000e+00" purity="4.8090621829032898e-01" nType="-1"/>
          </Node>
          <Node pos="r" depth="2" NCoef="0" IVar="-1" Cut="1.3647929430007935e+00" cType="0" res="-9.9000000000000000e+01" rms="0.0000000000000000e+00" purity="4.4123327732086182e-01" nType="-1"/>
        </Node>
      </Node>
    </BinaryTree>
    <BinaryTree type="DecisionTree" boostWeight="2.2310765847587660e-01" itree="21">
      <Node pos="s" depth="0" NCoef="0" IVar="7" Cut="2.7262217998504639e+00" cType="0" res="-9.9000000000000000e+01" rms="0.0000000000000000e+00" purity="5.0521349906921387e-01" nType="0">
        <Node pos="l" depth="1" NCoef="0" IVar="9" Cut="2.2036166191101074e+00" cType="0" res="-9.9000000000000000e+01" rms="0.0000000000000000e+00" purity="5.3614294528961182e-01" nType="0">
          <Node pos="l" depth="2" NCoef="0" IVar="-1" Cut="9.0533325000000000e+05" cType="0" res="-9.9000000000000000e+01" rms="0.0000000000000000e+00" purity="5.7042360305786133e-01" nType="1"/>
          <Node pos="r" depth="2" NCoef="0" IVar="8" Cut="2.0379469394683838e+00" cType="1" res="-9.9000000000000000e+01" rms="0.0000000000000000e+00" purity="4.7970587015151978e-01" nType="0">
            <Node pos="l" depth="3" NCoef="0" IVar="-1" Cut="0.0000000000000000e+00" cType="1" res="-9.9000000000000000e+01" rms="0.0000000000000000e+00" purity="5.6455516815185547e-01" nType="1"/>
            <Node pos="r" depth="3" NCoef="0" IVar="-1" Cut="0.0000000000000000e+00" cType="1" res="-9.9000000000000000e+01" rms="0.0000000000000000e+00" purity="2.9358437657356262e-01" nType="-1"/>
          </Node>
        </Node>
        <Node pos="r" depth="1" NCoef="0" IVar="8" Cut="3.1224131584167480e+00" cType="0" res="-9.9000000000000000e+01" rms="0.0000000000000000e+00" purity="4.9112015962600708e-01" nType="0">
          <Node pos="l" depth="2" NCoef="0" IVar="7" Cut="2.2831165790557861e+00" cType="1" res="-9.9000000000000000e+01" rms="0.0000000000000000e+00" purity="5.4582870006561279e-01" nType="0">
            <Node pos="l" depth="3" NCoef="0" IVar="-1" Cut="0.0000000000000000e+00" cType="1" res="-9.9000000000000000e+01" rms="0.0000000000000000e+00" purity="5.7123667001724243e-01" nType="1"/>
            <Node pos="r" depth="3" NCoef="0" IVar="-1" Cut="0.0000000000000000e+00" cType="1" res="-9.9000000000000000e+01" rms="0.0000000000000000e+00" purity="4.5619967579841614e-01" nType="-1"/>
          </Node>
          <Node pos="r" depth="2" NCoef="0" IVar="4" Cut="4.5713663101196289e-01" cType="1" res="-9.9000000000000000e+01" rms="0.0000000000000000e+00" purity="4.7371715307235718e-01" nType="0">
            <Node pos="l" depth="3" NCoef="0" IVar="-1" Cut="0.0000000000000000e+00" cType="1" res="-9.9000000000000000e+01" rms="0.0000000000000000e+00" purity="5.1377278566360474e-01" nType="1"/>
            <Node pos="r" depth="3" NCoef="0" IVar="-1" Cut="0.0000000000000000e+00" cType="1" res="-9.9000000000000000e+01" rms="0.0000000000000000e+00" purity="4.5579358935356140e-01" nType="-1"/>
          </Node>
        </Node>
      </Node>
    </BinaryTree>
    <BinaryTree type="DecisionTree" boostWeight="1.4382419102171379e-01" itree="22">
      <Node pos="s" depth="0" NCoef="0" IVar="7" Cut="3.1914584636688232e+00" cType="1" res="-9.9000000000000000e+01" rms="0.0000000000000000e+00" purity="4.9782368540763855e-01" nType="0">
        <Node pos="l" depth="1" NCoef="0" IVar="4" Cut="-9.1428589820861816e-01" cType="0" res="-9.9000000000000000e+01" rms="0.0000000000000000e+00" purity="5.0754660367965698e-01" nType="0">
          <Node pos="l" depth="2" NCoef="0" IVar="-1" Cut="2.3938806056976318e+00" cType="0" res="-9.9000000000000000e+01" rms="0.0000000000000000e+00" purity="5.2072417736053467e-01" nType="1"/>
          <Node pos="r" depth="2" NCoef="0" IVar="7" Cut="1.9951751232147217e+00" cType="0" res="-9.9000000000000000e+01" rms="0.0000000000000000e+00" purity="4.6285125613212585e-01" nType="0">
            <Node pos="l" depth="3" NCoef="0" IVar="-1" Cut="0.0000000000000000e+00" cType="1" res="-9.9000000000000000e+01" rms="0.0000000000000000e+00" purity="5.0940084457397461e-01" nType="1"/>
            <Node pos="r" depth="3" NCoef="0" IVar="-1" Cut="0.0000000000000000e+00" cType="1" res="-9.9000000000000000e+01" rms="0.0000000000000000e+00" purity="4.1981017589569092e-01" nType="-1"/>
          </Node>
        </Node>
        <Node pos="r" depth="1" NCoef="0" IVar="5" Cut="2.5215114062500000e+05" cType="1" res="-9.9000000000000000e+01" rms="0.0000000000000000e+00" purity="4.2985531687736511e-01" nType="0">
          <Node pos="l" depth="2" NCoef="0" IVar="12" Cut="9.4578693750000000e+05" cType="0" res="-9.9000000000000000e+01" rms="0.0000000000000000e+00" purity="4.7355380654335022e-01" nType="0">
            <Node pos="l" depth="3" NCoef="0" IVar="-1" Cut="0.0000000000000000e+00" cType="1" res="-9.9000000000000000e+01" rms="0.0000000000000000e+00" purity="5.7710099220275879e-01" nType="1"/>
            <Node pos="r" depth="3" NCoef="0" IVar="-1" Cut="0.0000000000000000e+00" cType="1" res="-9.9000000000000000e+01" rms="0.0000000000000000e+00" purity="4.3042373657226562e-01" nType="-1"/>
          </Node>
          <Node pos="r" depth="2" NCoef="0" IVar="-1" Cut="2.8396239280700684e+00" cType="1" res="-9.9000000000000000e+01" rms="0.0000000000000000e+00" purity="3.3270806074142456e-01" nType="-1"/>
        </Node>
      </Node>
    </BinaryTree>
    <BinaryTree type="DecisionTree" boostWeight="1.4381691425384585e-01" itree="23">
      <Node pos="s" depth="0" NCoef="0" IVar="10" Cut="2.6340072154998779e+00" cType="1" res="-9.9000000000000000e+01" rms="0.0000000000000000e+00" purity="4.7640013694763184e-01" nType="0">
        <Node pos="l" depth="1" NCoef="0" IVar="10" Cut="1.2510508298873901e+00" cType="0" res="-9.9000000000000000e+01" rms="0.0000000000000000e+00" purity="4.8233166337013245e-01" nType="0">
          <Node pos="l" depth="2" NCoef="0" IVar="2" Cut="2.5432038307189941e+00" cType="0" res="-9.9000000000000000e+01" rms="0.0000000000000000e+00" purity="4.9810078740119934e-01" nType="0">
            <Node pos="l" depth="3" NCoef="0" IVar="-1" Cut="0.0000000000000000e+00" cType="1" res="-9.9000000000000000e+01" rms="0.0000000000000000e+00" purity="5.5956065654754639e-01" nType="1"/>
            <Node pos="r" depth="3" NCoef="0" IVar="-1" Cut="0.0000000000000000e+00" cType="1" res="-9.9000000000000000e+01" rms="0.0000000000000000e+00" purity="4.9193045496940613e-01" nType="-1"/>
          </Node>
          <Node pos="r" depth="2" NCoef="0" IVar="7" Cut="2.4687099456787109e+00" cType="0" res="-9.9000000000000000e+01" rms="0.0000000000000000e+00" purity="4.6014863252639771e-01" nType="0">
            <Node pos="l" depth="3" NCoef="0" IVar="-1" Cut="0.0000000000000000e+00" cType="1" res="-9.9000000000000000e+01" rms="0.0000000000000000e+00" purity="5.1152962446212769e-01" nType="1"/>
            <Node pos="r" depth="3" NCoef="0" IVar="-1" Cut="0.0000000000000000e+00" cType="1" res="-9.9000000000000000e+01" rms="0.0000000000000000e+00" purity="4.4367724657058716e-01" nType="-1"/>
          </Node>
        </Node>
        <Node pos="r" depth="1" NCoef="0" IVar="5" Cut="2.4489528125000000e+05" cType="1" res="-9.9000000000000000e+01" rms="0.0000000000000000e+00" purity="4.3520078063011169e-01" nType="0">
          <Node pos="l" depth="2" NCoef="0" IVar="11" Cut="9.2021083831787109e-01" cType="1" res="-9.9000000000000000e+01" rms="0.0000000000000000e+00" purity="5.0431621074676514e-01" nType="0">
            <Node pos="l" depth="3" NCoef="0" IVar="-1" Cut="0.0000000000000000e+00" cType="1" res="-9.9000000000000000e+01" rms="0.0000000000000000e+00" purity="5.2675992250442505e-01" nType="1"/>
            <Node pos="r" depth="3" NCoef="0" IVar="-1" Cut="0.0000000000000000e+00" cType="1" res="-9.9000000000000000e+01" rms="0.0000000000000000e+00" purity="2.3230569064617157e-01" nType="-1"/>
          </Node>
          <Node pos="r" depth="2" NCoef="0" IVar="2" Cut="2.5434815883636475e+00" cType="0" res="-9.9000000000000000e+01" rms="0.0000000000000000e+00" purity="3.3036035299301147e-01" nType="0">
            <Node pos="l" depth="3" NCoef="0" IVar="-1" Cut="0.0000000000000000e+00" cType="1" res="-9.9000000000000000e+01" rms="0.0000000000000000e+00" purity="6.5660083293914795e-01" nType="1"/>
            <Node pos="r" depth="3" NCoef="0" IVar="-1" Cut="0.0000000000000000e+00" cType="1" res="-9.9000000000000000e+01" rms="0.0000000000000000e+00" purity="3.0914318561553955e-01" nType="-1"/>
          </Node>
        </Node>
      </Node>
    </BinaryTree>
    <BinaryTree type="DecisionTree" boostWeight="1.2349740418339325e-01" itree="24">
      <Node pos="s" depth="0" NCoef="0" IVar="10" Cut="2.6340072154998779e+00" cType="1" res="-9.9000000000000000e+01" rms="0.0000000000000000e+00" purity="4.9735420942306519e-01" nType="0">
        <Node pos="l" depth="1" NCoef="0" IVar="10" Cut="1.2510508298873901e+00" cType="0" res="-9.9000000000000000e+01" rms="0.0000000000000000e+00" purity="5.0718247890472412e-01" nType="0">
          <Node pos="l" depth="2" NCoef="0" IVar="-1" Cut="1.3737102500000000e+06" cType="0" res="-9.9000000000000000e+01" rms="0.0000000000000000e+00" purity="5.2749413251876831e-01" nType="1"/>
          <Node pos="r" depth="2" NCoef="0" IVar="-1" Cut="1.0208946466445923e+00" cType="0" res="-9.9000000000000000e+01" rms="0.0000000000000000e+00" purity="4.7847458720207214e-01" nType="-1"/>
        </Node>
        <Node pos="r" depth="1" NCoef="0" IVar="-1" Cut="2.4489528125000000e+05" cType="1" res="-9.9000000000000000e+01" rms="0.0000000000000000e+00" purity="4.2833414673805237e-01" nType="-1"/>
      </Node>
    </BinaryTree>
    <BinaryTree type="DecisionTree" boostWeight="2.0711706481420111e-01" itree="25">
      <Node pos="s" depth="0" NCoef="0" IVar="10" Cut="1.8216550350189209e+00" cType="1" res="-9.9000000000000000e+01" rms="0.0000000000000000e+00" purity="4.9656143784523010e-01" nType="0">
        <Node pos="l" depth="1" NCoef="0" IVar="12" Cut="8.7805018750000000e+05" cType="0" res="-9.9000000000000000e+01" rms="0.0000000000000000e+00" purity="5.1442176103591919e-01" nType="0">
          <Node pos="l" depth="2" NCoef="0" IVar="-1" Cut="2.6348256250000000e+05" cType="0" res="-9.9000000000000000e+01" rms="0.0000000000000000e+00" purity="5.3706353902816772e-01" nType="1"/>
          <Node pos="r" depth="2" NCoef="0" IVar="1" Cut="1.5477868750000000e+05" cType="1" res="-9.9000000000000000e+01" rms="0.0000000000000000e+00" purity="4.7368356585502625e-01" nType="0">
            <Node pos="l" depth="3" NCoef="0" IVar="-1" Cut="0.0000000000000000e+00" cType="1" res="-9.9000000000000000e+01" rms="0.0000000000000000e+00" purity="5.1089549064636230e-01" nType="1"/>
            <Node pos="r" depth="3" NCoef="0" IVar="-1" Cut="0.0000000000000000e+00" cType="1" res="-9.9000000000000000e+01" rms="0.0000000000000000e+00" purity="3.1765973567962646e-01" nType="-1"/>
          </Node>
        </Node>
        <Node pos="r" depth="1" NCoef="0" IVar="9" Cut="1.4395836591720581e+00" cType="1" res="-9.9000000000000000e+01" rms="0.0000000000000000e+00" purity="4.6768453717231750e-01" nType="0">
          <Node pos="l" depth="2" NCoef="0" IVar="12" Cut="1.1112773750000000e+06" cType="1" res="-9.9000000000000000e+01" rms="0.0000000000000000e+00" purity="5.5285674333572388e-01" nType="0">
            <Node pos="l" depth="3" NCoef="0" IVar="-1" Cut="0.0000000000000000e+00" cType="1" res="-9.9000000000000000e+01" rms="0.0000000000000000e+00" purity="6.4935249090194702e-01" nType="1"/>
            <Node pos="r" depth="3" NCoef="0" IVar="-1" Cut="0.0000000000000000e+00" cType="1" res="-9.9000000000000000e+01" rms="0.0000000000000000e+00" purity="3.6259907484054565e-01" nType="-1"/>
          </Node>
          <Node pos="r" depth="2" NCoef="0" IVar="-1" Cut="1.7890986204147339e+00" cType="0" res="-9.9000000000000000e+01" rms="0.0000000000000000e+00" purity="4.4693824648857117e-01" nType="-1"/>
        </Node>
      </Node>
    </BinaryTree>
    <BinaryTree type="DecisionTree" boostWeight="1.5602940077841315e-01" itree="26">
      <Node pos="s" depth="0" NCoef="0" IVar="10" Cut="1.6185669898986816e+00" cType="0" res="-9.9000000000000000e+01" rms="0.0000000000000000e+00" purity="4.8348540067672729e-01" nType="0">
        <Node pos="l" depth="1" NCoef="0" IVar="9" Cut="3.2738802433013916e+00" cType="1" res="-9.9000000000000000e+01" rms="0.0000000000000000e+00" purity="5.0907617807388306e-01" nType="0">
          <Node pos="l" depth="2" NCoef="0" IVar="9" Cut="2.1382677555084229e+00" cType="0" res="-9.9000000000000000e+01" rms="0.0000000000000000e+00" purity="5.1598805189132690e-01" nType="0">
            <Node pos="l" depth="3" NCoef="0" IVar="-1" Cut="0.0000000000000000e+00" cType="1" res="-9.9000000000000000e+01" rms="0.0000000000000000e+00" purity="5.3752958774566650e-01" nType="1"/>
            <Node pos="r" depth="3" NCoef="0" IVar="-1" Cut="0.0000000000000000e+00" cType="1" res="-9.9000000000000000e+01" rms="0.0000000000000000e+00" purity="4.8732060194015503e-01" nType="-1"/>
          </Node>
          <Node pos="r" depth="2" NCoef="0" IVar="12" Cut="8.4251500000000000e+05" cType="1" res="-9.9000000000000000e+01" rms="0.0000000000000000e+00" purity="4.6247404813766479e-01" nType="0">
            <Node pos="l" depth="3" NCoef="0" IVar="-1" Cut="0.0000000000000000e+00" cType="1" res="-9.9000000000000000e+01" rms="0.0000000000000000e+00" purity="5.6319189071655273e-01" nType="1"/>
            <Node pos="r" depth="3" NCoef="0" IVar="-1" Cut="0.0000000000000000e+00" cType="1" res="-9.9000000000000000e+01" rms="0.0000000000000000e+00" purity="3.7397921085357666e-01" nType="-1"/>
          </Node>
        </Node>
        <Node pos="r" depth="1" NCoef="0" IVar="12" Cut="5.8745081250000000e+05" cType="0" res="-9.9000000000000000e+01" rms="0.0000000000000000e+00" purity="4.6107947826385498e-01" nType="0">
          <Node pos="l" depth="2" NCoef="0" IVar="-1" Cut="1.3115195035934448e+00" cType="1" res="-9.9000000000000000e+01" rms="0.0000000000000000e+00" purity="4.6670100092887878e-01" nType="-1"/>
          <Node pos="r" depth="2" NCoef="0" IVar="9" Cut="3.1707000732421875e+00" cType="0" res="-9.9000000000000000e+01" rms="0.0000000000000000e+00" purity="3.3780390024185181e-01" nType="0">
            <Node pos="l" depth="3" NCoef="0" IVar="-1" Cut="0.0000000000000000e+00" cType="1" res="-9.9000000000000000e+01" rms="0.0000000000000000e+00" purity="5.9016454219818115e-01" nType="1"/>
            <Node pos="r" depth="3" NCoef="0" IVar="-1" Cut="0.0000000000000000e+00" cType="1" res="-9.9000000000000000e+01" rms="0.0000000000000000e+00" purity="2.0752573013305664e-01" nType="-1"/>
          </Node>
        </Node>
      </Node>
    </BinaryTree>
    <BinaryTree type="DecisionTree" boostWeight="9.9594913143093919e-02" itree="27">
      <Node pos="s" depth="0" NCoef="0" IVar="8" Cut="4.2579069137573242e+00" cType="1" res="-9.9000000000000000e+01" rms="0.0000000000000000e+00" purity="5.0153970718383789e-01" nType="0">
        <Node pos="l" depth="1" NCoef="0" IVar="7" Cut="1.3305120468139648e+00" cType="1" res="-9.9000000000000000e+01" rms="0.0000000000000000e+00" purity="5.0302481651306152e-01" nType="0">
          <Node pos="l" depth="2" NCoef="0" IVar="3" Cut="3.8300112500000000e+05" cType="1" res="-9.9000000000000000e+01" rms="0.0000000000000000e+00" purity="5.2988636493682861e-01" nType="0">
            <Node pos="l" depth="3" NCoef="0" IVar="-1" Cut="0.0000000000000000e+00" cType="1" res="-9.9000000000000000e+01" rms="0.0000000000000000e+00" purity="5.5772519111633301e-01" nType="1"/>
            <Node pos="r" depth="3" NCoef="0" IVar="-1" Cut="0.0000000000000000e+00" cType="1" res="-9.9000000000000000e+01" rms="0.0000000000000000e+00" purity="4.5347982645034790e-01" nType="-1"/>
          </Node>
          <Node pos="r" depth="2" NCoef="0" IVar="7" Cut="1.8955675363540649e+00" cType="0" res="-9.9000000000000000e+01" rms="0.0000000000000000e+00" purity="4.9444553256034851e-01" nType="0">
            <Node pos="l" depth="3" NCoef="0" IVar="-1" Cut="0.0000000000000000e+00" cType="1" res="-9.9000000000000000e+01" rms="0.0000000000000000e+00" purity="5.0519102811813354e-01" nType="1"/>
            <Node pos="r" depth="3" NCoef="0" IVar="-1" Cut="0.0000000000000000e+00" cType="1" res="-9.9000000000000000e+01" rms="0.0000000000000000e+00" purity="4.5554158091545105e-01" nType="-1"/>
          </Node>
        </Node>
        <Node pos="r" depth="1" NCoef="0" IVar="-1" Cut="0.0000000000000000e+00" cType="1" res="-9.9000000000000000e+01" rms="0.0000000000000000e+00" purity="3.3240041136741638e-01" nType="-1"/>
      </Node>
    </BinaryTree>
    <BinaryTree type="DecisionTree" boostWeight="2.1178659387480689e-01" itree="28">
      <Node pos="s" depth="0" NCoef="0" IVar="7" Cut="1.7957487106323242e+00" cType="1" res="-9.9000000000000000e+01" rms="0.0000000000000000e+00" purity="4.8834505677223206e-01" nType="0">
        <Node pos="l" depth="1" NCoef="0" IVar="12" Cut="5.9208681250000000e+05" cType="0" res="-9.9000000000000000e+01" rms="0.0000000000000000e+00" purity="5.0993931293487549e-01" nType="0">
          <Node pos="l" depth="2" NCoef="0" IVar="-1" Cut="1.6420583750000000e+06" cType="0" res="-9.9000000000000000e+01" rms="0.0000000000000000e+00" purity="5.2098435163497925e-01" nType="1"/>
          <Node pos="r" depth="2" NCoef="0" IVar="-1" Cut="3.0954828262329102e+00" cType="0" res="-9.9000000000000000e+01" rms="0.0000000000000000e+00" purity="2.8091984987258911e-01" nType="-1"/>
        </Node>
        <Node pos="r" depth="1" NCoef="0" IVar="8" Cut="2.7343416213989258e+00" cType="1" res="-9.9000000000000000e+01" rms="0.0000000000000000e+00" purity="4.7559788823127747e-01" nType="0">
          <Node pos="l" depth="2" NCoef="0" IVar="12" Cut="1.0178303125000000e+06" cType="0" res="-9.9000000000000000e+01" rms="0.0000000000000000e+00" purity="4.9662032723426819e-01" nType="0">
            <Node pos="l" depth="3" NCoef="0" IVar="-1" Cut="0.0000000000000000e+00" cType="1" res="-9.9000000000000000e+01" rms="0.0000000000000000e+00" purity="5.7267731428146362e-01" nType="1"/>
            <Node pos="r" depth="3" NCoef="0" IVar="-1" Cut="0.0000000000000000e+00" cType="1" res="-9.9000000000000000e+01" rms="0.0000000000000000e+00" purity="4.2263889312744141e-01" nType="-1"/>
          </Node>
          <Node pos="r" depth="2" NCoef="0" IVar="-1" Cut="2.0021255016326904e+00" cType="0" res="-9.9000000000000000e+01" rms="0.0000000000000000e+00" purity="4.4631806015968323e-01" nType="-1"/>
        </Node>
      </Node>
    </BinaryTree>
    <BinaryTree type="DecisionTree" boostWeight="1.4976870315441457e-01" itree="29">
      <Node pos="s" depth="0" NCoef="0" IVar="10" Cut="1.4154789447784424e+00" cType="0" res="-9.9000000000000000e+01" rms="0.0000000000000000e+00" purity="4.8452374339103699e-01" nType="0">
        <Node pos="l" depth="1" NCoef="0" IVar="3" Cut="2.6412325000000000e+05" cType="1" res="-9.9000000000000000e+01" rms="0.0000000000000000e+00" purity="5.0418192148208618e-01" nType="0">
          <Node pos="l" depth="2" NCoef="0" IVar="-1" Cut="1.7656334638595581e+00" cType="0" res="-9.9000000000000000e+01" rms="0.0000000000000000e+00" purity="5.3731292486190796e-01" nType="1"/>
          <Node pos="r" depth="2" NCoef="0" IVar="9" Cut="1.7003040313720703e+00" cType="0" res="-9.9000000000000000e+01" rms="0.0000000000000000e+00" purity="4.8458641767501831e-01" nType="0">
            <Node pos="l" depth="3" NCoef="0" IVar="-1" Cut="0.0000000000000000e+00" cType="1" res="-9.9000000000000000e+01" rms="0.0000000000000000e+00" purity="5.0025922060012817e-01" nType="1"/>
            <Node pos="r" depth="3" NCoef="0" IVar="-1" Cut="0.0000000000000000e+00" cType="1" res="-9.9000000000000000e+01" rms="0.0000000000000000e+00" purity="4.3607610464096069e-01" nType="-1"/>
          </Node>
        </Node>
        <Node pos="r" depth="1" NCoef="0" IVar="8" Cut="1.3008679151535034e+00" cType="0" res="-9.9000000000000000e+01" rms="0.0000000000000000e+00" purity="4.5976448059082031e-01" nType="0">
          <Node pos="l" depth="2" NCoef="0" IVar="8" Cut="2.1061213016510010e+00" cType="1" res="-9.9000000000000000e+01" rms="0.0000000000000000e+00" purity="4.6913051605224609e-01" nType="0">
            <Node pos="l" depth="3" NCoef="0" IVar="-1" Cut="0.0000000000000000e+00" cType="1" res="-9.9000000000000000e+01" rms="0.0000000000000000e+00" purity="5.5923694372177124e-01" nType="1"/>
            <Node pos="r" depth="3" NCoef="0" IVar="-1" Cut="0.0000000000000000e+00" cType="1" res="-9.9000000000000000e+01" rms="0.0000000000000000e+00" purity="4.5539590716362000e-01" nType="-1"/>
          </Node>
          <Node pos="r" depth="2" NCoef="0" IVar="-1" Cut="9.7197462500000000e+05" cType="0" res="-9.9000000000000000e+01" rms="0.0000000000000000e+00" purity="3.6700472235679626e-01" nType="-1"/>
        </Node>
      </Node>
    </BinaryTree>
    <BinaryTree type="DecisionTree" boostWeight="9.2244425141435146e-02" itree="30">
      <Node pos="s" depth="0" NCoef="0" IVar="0" Cut="-2.0147674083709717e+00" cType="1" res="-9.9000000000000000e+01" rms="0.0000000000000000e+00" purity="4.8255300521850586e-01" nType="0">
        <Node pos="l" depth="1" NCoef="0" IVar="4" Cut="6.2848275899887085e-01" cType="0" res="-9.9000000000000000e+01" rms="0.0000000000000000e+00" purity="5.8423191308975220e-01" nType="0">
          <Node pos="l" depth="2" NCoef="0" IVar="-1" Cut="0.0000000000000000e+00" cType="1" res="-9.9000000000000000e+01" rms="0.0000000000000000e+00" purity="7.2188609838485718e-01" nType="1"/>
          <Node pos="r" depth="2" NCoef="0" IVar="7" Cut="2.9149084091186523e+00" cType="0" res="-9.9000000000000000e+01" rms="0.0000000000000000e+00" purity="4.9625670909881592e-01" nType="0">
            <Node pos="l" depth="3" NCoef="0" IVar="-1" Cut="0.0000000000000000e+00" cType="1" res="-9.9000000000000000e+01" rms="0.0000000000000000e+00" purity="5.7575178146362305e-01" nType="1"/>
            <Node pos="r" depth="3" NCoef="0" IVar="-1" Cut="0.0000000000000000e+00" cType="1" res="-9.9000000000000000e+01" rms="0.0000000000000000e+00" purity="4.3417799472808838e-01" nType="-1"/>
          </Node>
        </Node>
        <Node pos="r" depth="1" NCoef="0" IVar="0" Cut="-1.8003902435302734e+00" cType="0" res="-9.9000000000000000e+01" rms="0.0000000000000000e+00" purity="4.8030528426170349e-01" nType="0">
          <Node pos="l" depth="2" NCoef="0" IVar="-1" Cut="3.2475156250000000e+05" cType="1" res="-9.9000000000000000e+01" rms="0.0000000000000000e+00" purity="4.8260250687599182e-01" nType="-1"/>
          <Node pos="r" depth="2" NCoef="0" IVar="0" Cut="-1.8617700338363647e+00" cType="1" res="-9.9000000000000000e+01" rms="0.0000000000000000e+00" purity="3.9332282543182373e-01" nType="0">
            <Node pos="l" depth="3" NCoef="0" IVar="-1" Cut="0.0000000000000000e+00" cType="1" res="-9.9000000000000000e+01" rms="0.0000000000000000e+00" purity="5.3578996658325195e-01" nType="1"/>
            <Node pos="r" depth="3" NCoef="0" IVar="-1" Cut="0.0000000000000000e+00" cType="1" res="-9.9000000000000000e+01" rms="0.0000000000000000e+00" purity="2.2390744090080261e-01" nType="-1"/>
          </Node>
        </Node>
      </Node>
    </BinaryTree>
    <BinaryTree type="DecisionTree" boostWeight="1.7367255391768291e-01" itree="31">
      <Node pos="s" depth="0" NCoef="0" IVar="3" Cut="3.2475156250000000e+05" cType="1" res="-9.9000000000000000e+01" rms="0.0000000000000000e+00" purity="5.0432133674621582e-01" nType="0">
        <Node pos="l" depth="1" NCoef="0" IVar="9" Cut="1.4871909618377686e+00" cType="1" res="-9.9000000000000000e+01" rms="0.0000000000000000e+00" purity="5.1679825782775879e-01" nType="0">
          <Node pos="l" depth="2" NCoef="0" IVar="12" Cut="7.3279656250000000e+05" cType="0" res="-9.9000000000000000e+01" rms="0.0000000000000000e+00" purity="5.5071234703063965e-01" nType="0">
            <Node pos="l" depth="3" NCoef="0" IVar="-1" Cut="0.0000000000000000e+00" cType="1" res="-9.9000000000000000e+01" rms="0.0000000000000000e+00" purity="5.8582818508148193e-01" nType="1"/>
            <Node pos="r" depth="3" NCoef="0" IVar="-1" Cut="0.0000000000000000e+00" cType="1" res="-9.9000000000000000e+01" rms="0.0000000000000000e+00" purity="4.0856963396072388e-01" nType="-1"/>
          </Node>
          <Node pos="r" depth="2" NCoef="0" IVar="8" Cut="9.2917376756668091e-01" cType="0" res="-9.9000000000000000e+01" rms="0.0000000000000000e+00" purity="5.0598698854446411e-01" nType="0">
            <Node pos="l" depth="3" NCoef="0" IVar="-1" Cut="0.0000000000000000e+00" cType="1" res="-9.9000000000000000e+01" rms="0.0000000000000000e+00" purity="5.1274973154067993e-01" nType="1"/>
            <Node pos="r" depth="3" NCoef="0" IVar="-1" Cut="0.0000000000000000e+00" cType="1" res="-9.9000000000000000e+01" rms="0.0000000000000000e+00" purity="3.7682506442070007e-01" nType="-1"/>
          </Node>
        </Node>
        <Node pos="r" depth="1" NCoef="0" IVar="12" Cut="9.2053356250000000e+05" cType="0" res="-9.9000000000000000e+01" rms="0.0000000000000000e+00" purity="4.8701620101928711e-01" nType="0">
          <Node pos="l" depth="2" NCoef="0" IVar="5" Cut="2.0813939062500000e+05" cType="0" res="-9.9000000000000000e+01" rms="0.0000000000000000e+00" purity="5.0851690769195557e-01" nType="0">
            <Node pos="l" depth="3" NCoef="0" IVar="-1" Cut="0.0000000000000000e+00" cType="1" res="-9.9000000000000000e+01" rms="0.0000000000000000e+00" purity="5.4089152812957764e-01" nType="1"/>
            <Node pos="r" depth="3" NCoef="0" IVar="-1" Cut="0.0000000000000000e+00" cType="1" res="-9.9000000000000000e+01" rms="0.0000000000000000e+00" purity="4.5420482754707336e-01" nType="-1"/>
          </Node>
          <Node pos="r" depth="2" NCoef="0" IVar="1" Cut="1.1731792187500000e+05" cType="1" res="-9.9000000000000000e+01" rms="0.0000000000000000e+00" purity="3.9892300963401794e-01" nType="0">
            <Node pos="l" depth="3" NCoef="0" IVar="-1" Cut="0.0000000000000000e+00" cType="1" res="-9.9000000000000000e+01" rms="0.0000000000000000e+00" purity="5.0364279747009277e-01" nType="1"/>
            <Node pos="r" depth="3" NCoef="0" IVar="-1" Cut="0.0000000000000000e+00" cType="1" res="-9.9000000000000000e+01" rms="0.0000000000000000e+00" purity="2.3483014106750488e-01" nType="-1"/>
          </Node>
        </Node>
      </Node>
    </BinaryTree>
    <BinaryTree type="DecisionTree" boostWeight="1.1080913126915415e-01" itree="32">
      <Node pos="s" depth="0" NCoef="0" IVar="0" Cut="2.0125532150268555e+00" cType="0" res="-9.9000000000000000e+01" rms="0.0000000000000000e+00" purity="4.7882920503616333e-01" nType="0">
        <Node pos="l" depth="1" NCoef="0" IVar="8" Cut="2.1111176013946533e+00" cType="0" res="-9.9000000000000000e+01" rms="0.0000000000000000e+00" purity="5.6012231111526489e-01" nType="0">
          <Node pos="l" depth="2" NCoef="0" IVar="-1" Cut="2.1452152729034424e+00" cType="1" res="-9.9000000000000000e+01" rms="0.0000000000000000e+00" purity="6.1505317687988281e-01" nType="1"/>
          <Node pos="r" depth="2" NCoef="0" IVar="-1" Cut="0.0000000000000000e+00" cType="1" res="-9.9000000000000000e+01" rms="0.0000000000000000e+00" purity="4.2999002337455750e-01" nType="-1"/>
        </Node>
        <Node pos="r" depth="1" NCoef="0" IVar="0" Cut="-2.0599274635314941e+00" cType="1" res="-9.9000000000000000e+01" rms="0.0000000000000000e+00" purity="4.7681224346160889e-01" nType="0">
          <Node pos="l" depth="2" NCoef="0" IVar="4" Cut="6.2848275899887085e-01" cType="0" res="-9.9000000000000000e+01" rms="0.0000000000000000e+00" purity="5.5882662534713745e-01" nType="0">
            <Node pos="l" depth="3" NCoef="0" IVar="-1" Cut="0.0000000000000000e+00" cType="1" res="-9.9000000000000000e+01" rms="0.0000000000000000e+00" purity="6.7402786016464233e-01" nType="1"/>
            <Node pos="r" depth="3" NCoef="0" IVar="-1" Cut="0.0000000000000000e+00" cType="1" res="-9.9000000000000000e+01" rms="0.0000000000000000e+00" purity="4.8463577032089233e-01" nType="-1"/>
          </Node>
          <Node pos="r" depth="2" NCoef="0" IVar="-1" Cut="3.1571507453918457e+00" cType="1" res="-9.9000000000000000e+01" rms="0.0000000000000000e+00" purity="4.7518661618232727e-01" nType="-1"/>
        </Node>
      </Node>
    </BinaryTree>
    <BinaryTree type="DecisionTree" boostWeight="1.5168974839358818e-01" itree="33">
      <Node pos="s" depth="0" NCoef="0" IVar="8" Cut="2.9882693290710449e+00" cType="0" res="-9.9000000000000000e+01" rms="0.0000000000000000e+00" purity="5.0516551733016968e-01" nType="0">
        <Node pos="l" depth="1" NCoef="0" IVar="5" Cut="6.3280199218750000e+04" cType="0" res="-9.9000000000000000e+01" rms="0.0000000000000000e+00" purity="5.2025181055068970e-01" nType="0">
          <Node pos="l" depth="2" NCoef="0" IVar="12" Cut="4.5159443750000000e+05" cType="0" res="-9.9000000000000000e+01" rms="0.0000000000000000e+00" purity="5.3662806749343872e-01" nType="0">
            <Node pos="l" depth="3" NCoef="0" IVar="-1" Cut="0.0000000000000000e+00" cType="1" res="-9.9000000000000000e+01" rms="0.0000000000000000e+00" purity="5.3826129436492920e-01" nType="1"/>
            <Node pos="r" depth="3" NCoef="0" IVar="-1" Cut="0.0000000000000000e+00" cType="1" res="-9.9000000000000000e+01" rms="0.0000000000000000e+00" purity="0.0000000000000000e+00" nType="-1"/>
          </Node>
          <Node pos="r" depth="2" NCoef="0" IVar="10" Cut="1.1735888719558716e+00" cType="1" res="-9.9000000000000000e+01" rms="0.0000000000000000e+00" purity="3.8195294141769409e-01" nType="0">
            <Node pos="l" depth="3" NCoef="0" IVar="-1" Cut="0.0000000000000000e+00" cType="1" res="-9.9000000000000000e+01" rms="0.0000000000000000e+00" purity="6.1605292558670044e-01" nType="1"/>
            <Node pos="r" depth="3" NCoef="0" IVar="-1" Cut="0.0000000000000000e+00" cType="1" res="-9.9000000000000000e+01" rms="0.0000000000000000e+00" purity="3.0135262012481689e-01" nType="-1"/>
          </Node>
        </Node>
        <Node pos="r" depth="1" NCoef="0" IVar="7" Cut="2.0067188739776611e+00" cType="0" res="-9.9000000000000000e+01" rms="0.0000000000000000e+00" purity="4.9754327535629272e-01" nType="0">
          <Node pos="l" depth="2" NCoef="0" IVar="10" Cut="2.8372089862823486e+00" cType="1" res="-9.9000000000000000e+01" rms="0.0000000000000000e+00" purity="5.1544761657714844e-01" nType="0">
            <Node pos="l" depth="3" NCoef="0" IVar="-1" Cut="0.0000000000000000e+00" cType="1" res="-9.9000000000000000e+01" rms="0.0000000000000000e+00" purity="5.2369177341461182e-01" nType="1"/>
            <Node pos="r" depth="3" NCoef="0" IVar="-1" Cut="0.0000000000000000e+00" cType="1" res="-9.9000000000000000e+01" rms="0.0000000000000000e+00" purity="4.5923647284507751e-01" nType="-1"/>
          </Node>
          <Node pos="r" depth="2" NCoef="0" IVar="12" Cut="8.8088000000000000e+05" cType="0" res="-9.9000000000000000e+01" rms="0.0000000000000000e+00" purity="4.7086089849472046e-01" nType="0">
            <Node pos="l" depth="3" NCoef="0" IVar="-1" Cut="0.0000000000000000e+00" cType="1" res="-9.9000000000000000e+01" rms="0.0000000000000000e+00" purity="5.0430077314376831e-01" nType="1"/>
            <Node pos="r" depth="3" NCoef="0" IVar="-1" Cut="0.0000000000000000e+00" cType="1" res="-9.9000000000000000e+01" rms="0.0000000000000000e+00" purity="3.9723998308181763e-01" nType="-1"/>
          </Node>
        </Node>
      </Node>
    </BinaryTree>
    <BinaryTree type="DecisionTree" boostWeight="9.6290131753691402e-02" itree="34">
      <Node pos="s" depth="0" NCoef="0" IVar="0" Cut="-2.0147674083709717e+00" cType="1" res="-9.9000000000000000e+01" rms="0.0000000000000000e+00" purity="4.7942504286766052e-01" nType="0">
        <Node pos="l" depth="1" NCoef="0" IVar="10" Cut="2.0262460708618164e+00" cType="0" res="-9.9000000000000000e+01" rms="0.0000000000000000e+00" purity="5.5986893177032471e-01" nType="0">
          <Node pos="l" depth="2" NCoef="0" IVar="-1" Cut="1.4183941483497620e-01" cType="0" res="-9.9000000000000000e+01" rms="0.0000000000000000e+00" purity="6.3814938068389893e-01" nType="1"/>
          <Node pos="r" depth="2" NCoef="0" IVar="9" Cut="2.5197775363922119e+00" cType="1" res="-9.9000000000000000e+01" rms="0.0000000000000000e+00" purity="4.7384077310562134e-01" nType="0">
            <Node pos="l" depth="3" NCoef="0" IVar="-1" Cut="0.0000000000000000e+00" cType="1" res="-9.9000000000000000e+01" rms="0.0000000000000000e+00" purity="5.4089260101318359e-01" nType="1"/>
            <Node pos="r" depth="3" NCoef="0" IVar="-1" Cut="0.0000000000000000e+00" cType="1" res="-9.9000000000000000e+01" rms="0.0000000000000000e+00" purity="4.0789991617202759e-01" nType="-1"/>
          </Node>
        </Node>
        <Node pos="r" depth="1" NCoef="0" IVar="-1" Cut="-1.8003902435302734e+00" cType="0" res="-9.9000000000000000e+01" rms="0.0000000000000000e+00" purity="4.7768139839172363e-01" nType="-1"/>
      </Node>
    </BinaryTree>
    <BinaryTree type="DecisionTree" boostWeight="1.0877322200838185e-01" itree="35">
      <Node pos="s" depth="0" NCoef="0" IVar="7" Cut="1.3305120468139648e+00" cType="1" res="-9.9000000000000000e+01" rms="0.0000000000000000e+00" purity="5.0270980596542358e-01" nType="0">
        <Node pos="l" depth="1" NCoef="0" IVar="1" Cut="2.6403756250000000e+05" cType="1" res="-9.9000000000000000e+01" rms="0.0000000000000000e+00" purity="5.2183538675308228e-01" nType="0">
          <Node pos="l" depth="2" NCoef="0" IVar="12" Cut="9.9388512500000000e+05" cType="1" res="-9.9000000000000000e+01" rms="0.0000000000000000e+00" purity="5.3707534074783325e-01" nType="0">
            <Node pos="l" depth="3" NCoef="0" IVar="-1" Cut="0.0000000000000000e+00" cType="1" res="-9.9000000000000000e+01" rms="0.0000000000000000e+00" purity="5.7403010129928589e-01" nType="1"/>
            <Node pos="r" depth="3" NCoef="0" IVar="-1" Cut="0.0000000000000000e+00" cType="1" res="-9.9000000000000000e+01" rms="0.0000000000000000e+00" purity="4.8390492796897888e-01" nType="-1"/>
          </Node>
          <Node pos="r" depth="2" NCoef="0" IVar="7" Cut="8.0114728212356567e-01" cType="1" res="-9.9000000000000000e+01" rms="0.0000000000000000e+00" purity="4.1569858789443970e-01" nType="0">
            <Node pos="l" depth="3" NCoef="0" IVar="-1" Cut="0.0000000000000000e+00" cType="1" res="-9.9000000000000000e+01" rms="0.0000000000000000e+00" purity="5.9516817331314087e-01" nType="1"/>
            <Node pos="r" depth="3" NCoef="0" IVar="-1" Cut="0.0000000000000000e+00" cType="1" res="-9.9000000000000000e+01" rms="0.0000000000000000e+00" purity="3.2892397046089172e-01" nType="-1"/>
          </Node>
        </Node>
        <Node pos="r" depth="1" NCoef="0" IVar="7" Cut="1.7072645425796509e+00" cType="0" res="-9.9000000000000000e+01" rms="0.0000000000000000e+00" purity="4.9658963084220886e-01" nType="0">
          <Node pos="l" depth="2" NCoef="0" IVar="9" Cut="1.4871909618377686e+00" cType="1" res="-9.9000000000000000e+01" rms="0.0000000000000000e+00" purity="5.0377905368804932e-01" nType="0">
            <Node pos="l" depth="3" NCoef="0" IVar="-1" Cut="0.0000000000000000e+00" cType="1" res="-9.9000000000000000e+01" rms="0.0000000000000000e+00" purity="5.2999889850616455e-01" nType="1"/>
            <Node pos="r" depth="3" NCoef="0" IVar="-1" Cut="0.0000000000000000e+00" cType="1" res="-9.9000000000000000e+01" rms="0.0000000000000000e+00" purity="4.9769127368927002e-01" nType="-1"/>
          </Node>
          <Node pos="r" depth="2" NCoef="0" IVar="12" Cut="1.7527798750000000e+06" cType="0" res="-9.9000000000000000e+01" rms="0.0000000000000000e+00" purity="4.5213061571121216e-01" nType="0">
            <Node pos="l" depth="3" NCoef="0" IVar="-1" Cut="0.0000000000000000e+00" cType="1" res="-9.9000000000000000e+01" rms="0.0000000000000000e+00" purity="9.3299901485443115e-01" nType="1"/>
            <Node pos="r" depth="3" NCoef="0" IVar="-1" Cut="0.0000000000000000e+00" cType="1" res="-9.9000000000000000e+01" rms="0.0000000000000000e+00" purity="4.4081985950469971e-01" nType="-1"/>
          </Node>
        </Node>
      </Node>
    </BinaryTree>
    <BinaryTree type="DecisionTree" boostWeight="9.6222145388756272e-02" itree="36">
      <Node pos="s" depth="0" NCoef="0" IVar="8" Cut="2.4804141521453857e+00" cType="0" res="-9.9000000000000000e+01" rms="0.0000000000000000e+00" purity="5.1578068733215332e-01" nType="0">
        <Node pos="l" depth="1" NCoef="0" IVar="-1" Cut="1.5301862955093384e+00" cType="0" res="-9.9000000000000000e+01" rms="0.0000000000000000e+00" purity="5.2473825216293335e-01" nType="1"/>
        <Node pos="r" depth="1" NCoef="0" IVar="12" Cut="1.3006540000000000e+06" cType="0" res="-9.9000000000000000e+01" rms="0.0000000000000000e+00" purity="5.0192815065383911e-01" nType="0">
          <Node pos="l" depth="2" NCoef="0" IVar="-1" Cut="1.4954374730587006e-01" cType="0" res="-9.9000000000000000e+01" rms="0.0000000000000000e+00" purity="5.7148659229278564e-01" nType="1"/>
          <Node pos="r" depth="2" NCoef="0" IVar="-1" Cut="4.9036018750000000e+05" cType="1" res="-9.9000000000000000e+01" rms="0.0000000000000000e+00" purity="4.8727297782897949e-01" nType="-1"/>
        </Node>
      </Node>
    </BinaryTree>
    <BinaryTree type="DecisionTree" boostWeight="1.5208145148557770e-01" itree="37">
      <Node pos="s" depth="0" NCoef="0" IVar="7" Cut="2.0283670425415039e+00" cType="0" res="-9.9000000000000000e+01" rms="0.0000000000000000e+00" purity="5.0735408067703247e-01" nType="0">
        <Node pos="l" depth="1" NCoef="0" IVar="9" Cut="1.9648079872131348e+00" cType="0" res="-9.9000000000000000e+01" rms="0.0000000000000000e+00" purity="5.2164798974990845e-01" nType="0">
          <Node pos="l" depth="2" NCoef="0" IVar="8" Cut="9.2917376756668091e-01" cType="0" res="-9.9000000000000000e+01" rms="0.0000000000000000e+00" purity="5.3274768590927124e-01" nType="0">
            <Node pos="l" depth="3" NCoef="0" IVar="-1" Cut="0.0000000000000000e+00" cType="1" res="-9.9000000000000000e+01" rms="0.0000000000000000e+00" purity="5.4085201025009155e-01" nType="1"/>
            <Node pos="r" depth="3" NCoef="0" IVar="-1" Cut="0.0000000000000000e+00" cType="1" res="-9.9000000000000000e+01" rms="0.0000000000000000e+00" purity="3.9936888217926025e-01" nType="-1"/>
          </Node>
          <Node pos="r" depth="2" NCoef="0" IVar="5" Cut="2.4621685937500000e+05" cType="0" res="-9.9000000000000000e+01" rms="0.0000000000000000e+00" purity="4.9517235159873962e-01" nType="0">
            <Node pos="l" depth="3" NCoef="0" IVar="-1" Cut="0.0000000000000000e+00" cType="1" res="-9.9000000000000000e+01" rms="0.0000000000000000e+00" purity="5.5484914779663086e-01" nType="1"/>
            <Node pos="r" depth="3" NCoef="0" IVar="-1" Cut="0.0000000000000000e+00" cType="1" res="-9.9000000000000000e+01" rms="0.0000000000000000e+00" purity="4.3823188543319702e-01" nType="-1"/>
          </Node>
        </Node>
        <Node pos="r" depth="1" NCoef="0" IVar="12" Cut="5.9208681250000000e+05" cType="0" res="-9.9000000000000000e+01" rms="0.0000000000000000e+00" purity="4.8938450217247009e-01" nType="0">
          <Node pos="l" depth="2" NCoef="0" IVar="12" Cut="1.6420286250000000e+06" cType="0" res="-9.9000000000000000e+01" rms="0.0000000000000000e+00" purity="4.9735978245735168e-01" nType="0">
            <Node pos="l" depth="3" NCoef="0" IVar="-1" Cut="0.0000000000000000e+00" cType="1" res="-9.9000000000000000e+01" rms="0.0000000000000000e+00" purity="7.1140336990356445e-01" nType="1"/>
            <Node pos="r" depth="3" NCoef="0" IVar="-1" Cut="0.0000000000000000e+00" cType="1" res="-9.9000000000000000e+01" rms="0.0000000000000000e+00" purity="4.8966068029403687e-01" nType="-1"/>
          </Node>
          <Node pos="r" depth="2" NCoef="0" IVar="9" Cut="3.0954828262329102e+00" cType="0" res="-9.9000000000000000e+01" rms="0.0000000000000000e+00" purity="3.1008481979370117e-01" nType="0">
            <Node pos="l" depth="3" NCoef="0" IVar="-1" Cut="0.0000000000000000e+00" cType="1" res="-9.9000000000000000e+01" rms="0.0000000000000000e+00" purity="5.0204509496688843e-01" nType="1"/>
            <Node pos="r" depth="3" NCoef="0" IVar="-1" Cut="0.0000000000000000e+00" cType="1" res="-9.9000000000000000e+01" rms="0.0000000000000000e+00" purity="1.5083138644695282e-01" nType="-1"/>
          </Node>
        </Node>
      </Node>
    </BinaryTree>
    <BinaryTree type="DecisionTree" boostWeight="1.4317514294604536e-01" itree="38">
      <Node pos="s" depth="0" NCoef="0" IVar="9" Cut="2.2646145820617676e+00" cType="1" res="-9.9000000000000000e+01" rms="0.0000000000000000e+00" purity="5.0941395759582520e-01" nType="0">
        <Node pos="l" depth="1" NCoef="0" IVar="12" Cut="7.1304218750000000e+05" cType="0" res="-9.9000000000000000e+01" rms="0.0000000000000000e+00" purity="5.2922481298446655e-01" nType="0">
          <Node pos="l" depth="2" NCoef="0" IVar="7" Cut="2.3512268066406250e+00" cType="1" res="-9.9000000000000000e+01" rms="0.0000000000000000e+00" purity="5.4015421867370605e-01" nType="0">
            <Node pos="l" depth="3" NCoef="0" IVar="-1" Cut="0.0000000000000000e+00" cType="1" res="-9.9000000000000000e+01" rms="0.0000000000000000e+00" purity="5.7278597354888916e-01" nType="1"/>
            <Node pos="r" depth="3" NCoef="0" IVar="-1" Cut="0.0000000000000000e+00" cType="1" res="-9.9000000000000000e+01" rms="0.0000000000000000e+00" purity="4.9612364172935486e-01" nType="-1"/>
          </Node>
          <Node pos="r" depth="2" NCoef="0" IVar="-1" Cut="2.6259971875000000e+05" cType="1" res="-9.9000000000000000e+01" rms="0.0000000000000000e+00" purity="4.4263419508934021e-01" nType="-1"/>
        </Node>
        <Node pos="r" depth="1" NCoef="0" IVar="10" Cut="1.8016518354415894e+00" cType="1" res="-9.9000000000000000e+01" rms="0.0000000000000000e+00" purity="4.9589386582374573e-01" nType="0">
          <Node pos="l" depth="2" NCoef="0" IVar="1" Cut="2.6056117187500000e+05" cType="1" res="-9.9000000000000000e+01" rms="0.0000000000000000e+00" purity="5.1148796081542969e-01" nType="0">
            <Node pos="l" depth="3" NCoef="0" IVar="-1" Cut="0.0000000000000000e+00" cType="1" res="-9.9000000000000000e+01" rms="0.0000000000000000e+00" purity="5.2300107479095459e-01" nType="1"/>
            <Node pos="r" depth="3" NCoef="0" IVar="-1" Cut="0.0000000000000000e+00" cType="1" res="-9.9000000000000000e+01" rms="0.0000000000000000e+00" purity="4.0582147240638733e-01" nType="-1"/>
          </Node>
          <Node pos="r" depth="2" NCoef="0" IVar="-1" Cut="1.9351465702056885e+00" cType="0" res="-9.9000000000000000e+01" rms="0.0000000000000000e+00" purity="4.7153088450431824e-01" nType="-1"/>
        </Node>
      </Node>
    </BinaryTree>
    <BinaryTree type="DecisionTree" boostWeight="1.4112466913287539e-01" itree="39">
      <Node pos="s" depth="0" NCoef="0" IVar="9" Cut="2.2646145820617676e+00" cType="1" res="-9.9000000000000000e+01" rms="0.0000000000000000e+00" purity="5.0704449415206909e-01" nType="0">
        <Node pos="l" depth="1" NCoef="0" IVar="3" Cut="3.0749618750000000e+05" cType="1" res="-9.9000000000000000e+01" rms="0.0000000000000000e+00" purity="5.2869653701782227e-01" nType="0">
          <Node pos="l" depth="2" NCoef="0" IVar="-1" Cut="3.0402395725250244e+00" cType="0" res="-9.9000000000000000e+01" rms="0.0000000000000000e+00" purity="5.5116653442382812e-01" nType="1"/>
          <Node pos="r" depth="2" NCoef="0" IVar="12" Cut="9.1783118750000000e+05" cType="0" res="-9.9000000000000000e+01" rms="0.0000000000000000e+00" purity="5.0058054924011230e-01" nType="0">
