<?xml version="1.0"?>
<MethodSetup Method="MLP::MLP">
  <GeneralInfo>
    <Info name="TMVA Release" value="4.1.4 [262404]"/>
    <Info name="ROOT Release" value="5.34/09 [336393]"/>
    <Info name="Creator" value="inutard"/>
    <Info name="Date" value="Mon Jan 13 22:06:04 2014"/>
    <Info name="Host" value="Linux panlong 3.2.0-37-generic #58-Ubuntu SMP Thu Jan 24 15:28:10 UTC 2013 x86_64 x86_64 x86_64 GNU/Linux"/>
    <Info name="Dir" value="/home/inutard/Desktop/tmva-studies/lean_tmva"/>
    <Info name="Training events" value="23465"/>
    <Info name="TrainingTime" value="1.31047705e+02"/>
    <Info name="AnalysisType" value="Classification"/>
  </GeneralInfo>
  <Options>
    <Option name="NCycles" modified="Yes">600</Option>
    <Option name="HiddenLayers" modified="Yes">N+5</Option>
    <Option name="NeuronType" modified="Yes">tanh</Option>
    <Option name="RandomSeed" modified="No">1</Option>
    <Option name="EstimatorType" modified="No">MSE</Option>
    <Option name="NeuronInputType" modified="No">sum</Option>
    <Option name="V" modified="Yes">False</Option>
    <Option name="VerbosityLevel" modified="No">Default</Option>
    <Option name="VarTransform" modified="Yes">N</Option>
    <Option name="H" modified="Yes">False</Option>
    <Option name="CreateMVAPdfs" modified="No">False</Option>
    <Option name="IgnoreNegWeightsInTraining" modified="No">False</Option>
    <Option name="TrainingMethod" modified="No">BP</Option>
    <Option name="LearningRate" modified="No">2.000000e-02</Option>
    <Option name="DecayRate" modified="No">1.000000e-02</Option>
    <Option name="TestRate" modified="Yes">5</Option>
    <Option name="EpochMonitoring" modified="No">False</Option>
    <Option name="Sampling" modified="No">1.000000e+00</Option>
    <Option name="SamplingEpoch" modified="No">1.000000e+00</Option>
    <Option name="SamplingImportance" modified="No">1.000000e+00</Option>
    <Option name="SamplingTraining" modified="No">True</Option>
    <Option name="SamplingTesting" modified="No">False</Option>
    <Option name="ResetStep" modified="No">50</Option>
    <Option name="Tau" modified="No">3.000000e+00</Option>
    <Option name="BPMode" modified="No">sequential</Option>
    <Option name="BatchSize" modified="No">-1</Option>
    <Option name="ConvergenceImprove" modified="No">1.000000e-30</Option>
    <Option name="ConvergenceTests" modified="No">-1</Option>
    <Option name="UseRegulator" modified="Yes">False</Option>
    <Option name="UpdateLimit" modified="No">10000</Option>
    <Option name="CalculateErrors" modified="No">False</Option>
    <Option name="WeightRange" modified="No">1.000000e+00</Option>
  </Options>
  <Variables NVar="7">
    <Variable VarIndex="0" Expression="n_btags_70" Label="n_btags_70" Title="n_btags_70" Unit="nan" Internal="n_btags_70" Type="I" Min="0.00000000e+00" Max="5.00000000e+00"/>
    <Variable VarIndex="1" Expression="Whad_eta" Label="Whad_eta" Title="Whad_eta" Unit="nan" Internal="Whad_eta" Type="F" Min="-2.33010793e+00" Max="2.25264978e+00"/>
    <Variable VarIndex="2" Expression="Wlep_phi" Label="Wlep_phi" Title="Wlep_phi" Unit="nan" Internal="Wlep_phi" Type="F" Min="-3.13974118e+00" Max="3.14140701e+00"/>
    <Variable VarIndex="3" Expression="tprime_had_pt" Label="tprime_had_pt" Title="tprime_had_pt" Unit="nan" Internal="tprime_had_pt" Type="F" Min="4.19660596e+03" Max="1.43830288e+06"/>
    <Variable VarIndex="4" Expression="dR_lb_had" Label="dR_lb_had" Title="dR_lb_had" Unit="nan" Internal="dR_lb_had" Type="F" Min="4.01370585e-01" Max="5.11403704e+00"/>
    <Variable VarIndex="5" Expression="dR_lb1" Label="dR_lb1" Title="dR_lb1" Unit="nan" Internal="dR_lb1" Type="F" Min="4.00214612e-01" Max="4.93675470e+00"/>
    <Variable VarIndex="6" Expression="Mjj_hpt" Label="Mjj_hpt" Title="Mjj_hpt" Unit="nan" Internal="Mjj_hpt" Type="F" Min="6.38007500e+04" Max="2.11595250e+06"/>
  </Variables>
  <Spectators NSpec="0"/>
  <Classes NClass="2">
    <Class Name="Signal" Index="0"/>
    <Class Name="Background" Index="1"/>
  </Classes>
  <Transformations NTransformations="1">
    <Transform Name="Normalize">
      <Selection>
        <Input NInputs="7">
          <Input Type="Variable" Label="n_btags_70" Expression="n_btags_70"/>
          <Input Type="Variable" Label="Whad_eta" Expression="Whad_eta"/>
          <Input Type="Variable" Label="Wlep_phi" Expression="Wlep_phi"/>
          <Input Type="Variable" Label="tprime_had_pt" Expression="tprime_had_pt"/>
          <Input Type="Variable" Label="dR_lb_had" Expression="dR_lb_had"/>
          <Input Type="Variable" Label="dR_lb1" Expression="dR_lb1"/>
          <Input Type="Variable" Label="Mjj_hpt" Expression="Mjj_hpt"/>
        </Input>
        <Output NOutputs="7">
          <Output Type="Variable" Label="n_btags_70" Expression="n_btags_70"/>
          <Output Type="Variable" Label="Whad_eta" Expression="Whad_eta"/>
          <Output Type="Variable" Label="Wlep_phi" Expression="Wlep_phi"/>
          <Output Type="Variable" Label="tprime_had_pt" Expression="tprime_had_pt"/>
          <Output Type="Variable" Label="dR_lb_had" Expression="dR_lb_had"/>
          <Output Type="Variable" Label="dR_lb1" Expression="dR_lb1"/>
          <Output Type="Variable" Label="Mjj_hpt" Expression="Mjj_hpt"/>
        </Output>
      </Selection>
      <Class ClassIndex="0">
        <Ranges>
          <Range Index="0" Min="0.0000000000000000e+00" Max="5.0000000000000000e+00"/>
          <Range Index="1" Min="-2.1929357051849365e+00" Max="2.1499233245849609e+00"/>
          <Range Index="2" Min="-3.1397411823272705e+00" Max="3.1414070129394531e+00"/>
          <Range Index="3" Min="4.1966059570312500e+03" Max="1.4383028750000000e+06"/>
          <Range Index="4" Min="4.0137058496475220e-01" Max="5.1140370368957520e+00"/>
          <Range Index="5" Min="4.0070626139640808e-01" Max="4.9367547035217285e+00"/>
          <Range Index="6" Min="6.3800750000000000e+04" Max="2.1159525000000000e+06"/>
        </Ranges>
      </Class>
      <Class ClassIndex="1">
        <Ranges>
          <Range Index="0" Min="0.0000000000000000e+00" Max="4.0000000000000000e+00"/>
          <Range Index="1" Min="-2.3301079273223877e+00" Max="2.2526497840881348e+00"/>
          <Range Index="2" Min="-3.1395642757415771e+00" Max="3.1384019851684570e+00"/>
          <Range Index="3" Min="3.2876238281250000e+04" Max="1.1739148750000000e+06"/>
          <Range Index="4" Min="4.0304708480834961e-01" Max="4.9258384704589844e+00"/>
          <Range Index="5" Min="4.0021461248397827e-01" Max="4.9258384704589844e+00"/>
          <Range Index="6" Min="7.7291421875000000e+04" Max="2.0793200000000000e+06"/>
        </Ranges>
      </Class>
      <Class ClassIndex="2">
        <Ranges>
          <Range Index="0" Min="0.0000000000000000e+00" Max="5.0000000000000000e+00"/>
          <Range Index="1" Min="-2.3301079273223877e+00" Max="2.2526497840881348e+00"/>
          <Range Index="2" Min="-3.1397411823272705e+00" Max="3.1414070129394531e+00"/>
          <Range Index="3" Min="4.1966059570312500e+03" Max="1.4383028750000000e+06"/>
          <Range Index="4" Min="4.0137058496475220e-01" Max="5.1140370368957520e+00"/>
          <Range Index="5" Min="4.0021461248397827e-01" Max="4.9367547035217285e+00"/>
          <Range Index="6" Min="6.3800750000000000e+04" Max="2.1159525000000000e+06"/>
        </Ranges>
      </Class>
    </Transform>
  </Transformations>
  <MVAPdfs/>
  <Weights>
    <Layout NLayers="3">
      <Layer Index="0" NNeurons="8">
        <Neuron NSynapses="12">
          -1.5760228158200784e-01 1.8328562755581035e+00 6.2922499370289639e-02 2.6384023500083364e-01 -2.5377356504600681e+00 -1.8667542090285489e+00 -1.7395812972902000e-01 -3.4593618641754274e-02 -8.8161463887336489e-01 -2.1627177159249453e-01 -1.5739088901982662e-01 -3.0624869350660211e-01 
        </Neuron>
        <Neuron NSynapses="12">
          -3.6738329396440589e-02 -3.0673121679638149e-01 1.6985073853031576e-02 -9.4424320579898802e-02 -7.9298012492815495e-01 8.1900728240898524e-01 3.3994063690317700e-01 1.3810321436186077e+00 5.9727422882528060e-02 -3.6072768032031727e-01 -1.2798762383029397e-01 3.3093471940126457e-01 
        </Neuron>
        <Neuron NSynapses="12">
          9.6164958551260889e-03 -3.3998858608061157e-02 2.8872816637487378e-02 5.2493540294917311e-02 5.4066675493177806e-02 -1.2025856413914300e-01 -6.8828791335272740e-02 -8.0314750890762662e-02 -1.3511710226980933e-01 6.3427344116545728e-02 9.6268218806780520e-02 3.1171265699323516e-02 
        </Neuron>
        <Neuron NSynapses="12">
          -7.9001138922822345e-01 1.2950734669431934e+00 -3.3387585186776014e-01 1.3428417886424143e-01 8.0444852596233651e-01 -5.9196822805164007e-01 3.8957834412446168e-01 1.0910837037135887e-01 -3.4932740083652725e-01 -6.3434714880828558e-01 9.4690139403828955e-01 5.2868054449062696e-01 
        </Neuron>
        <Neuron NSynapses="12">
          3.4759227734075904e-01 9.8306869464786195e-01 4.0762504093793128e-01 2.9677375133681938e-01 -2.8612656791082475e-01 4.7346596447310341e-01 -2.6272275304617831e-01 -1.7075712487018435e-01 4.5944351312700103e-02 -3.7335855008186890e-02 2.6233998927552132e-01 6.5113782207433057e-01 
        </Neuron>
        <Neuron NSynapses="12">
          -4.2237691193414856e-01 1.7850702597313739e-01 -2.0294228600535988e-01 -3.7247328609050397e-02 1.4996658267769447e+00 -2.1590942270252054e+00 5.7853506974313651e-01 5.4256920077817439e-01 3.1462076807381834e-02 -1.7146908335257174e-01 -2.2895349873813631e-01 -3.7285368863127244e-01 
        </Neuron>
        <Neuron NSynapses="12">
          1.7560371030477023e-01 1.3657113909496050e+00 9.0356523588893034e-01 -6.5278776231064395e-01 -2.3083835301777849e+00 -1.9554479430524996e+00 5.8340186056543164e-01 1.9015201799522333e-01 1.4921429942437689e+00 -1.4178095496924578e-01 -7.7799629867121134e-02 1.8455693487468053e-01 
        </Neuron>
        <Neuron NSynapses="12">
          -2.5213221315455264e-01 -1.3126678583235121e+00 7.6322556426768795e-01 2.0978865762779887e-02 -4.9148808525214340e+00 -4.9449211742551826e+00 3.3960672757565535e-01 1.3620419650683318e+00 9.3633857024660538e-01 -6.8559437166301462e-01 -1.1854831405325567e-01 4.3015147799779879e-01 
        </Neuron>
      </Layer>
      <Layer Index="1" NNeurons="13">
        <Neuron NSynapses="1">
          -1.1679624516866299e-01 
        </Neuron>
        <Neuron NSynapses="1">
          1.1613621144558584e-01 
        </Neuron>
        <Neuron NSynapses="1">
          8.2793046459315844e-02 
        </Neuron>
        <Neuron NSynapses="1">
          2.1479940295700561e-01 
        </Neuron>
        <Neuron NSynapses="1">
          -6.4730943989602108e-01 
        </Neuron>
        <Neuron NSynapses="1">
          -4.4716731095807966e-01 
        </Neuron>
        <Neuron NSynapses="1">
          -2.7672939219109488e-01 
        </Neuron>
        <Neuron NSynapses="1">
          4.0930685638386055e-01 
        </Neuron>
        <Neuron NSynapses="1">
          2.7332039571284378e-01 
        </Neuron>
        <Neuron NSynapses="1">
          2.0300227545561936e-02 
        </Neuron>
        <Neuron NSynapses="1">
          2.4045650084701772e-01 
        </Neuron>
        <Neuron NSynapses="1">
          -2.5462795993333914e-01 
        </Neuron>
        <Neuron NSynapses="1">
          -3.8193273632422248e-01 
        </Neuron>
      </Layer>
      <Layer Index="2" NNeurons="1">
        <Neuron NSynapses="0"/>
      </Layer>
    </Layout>
  </Weights>
</MethodSetup>
