<?xml version="1.0"?>
<MethodSetup Method="MLP::MLP">
  <GeneralInfo>
    <Info name="TMVA Release" value="4.1.2 [262402]"/>
    <Info name="ROOT Release" value="5.32/01 [335873]"/>
    <Info name="Creator" value="inutard"/>
    <Info name="Date" value="Sat Apr 12 20:43:36 2014"/>
    <Info name="Host" value="Linux lxbuild148.cern.ch 2.6.18-238.5.1.el5 #1 SMP Wed Mar 2 15:08:52 CET 2011 x86_64 x86_64 x86_64 GNU/Linux"/>
    <Info name="Dir" value="/home/inutard/tmva-studies/lean_tmva"/>
    <Info name="Training events" value="103624"/>
    <Info name="TrainingTime" value="9.50099166e+02"/>
    <Info name="AnalysisType" value="Classification"/>
  </GeneralInfo>
  <Options>
    <Option name="NCycles" modified="Yes">700</Option>
    <Option name="HiddenLayers" modified="Yes">N+5</Option>
    <Option name="NeuronType" modified="Yes">tanh</Option>
    <Option name="RandomSeed" modified="No">1</Option>
    <Option name="EstimatorType" modified="Yes">CE</Option>
    <Option name="NeuronInputType" modified="No">sum</Option>
    <Option name="V" modified="Yes">False</Option>
    <Option name="VerbosityLevel" modified="No">Default</Option>
    <Option name="VarTransform" modified="Yes">N</Option>
    <Option name="H" modified="Yes">False</Option>
    <Option name="CreateMVAPdfs" modified="No">False</Option>
    <Option name="IgnoreNegWeightsInTraining" modified="No">False</Option>
    <Option name="TrainingMethod" modified="No">BP</Option>
    <Option name="LearningRate" modified="No">2.000000e-02</Option>
    <Option name="DecayRate" modified="No">1.000000e-02</Option>
    <Option name="TestRate" modified="Yes">5</Option>
    <Option name="EpochMonitoring" modified="No">False</Option>
    <Option name="Sampling" modified="No">1.000000e+00</Option>
    <Option name="SamplingEpoch" modified="No">1.000000e+00</Option>
    <Option name="SamplingImportance" modified="No">1.000000e+00</Option>
    <Option name="SamplingTraining" modified="Yes">False</Option>
    <Option name="SamplingTesting" modified="No">False</Option>
    <Option name="ResetStep" modified="No">50</Option>
    <Option name="Tau" modified="No">3.000000e+00</Option>
    <Option name="BPMode" modified="No">sequential</Option>
    <Option name="BatchSize" modified="No">-1</Option>
    <Option name="ConvergenceImprove" modified="No">1.000000e-30</Option>
    <Option name="ConvergenceTests" modified="No">-1</Option>
    <Option name="UseRegulator" modified="Yes">False</Option>
    <Option name="UpdateLimit" modified="No">10000</Option>
    <Option name="CalculateErrors" modified="No">False</Option>
    <Option name="WeightRange" modified="No">1.000000e+00</Option>
  </Options>
  <Variables NVar="7">
    <Variable VarIndex="0" Expression="lep_pt" Label="lep_pt" Title="lep_pt" Unit="nan" Internal="lep_pt" Type="F" Min="2.00025117e+04" Max="1.15521662e+06"/>
    <Variable VarIndex="1" Expression="Whad_pt" Label="Whad_pt" Title="Whad_pt" Unit="nan" Internal="Whad_pt" Type="F" Min="1.50002906e+05" Max="1.37324350e+06"/>
    <Variable VarIndex="2" Expression="Whad_m" Label="Whad_m" Title="Whad_m" Unit="nan" Internal="Whad_m" Type="F" Min="6.00002656e+04" Max="1.09996000e+05"/>
    <Variable VarIndex="3" Expression="b_lep_pt" Label="b_lep_pt" Title="b_lep_pt" Unit="nan" Internal="b_lep_pt" Type="F" Min="2.50018125e+04" Max="1.48537050e+06"/>
    <Variable VarIndex="4" Expression="dR_lb_lep" Label="dR_lb_lep" Title="dR_lb_lep" Unit="nan" Internal="dR_lb_lep" Type="F" Min="4.00038838e-01" Max="5.28502321e+00"/>
    <Variable VarIndex="5" Expression="dR_Whad_b1" Label="dR_Whad_b1" Title="dR_Whad_b1" Unit="nan" Internal="dR_Whad_b1" Type="F" Min="2.93148309e-01" Max="5.46824741e+00"/>
    <Variable VarIndex="6" Expression="dR_Whad_b2" Label="dR_Whad_b2" Title="dR_Whad_b2" Unit="nan" Internal="dR_Whad_b2" Type="F" Min="1.38192490e-01" Max="5.52754450e+00"/>
  </Variables>
  <Spectators NSpec="0"/>
  <Classes NClass="2">
    <Class Name="Signal" Index="0"/>
    <Class Name="Background" Index="1"/>
  </Classes>
  <Transformations NTransformations="1">
    <Transform Name="Normalize">
      <Selection>
        <Input NInputs="7">
          <Input Type="Variable" Label="lep_pt" Expression="lep_pt"/>
          <Input Type="Variable" Label="Whad_pt" Expression="Whad_pt"/>
          <Input Type="Variable" Label="Whad_m" Expression="Whad_m"/>
          <Input Type="Variable" Label="b_lep_pt" Expression="b_lep_pt"/>
          <Input Type="Variable" Label="dR_lb_lep" Expression="dR_lb_lep"/>
          <Input Type="Variable" Label="dR_Whad_b1" Expression="dR_Whad_b1"/>
          <Input Type="Variable" Label="dR_Whad_b2" Expression="dR_Whad_b2"/>
        </Input>
        <Output NOutputs="7">
          <Output Type="Variable" Label="lep_pt" Expression="lep_pt"/>
          <Output Type="Variable" Label="Whad_pt" Expression="Whad_pt"/>
          <Output Type="Variable" Label="Whad_m" Expression="Whad_m"/>
          <Output Type="Variable" Label="b_lep_pt" Expression="b_lep_pt"/>
          <Output Type="Variable" Label="dR_lb_lep" Expression="dR_lb_lep"/>
          <Output Type="Variable" Label="dR_Whad_b1" Expression="dR_Whad_b1"/>
          <Output Type="Variable" Label="dR_Whad_b2" Expression="dR_Whad_b2"/>
        </Output>
      </Selection>
      <Class ClassIndex="0">
        <Ranges>
          <Range Index="0" Min="2.0002636718750000e+04" Max="1.1552166250000000e+06"/>
          <Range Index="1" Min="1.5013579687500000e+05" Max="1.3732435000000000e+06"/>
          <Range Index="2" Min="6.0000265625000000e+04" Max="1.0999600000000000e+05"/>
          <Range Index="3" Min="2.5002179687500000e+04" Max="1.4853705000000000e+06"/>
          <Range Index="4" Min="4.0070626139640808e-01" Max="5.1786022186279297e+00"/>
          <Range Index="5" Min="2.9314830899238586e-01" Max="4.9984622001647949e+00"/>
          <Range Index="6" Min="2.3738618195056915e-01" Max="5.1837034225463867e+00"/>
        </Ranges>
      </Class>
      <Class ClassIndex="1">
        <Ranges>
          <Range Index="0" Min="2.0002511718750000e+04" Max="7.2373137500000000e+05"/>
          <Range Index="1" Min="1.5000290625000000e+05" Max="1.3552432500000000e+06"/>
          <Range Index="2" Min="6.0000386718750000e+04" Max="1.0996771875000000e+05"/>
          <Range Index="3" Min="2.5001812500000000e+04" Max="1.3078158750000000e+06"/>
          <Range Index="4" Min="4.0003883838653564e-01" Max="5.2850232124328613e+00"/>
          <Range Index="5" Min="2.9856735467910767e-01" Max="5.4682474136352539e+00"/>
          <Range Index="6" Min="1.3819248974323273e-01" Max="5.5275444984436035e+00"/>
        </Ranges>
      </Class>
      <Class ClassIndex="2">
        <Ranges>
          <Range Index="0" Min="2.0002511718750000e+04" Max="1.1552166250000000e+06"/>
          <Range Index="1" Min="1.5000290625000000e+05" Max="1.3732435000000000e+06"/>
          <Range Index="2" Min="6.0000265625000000e+04" Max="1.0999600000000000e+05"/>
          <Range Index="3" Min="2.5001812500000000e+04" Max="1.4853705000000000e+06"/>
          <Range Index="4" Min="4.0003883838653564e-01" Max="5.2850232124328613e+00"/>
          <Range Index="5" Min="2.9314830899238586e-01" Max="5.4682474136352539e+00"/>
          <Range Index="6" Min="1.3819248974323273e-01" Max="5.5275444984436035e+00"/>
        </Ranges>
      </Class>
    </Transform>
  </Transformations>
  <MVAPdfs/>
  <Weights>
    <Layout NLayers="3">
      <Layer Index="0" NNeurons="8">
        <Neuron NSynapses="12">
          -8.5771743234245417e+00 -3.7017581049849674e-01 -3.4243897503830656e+00 2.3554009062655363e+00 2.0624538140560782e+00 -1.5842299760135379e+00 -1.3906711512056336e+00 1.9519919535611860e+00 -1.6431203405576935e+00 3.0818898507015091e+00 -1.8395226754690288e+00 -3.6674252234756919e+00 
        </Neuron>
        <Neuron NSynapses="12">
          -3.5056604175821993e+00 4.1190556790719862e-01 1.2914241929942305e+00 -2.4143491562857919e+00 -6.3344480961893721e+00 -2.4763448056857915e+00 3.1752529033812005e-01 8.9884558575032447e-01 -6.1960760624114020e-01 -4.9078293890484193e-01 -1.1831078821153751e+00 4.9532427273086119e+00 
        </Neuron>
        <Neuron NSynapses="12">
          1.1452848570936822e-01 -1.4773504488580964e+00 -8.1993689580938042e-02 3.9854424831199192e-02 4.6762075500408784e-01 1.7833172177329742e-01 6.1995287834203527e-01 1.1217101183668905e+00 -1.9856875013009681e-01 -1.7838158339481540e+00 1.2395757387535211e-01 -8.3081773120775207e-02 
        </Neuron>
        <Neuron NSynapses="12">
          2.5498755637056871e+00 3.1326360530073194e-01 -6.9788472739590599e+00 1.6973513081042761e+00 -5.6412989330816083e+00 -3.8216688726164758e+00 -3.5379842251161402e+00 2.7970999651605681e+00 -1.2242295387469773e+00 -1.1430286885503351e+00 -7.1893861465912234e-01 1.9912253411821332e+00 
        </Neuron>
        <Neuron NSynapses="12">
          -1.1917048182017584e+00 5.3546234188505439e-02 -2.2031312709304354e+00 3.1434706092963296e+00 -2.5280718675390629e-01 -5.5160491152912638e-01 -7.5757976737895207e+00 9.4096485494306903e-01 -1.0302194504306739e+00 -8.9911856153641001e-02 8.0281868780741683e-01 3.2775043620014133e-01 
        </Neuron>
        <Neuron NSynapses="12">
          9.7532875867747193e-01 1.0500726736554387e+00 3.6581055270780644e-01 1.6581904504301348e+00 1.0323964755653399e+00 1.0353864495224443e+00 1.0020642573148177e+00 -8.1883915537179153e-01 5.0441571872561686e-01 -9.9070173199727007e-01 -3.7711484183006214e+00 -4.3499396538622728e+00 
        </Neuron>
        <Neuron NSynapses="12">
          1.0787644378961656e+00 1.3289894426301447e+00 -4.8326536998249792e-02 -2.7674754641769379e+00 1.3186357087613927e+00 -1.8774228716089052e+00 5.6571294239928405e-01 1.1767988586803331e+00 1.1027310164955637e+00 -1.5911449255355612e+00 5.5382173637337928e-01 1.1083911422540962e-02 
        </Neuron>
        <Neuron NSynapses="12">
          -8.4928797076039100e+00 -9.3759663521838221e-01 -7.9013948702359169e+00 -8.8094501616701915e-01 -7.6583064719685039e+00 -7.4904938147435818e+00 -8.5952237338515403e+00 -5.3099163686182493e-01 2.3106775516473910e+00 3.0188927126761644e+00 -4.9988776364557754e+00 3.8133598230691521e+00 
        </Neuron>
      </Layer>
      <Layer Index="1" NNeurons="13">
        <Neuron NSynapses="1">
          -1.1975615728801445e+00 
        </Neuron>
        <Neuron NSynapses="1">
          -1.8423651846432072e+00 
        </Neuron>
        <Neuron NSynapses="1">
          -1.4469370686260976e+00 
        </Neuron>
        <Neuron NSynapses="1">
          -1.1804497701926986e+00 
        </Neuron>
        <Neuron NSynapses="1">
          -1.2723750314596676e+00 
        </Neuron>
        <Neuron NSynapses="1">
          -1.8253196643896625e+00 
        </Neuron>
        <Neuron NSynapses="1">
          -1.0217082307411611e+00 
        </Neuron>
        <Neuron NSynapses="1">
          2.6037247783146484e+00 
        </Neuron>
        <Neuron NSynapses="1">
          -1.9652487758429491e+00 
        </Neuron>
        <Neuron NSynapses="1">
          1.7940485429095401e+00 
        </Neuron>
        <Neuron NSynapses="1">
          -1.7569149834256934e+00 
        </Neuron>
        <Neuron NSynapses="1">
          -1.1319328148374728e+00 
        </Neuron>
        <Neuron NSynapses="1">
          -1.1402188143932335e+00 
        </Neuron>
      </Layer>
      <Layer Index="2" NNeurons="1">
        <Neuron NSynapses="0"/>
      </Layer>
    </Layout>
  </Weights>
</MethodSetup>
