<?xml version="1.0"?>
<MethodSetup Method="MLP::MLPBNN">
  <GeneralInfo>
    <Info name="TMVA Release" value="4.1.2 [262402]"/>
    <Info name="ROOT Release" value="5.32/01 [335873]"/>
    <Info name="Creator" value="inutard"/>
    <Info name="Date" value="Thu Sep 19 23:55:58 2013"/>
    <Info name="Host" value="Linux lxbuild148.cern.ch 2.6.18-238.5.1.el5 #1 SMP Wed Mar 2 15:08:52 CET 2011 x86_64 x86_64 x86_64 GNU/Linux"/>
    <Info name="Dir" value="/home/inutard/thesis"/>
    <Info name="Training events" value="6000"/>
    <Info name="TrainingTime" value="1.58350014e+02"/>
    <Info name="AnalysisType" value="Classification"/>
  </GeneralInfo>
  <Options>
    <Option name="NCycles" modified="Yes">600</Option>
    <Option name="HiddenLayers" modified="Yes">N+5</Option>
    <Option name="NeuronType" modified="Yes">tanh</Option>
    <Option name="RandomSeed" modified="No">1</Option>
    <Option name="EstimatorType" modified="No">MSE</Option>
    <Option name="NeuronInputType" modified="No">sum</Option>
    <Option name="V" modified="Yes">False</Option>
    <Option name="VerbosityLevel" modified="No">Default</Option>
    <Option name="VarTransform" modified="Yes">N</Option>
    <Option name="H" modified="Yes">True</Option>
    <Option name="CreateMVAPdfs" modified="No">False</Option>
    <Option name="IgnoreNegWeightsInTraining" modified="No">False</Option>
    <Option name="TrainingMethod" modified="Yes">BFGS</Option>
    <Option name="LearningRate" modified="No">2.000000e-02</Option>
    <Option name="DecayRate" modified="No">1.000000e-02</Option>
    <Option name="TestRate" modified="Yes">5</Option>
    <Option name="EpochMonitoring" modified="No">False</Option>
    <Option name="Sampling" modified="No">1.000000e+00</Option>
    <Option name="SamplingEpoch" modified="No">1.000000e+00</Option>
    <Option name="SamplingImportance" modified="No">1.000000e+00</Option>
    <Option name="SamplingTraining" modified="No">True</Option>
    <Option name="SamplingTesting" modified="No">False</Option>
    <Option name="ResetStep" modified="No">50</Option>
    <Option name="Tau" modified="No">3.000000e+00</Option>
    <Option name="BPMode" modified="No">sequential</Option>
    <Option name="BatchSize" modified="No">-1</Option>
    <Option name="ConvergenceImprove" modified="No">1.000000e-30</Option>
    <Option name="ConvergenceTests" modified="No">-1</Option>
    <Option name="UseRegulator" modified="Yes">True</Option>
    <Option name="UpdateLimit" modified="No">10000</Option>
    <Option name="CalculateErrors" modified="No">False</Option>
    <Option name="WeightRange" modified="No">1.000000e+00</Option>
  </Options>
  <Variables NVar="4">
    <Variable VarIndex="0" Expression="var1+var2" Label="myvar1" Title="myvar1" Unit="" Internal="myvar1" Type="F" Min="-8.96602058e+00" Max="7.69307804e+00"/>
    <Variable VarIndex="1" Expression="var1-var2" Label="myvar2" Title="Expression 2" Unit="" Internal="myvar2" Type="F" Min="-4.08540010e+00" Max="4.02589369e+00"/>
    <Variable VarIndex="2" Expression="var3" Label="var3" Title="Variable 3" Unit="units" Internal="var3" Type="F" Min="-5.05078554e+00" Max="4.35967064e+00"/>
    <Variable VarIndex="3" Expression="var4" Label="var4" Title="Variable 4" Unit="units" Internal="var4" Type="F" Min="-5.95050764e+00" Max="4.92254400e+00"/>
  </Variables>
  <Spectators NSpec="2">
    <Spectator SpecIndex="0" Expression="var1*2" Label="spec1" Title="Spectator 1" Unit="units" Internal="spec1" Type="F" Min="-9.91655540e+00" Max="9.52782059e+00"/>
    <Spectator SpecIndex="1" Expression="var1*3" Label="spec2" Title="Spectator 2" Unit="units" Internal="spec2" Type="F" Min="-1.48748331e+01" Max="1.42917309e+01"/>
  </Spectators>
  <Classes NClass="2">
    <Class Name="Signal" Index="0"/>
    <Class Name="Background" Index="1"/>
  </Classes>
  <Transformations NTransformations="1">
    <Transform Name="Normalize">
      <Selection>
        <Input NInputs="4">
          <Input Type="Variable" Label="myvar1" Expression="var1+var2"/>
          <Input Type="Variable" Label="myvar2" Expression="var1-var2"/>
          <Input Type="Variable" Label="var3" Expression="var3"/>
          <Input Type="Variable" Label="var4" Expression="var4"/>
        </Input>
        <Output NOutputs="4">
          <Output Type="Variable" Label="myvar1" Expression="var1+var2"/>
          <Output Type="Variable" Label="myvar2" Expression="var1-var2"/>
          <Output Type="Variable" Label="var3" Expression="var3"/>
          <Output Type="Variable" Label="var4" Expression="var4"/>
        </Output>
      </Selection>
      <Class ClassIndex="0">
        <Ranges>
          <Range Index="0" Min="-5.0562591552734375e+00" Max="6.3994679450988770e+00"/>
          <Range Index="1" Min="-4.0854001045227051e+00" Max="3.4012691974639893e+00"/>
          <Range Index="2" Min="-3.1826326847076416e+00" Max="3.8475654125213623e+00"/>
          <Range Index="3" Min="-2.9959020614624023e+00" Max="4.5351858139038086e+00"/>
        </Ranges>
      </Class>
      <Class ClassIndex="1">
        <Ranges>
          <Range Index="0" Min="-8.9660205841064453e+00" Max="7.6930780410766602e+00"/>
          <Range Index="1" Min="-3.6791675090789795e+00" Max="4.0258936882019043e+00"/>
          <Range Index="2" Min="-5.0507855415344238e+00" Max="4.3596706390380859e+00"/>
          <Range Index="3" Min="-5.9505076408386230e+00" Max="4.9225440025329590e+00"/>
        </Ranges>
      </Class>
      <Class ClassIndex="2">
        <Ranges>
          <Range Index="0" Min="-8.9660205841064453e+00" Max="7.6930780410766602e+00"/>
          <Range Index="1" Min="-4.0854001045227051e+00" Max="4.0258936882019043e+00"/>
          <Range Index="2" Min="-5.0507855415344238e+00" Max="4.3596706390380859e+00"/>
          <Range Index="3" Min="-5.9505076408386230e+00" Max="4.9225440025329590e+00"/>
        </Ranges>
      </Class>
    </Transform>
  </Transformations>
  <MVAPdfs/>
  <Weights>
    <Layout NLayers="3">
      <Layer Index="0" NNeurons="5">
        <Neuron NSynapses="9">
          -6.2753003528247198e-01 1.7709834414792667e+00 1.3976892979608830e+00 7.8589772544312397e-01 -7.6704292825550082e+00 1.4034068914758151e-02 1.1966145467252259e-01 5.0099382819990734e-01 -9.8693899765756377e-01 
        </Neuron>
        <Neuron NSynapses="9">
          -1.6005828987990570e-03 -2.4549031322183335e-02 -4.8970240909679531e-02 -4.9836609965265219e-02 -9.9699178397506105e-01 -1.1245412623978535e-01 -4.9246624500506294e-03 2.0047659422300187e-02 3.6790261529943080e-01 
        </Neuron>
        <Neuron NSynapses="9">
          -1.9018075134708018e-01 3.4924447030128269e-01 -3.3883271489374711e-01 3.0802534832633233e-01 -2.3243953562292532e+00 1.3922118166445269e-01 -4.1057088174230386e-02 -3.8282421914637477e-01 1.1171255028907541e+00 
        </Neuron>
        <Neuron NSynapses="9">
          -6.8364627811719225e-01 -1.8367637710665585e+00 -1.6808875541512904e+00 -1.3130971034832499e+00 1.1476615528024869e+01 -1.7165291939938669e+00 4.3491603641313853e-01 -4.9264434880571040e-01 -1.7399839583139487e-01 
        </Neuron>
        <Neuron NSynapses="9">
          -1.9526144504615821e+00 1.4159745334500768e+00 6.7396636654403971e-02 9.3737282803348509e-01 -6.6692155263300390e-01 7.7296811876176055e-02 1.8268321643310101e+00 1.7293308682406074e+00 -6.8558741195684747e-01 
        </Neuron>
      </Layer>
      <Layer Index="1" NNeurons="10">
        <Neuron NSynapses="1">
          -9.5035633443088047e-02 
        </Neuron>
        <Neuron NSynapses="1">
          3.4220631936949220e-01 
        </Neuron>
        <Neuron NSynapses="1">
          5.6178240972478277e-01 
        </Neuron>
        <Neuron NSynapses="1">
          2.6155861464914026e-01 
        </Neuron>
        <Neuron NSynapses="1">
          6.9822151888189099e-01 
        </Neuron>
        <Neuron NSynapses="1">
          -1.4909408060211118e-01 
        </Neuron>
        <Neuron NSynapses="1">
          1.7679306574204876e-01 
        </Neuron>
        <Neuron NSynapses="1">
          2.9427171307099854e-02 
        </Neuron>
        <Neuron NSynapses="1">
          4.2931931252121169e-01 
        </Neuron>
        <Neuron NSynapses="1">
          1.4933586157863344e-02 
        </Neuron>
      </Layer>
      <Layer Index="2" NNeurons="1">
        <Neuron NSynapses="0"/>
      </Layer>
    </Layout>
    <InverseHessian NElements="3025" NRows="55" NCols="55">
      <Row Index="0">
        1.6633785867111545e+05 1.0948258923437915e+02 2.6285449471555175e+03 -1.0053440727851104e+04 7.0824716497883870e+01 -3.3656893117207023e+03 -1.2791974091995586e+05 -2.2428552053954252e+04 -1.6536229478347207e+02 -2.7317959953078107e+03 -5.8759061741432299e+02 4.8090233352947962e+01 3.1819937620590071e+02 4.4108478119460699e+01 1.0507732815621230e+03 -1.3359516156238980e+04 1.4225290355475329e+03 -3.4242654062526935e+02 5.9147529763874561e+04 -2.2152482233663868e+03 5.4212893260954377e+02 -2.4323362589597987e+03 6.6104539941387046e+01 -2.3766224533260897e+03 -1.3813483251286740e+05 -1.1714484852714673e+04 -8.4357962328092708e+02 1.3638928268145462e+04 -3.3395602799722574e+03 -3.2091033245036656e+03 1.5722917169581902e+04 -1.5745361163445023e+02 1.0326435929587518e+04 -1.3404483748022246e+05 -1.9155213401554396e+04 8.8775161822750420e+02 1.1755324236394098e+05 2.5420279569778450e+02 5.1218587100423724e+02 -4.0633963114777798e+03 8.3172593336772529e+00 -1.4270498631985283e+03 1.6173696332273163e+04 8.0379278377151240e+02 1.7906798729607708e+01 -6.1258033120285450e+04 1.3307416102176940e+03 -8.3217261348552438e+02 2.4628462577421014e+03 3.1468205102091666e+01 -2.2908949899542986e+03 -7.3171280025141226e+04 -3.9363301882316819e+03 8.1907437498973377e+02 1.2630862582450305e+04 
      </Row>
      <Row Index="1">
        1.0947661574184895e+02 9.8114839805138283e+04 -1.0507831515844682e+03 6.9762954406670433e+03 2.7170604944992615e+01 -1.9767615229414953e+03 5.3198344647740611e+04 -1.8497457676796152e+04 1.2990574262681544e+03 -5.3485770727651914e+02 1.2221373686137387e+02 8.0689712743257651e+00 8.2532532173194841e+02 -9.6192591927822839e+00 1.2642207345189155e+02 1.8695527505717414e+03 -8.6697128262652204e+03 1.9593713076544432e+02 -2.4830061731955952e+03 1.7665620277867874e+04 4.9682695300737475e+02 2.5369733902412290e+02 -2.1105725637234659e+01 -4.8421882052212175e+02 -1.0914434940307647e+03 -1.5507250089495205e+03 1.1657759166403425e+03 2.2989532755213106e+04 -1.0508197104259252e+05 1.2658764636923599e+03 1.1502115308403991e+04 3.9756883193804867e+01 4.7314024519347768e+03 -1.6548120752000235e+04 -1.0507408034215705e+04 -1.9100847315788481e+03 1.9796503150750974e+04 -2.5136061763237311e+04 -8.3005756721051796e+01 -8.1565548788351271e+03 -4.0494633836852980e+00 -3.3888556101115876e+02 2.3248429527656874e+04 3.1103690180536360e+03 9.1871153354423541e+01 -3.1913712255894056e+03 -5.9222265717391158e+04 1.5062673858481289e+03 1.0722297395122067e+04 -1.1067716828301714e+01 -9.7257749017578692e+02 -1.3155541633948334e+04 -1.2761629080849489e+03 -5.0606431865762215e+02 5.7548052697821746e+04 
      </Row>
      <Row Index="2">
        2.6285447997731972e+03 -1.0507828663785388e+03 7.4925099741691554e+02 -7.4637365330733383e+02 2.7622820785233284e+01 -1.1041581233601202e+02 5.2236542779245010e+03 -2.8045009129069513e+03 -4.5786335266869929e+02 -1.0735281555083453e+01 -1.3743927535798190e+02 2.1365229492396644e+01 -5.8354029556384120e+01 8.8908009428705306e+00 1.2548007045986424e+01 1.6834589552271686e+02 2.2160055706290200e+03 6.9422726242097028e+01 7.8284535182163950e+01 -2.1864882358147926e+02 8.8544147085416167e+00 -8.6305313675782122e+02 2.3868777429441302e+01 9.0550525268688034e+01 -2.1770176530325457e+03 2.6404792633798766e+03 6.7717707765864148e+01 1.2741129075324607e+03 4.9452888032383299e+02 -8.5492851929133622e+02 1.1522440741872581e+03 -5.6912494526502215e+01 -4.4382700927818235e+01 -1.9194991172575492e+03 2.0485235007145998e+03 3.9448866189379947e+02 1.9524501950396959e+03 1.9968843302749076e+02 2.0354307968446474e+01 -8.3444639689391965e+02 3.7540449250548460e+00 1.0472063570364270e+01 2.3806331309656202e+03 -7.1774743313409590e+02 -3.7722655646163076e+01 -8.4580700440147984e+02 8.2567162622058891e+02 -4.2255461027685408e+02 -1.4161524639236291e+02 8.4880699970143549e+00 7.4836608976247305e+00 -4.3496602307754756e+03 1.6784622758340066e+02 -1.3070075867695755e+02 2.5458406804470937e+03 
      </Row>
      <Row Index="3">
        -1.0053442132924916e+04 6.9762966285165667e+03 -7.4637372022103682e+02 2.4404252501176023e+04 8.0709185872932764e+01 -7.1934817250967598e+01 4.9956620655827326e+04 -9.2001719014719129e+01 3.9912976758757736e+02 -4.1540133172983769e+02 6.6736616240519857e+02 -8.5112604810379597e+00 -1.6797886926335214e+03 2.1105989554307900e+01 6.6361987154052542e+01 -2.8337045785017308e+03 9.9520353280370309e+03 -7.4963011346675998e+01 -5.0624646242712797e+03 5.3636742573416473e+02 6.4470634400343408e+02 3.9468953923321196e+03 1.6796949970509047e+01 -5.6797285754968368e+02 1.7941984662165018e+04 1.1379129947719979e+04 -1.0528080583656563e+03 7.4478528224071761e+03 -5.6199519888418754e+03 6.0786425290154057e+01 -2.8705496419957519e+04 -1.1081486841871356e+02 7.7803986447371381e+02 3.8699982197744648e+03 -1.1788020259369219e+04 6.5779377940974734e+02 -2.0741959010722485e+03 4.7501678829378980e+03 -1.3309453948485032e+02 -3.2038589908971426e+03 4.1966837442008540e+00 2.3968454443577238e+02 1.4676377251425931e+04 9.3998131024176837e+02 1.4684885476587265e+01 3.8576912740392440e+03 -3.9009195928382251e+03 7.4825235971789766e+02 -5.9654067840819835e+03 1.7017172949803626e+01 -1.5363361336772869e+02 -1.2089512360380138e+04 -3.5556718376047093e+03 3.3916384056392644e+02 2.6416856320150153e+04 
      </Row>
      <Row Index="4">
        7.0824709430584335e+01 2.7170610142389084e+01 2.7622820600321681e+01 8.0709186545336422e+01 1.7814717761421615e+01 -1.0560127170558099e+01 1.2463936416072008e+02 -1.0896307428721047e+02 -1.3423751864781458e+01 -4.7385522854709734e+01 -5.1756748780606132e-01 4.8431258968147937e+00 -1.1398620200178055e+01 2.9470590109061559e+00 -1.2676282343779650e+00 -1.3241428757846495e+02 2.9019913943364008e+02 1.5554957097614606e+00 -2.2250347735798151e+01 1.2884530164231187e+01 1.2874509614457995e+01 -7.2189833100133711e+01 6.6405535778304099e+00 -1.7485956980456983e+01 -3.2286168065381594e+02 3.2188713300915140e+01 -1.0785434972549316e+01 -3.9012978362611989e+01 -4.8403919079305240e+00 -5.6468125905463538e+01 -1.5081552349824726e+01 -2.6465943591716609e+01 4.1640642478477716e+01 -1.5739375938224924e+02 -6.6336392596674301e+01 2.0121138116148817e+01 7.9758134369812851e+01 -2.4793094775811340e+01 4.0407278885237252e+00 -2.6086955489800307e+01 1.4948758554340102e+00 -5.9306919329981387e+00 6.2940525604257289e+01 3.2203375940088961e+00 -3.3941284428415250e+00 -1.9143537869819923e+01 -4.1168208007565163e+01 -1.1580612351877352e+01 2.7722882385342857e+01 2.9610820558487183e+00 -6.2056794086399467e+00 -5.8966910747329386e+01 -5.5871292800249911e+01 7.6573105232125549e-01 1.1131224200667626e+02 
      </Row>
      <Row Index="5">
        -3.3656890972376423e+03 -1.9767618009193188e+03 -1.1041580720265189e+02 -7.1934845569277755e+01 -1.0560127260945478e+01 1.1981121079777995e+03 6.6221647981102014e+03 3.4062393103167415e+02 -1.3934244894509799e+01 3.0325001321791206e+02 5.0811384065388992e+01 -1.1023323043076694e+01 1.2478640943815666e+01 -2.1577534199545285e+00 -1.0426968183504551e+01 8.2233927957879416e+02 8.6452263678645249e+02 2.7950708326927952e+01 -1.6745486180455464e+03 2.3365582293342804e+01 3.3869341483478451e+01 -5.2801208898714447e+02 -1.1883732649869398e+00 -6.8152321641356409e+01 2.7730717276546111e+03 -4.0973872331601314e+02 6.4372171264643242e+01 -1.2135213986152000e+03 1.9658853464239733e+03 -2.2128150002896899e+02 2.7683063390297349e+02 1.0599068069019616e+01 -9.9662753014095210e+02 -6.2428716937285401e+02 -1.6870186830082071e+02 -5.4471148751194320e+01 -4.8242875002811097e+03 2.8808370426045633e+02 -6.3302333527878689e+00 3.2776772834000246e+02 -1.1815561488858389e-01 8.4550230826136229e+01 -2.7834202681827783e+03 -1.2029314009953896e+02 -4.4735245857069856e+01 1.6120132246803125e+03 9.3572697257010213e+02 -4.3981511487271447e+01 1.9109959934848439e+02 -1.5444122795782973e+00 -1.3193961121557976e+01 3.8136216523245143e+03 1.6805127352753968e+02 -6.0688336838970585e+01 -3.2538516535856161e+03 
      </Row>
      <Row Index="6">
        -1.2791975095606036e+05 5.3198342073863496e+04 5.2236537290273736e+03 4.9956618806292892e+04 1.2463935151838814e+02 6.6221653135381566e+03 5.7502122022111330e+05 6.5840314581498504e+04 -3.3213734430935397e+03 -2.0091622054667678e+03 -1.0277419449812203e+03 -1.0744260188465402e+02 -2.5021226092462284e+03 4.5138309738020105e+01 -2.7613570292246942e+02 -6.7672065615617221e+03 1.3722876092378050e+04 -5.4725338609814798e+02 -1.0094647373618810e+05 1.1919538728556572e+04 1.0906780876105267e+03 -4.0955036799581335e+03 1.6407609188684091e+02 3.4216567606357858e+03 9.9290304688071308e+04 6.6313777966764610e+04 -3.8355513853493076e+03 -5.1932936271095889e+04 -5.4811246617372999e+04 -8.2078459433561038e+03 -4.5071956059641983e+04 -2.9289659597378795e+02 -1.0870591255667890e+04 3.7237172522327572e+04 4.8439201772534150e+04 5.6613735834979061e+03 -1.4026208538333996e+05 -4.2144754561557838e+03 3.5356122063194982e+02 -3.7299137941809540e+03 8.4482490134908090e+00 1.5350724240081977e+03 3.7279349098943108e+04 -3.5935843604715956e+03 -3.8474404072161803e+02 7.5958887097673593e+04 -3.2246130786921683e+04 -3.1809999453813430e+03 -3.9219870037745368e+03 4.2458534124713090e+01 1.1524328403668069e+03 -5.7248809550813457e+03 1.0458547334372133e+04 1.6861497534248520e+03 1.0048428774690386e+05 
      </Row>
      <Row Index="7">
        -2.2428553145446262e+04 -1.8497458700810195e+04 -2.8045010134582535e+03 -9.2002237287617390e+01 -1.0896307686711987e+02 3.4062402575163264e+02 6.5840312720929505e+04 6.4897610175687354e+05 1.8627990043324110e+03 -5.6585524000416553e+03 -2.0573707573582674e+03 -9.3758652086550796e+01 1.8127624188137722e+03 -2.4869727161246942e+01 4.6963438014944415e+02 -1.6018423799372316e+04 -1.2586394120047113e+05 -2.6185097195432795e+03 -9.7982075928228442e+03 -1.4397656565874977e+03 -1.4957665031533693e+03 1.5046543825809116e+04 -2.8147728288650057e+01 -1.2531024799036095e+03 3.7066609466147520e+03 -1.9176382615030458e+05 -3.0813194961252416e+03 -4.2041214689480483e+04 2.3588522318122279e+04 4.8487070014258534e+03 -2.4749714087635188e+04 1.3570103554545972e+02 2.0962990255383811e+03 3.8886265502199931e+04 -2.2835157659337443e+05 1.3541952933464736e+03 -2.8306056609017895e+04 -6.4224402845629957e+03 6.9016717907560405e+01 7.0346213498992147e+03 -1.6984429339435138e+01 -3.5565929906173312e+02 2.2069374129905395e+03 3.8478042061672240e+03 -1.1161087722909048e+02 1.7197346885547729e+04 6.8185100044402570e+03 2.5238643331675098e+03 -1.2373206461612441e+04 -2.3482128610486257e+01 -2.8256376764768447e+02 9.6639011212239348e+02 1.7579490572166815e+04 5.1182211295703310e+03 4.3039505681773780e+03 
      </Row>
      <Row Index="8">
        -1.6536210453830427e+02 1.2990570931361835e+03 -4.5786335084447620e+02 3.9912968184424483e+02 -1.3423752028489503e+01 -1.3934239376804632e+01 -3.3213740710219445e+03 1.8627988788392395e+03 9.0767535460766624e+02 -3.6979070402641810e+02 2.1475336439651448e+02 -2.3305482491372132e+01 -5.1267177581252774e+01 -5.0134192400021735e+00 2.1047226813084070e+01 -2.0238181978270823e+03 -7.5896962387092644e+03 -2.4614125136931489e+02 -3.0157649934012443e+02 5.2503613611025469e+02 -2.3453790224224321e+01 8.2975725998134658e+02 -1.0489287488746484e+01 1.2422036323754583e+01 -5.9710836860492727e+03 -9.2002475939760916e+02 -4.6974722015937834e+02 8.5118653343810331e+02 -1.5815444793985705e+03 5.5787568007000061e+02 -4.7064371293459806e+02 2.8955193679363916e+01 1.0716337467930344e+02 -3.3932533966032724e+02 1.3469112441115076e+03 -4.4162958202896095e+02 4.6508975871935246e+02 2.5505791034143601e+02 -1.6197502770518682e+01 1.4336425921825520e+02 -1.8373837918118756e+00 -2.6308194932298292e+01 -3.0302123255861334e+03 -2.4793393726933323e+02 7.0572330728664582e+01 -2.6273705130218008e+02 -6.8394129598472807e+02 3.3120056787948238e+02 -1.6039203019413605e+02 -4.8135838498620673e+00 -3.6757410727279954e+01 4.0053843532758228e+03 1.5989603487147247e+03 5.2704169416281900e+02 -4.5320552118350415e+03 
      </Row>
      <Row Index="9">
        -2.7317957314595915e+03 -5.3485772187799012e+02 -1.0735271269358693e+01 -4.1540129917610057e+02 -4.7385522690662100e+01 3.0325000293065750e+02 -2.0091623970473588e+03 -5.6585524601368816e+03 -3.6979071455714819e+02 1.8855238641103715e+03 5.7639360031039161e+01 -1.3274758445848796e+01 -1.9559040982515658e+01 -7.2436504635994181e+00 -1.9177169320957287e+01 4.7886446062684299e+03 4.6088189762655820e+03 1.8977174522197726e+02 1.5852714958359138e+02 -1.3262904653405036e+02 -3.3258866228959036e+01 -2.9770263844352803e+02 -1.6003269104282669e+01 2.0852227466254408e+02 9.8898772245019409e+03 -3.4157181686853874e+03 4.3499484402953806e+02 3.9958854694012366e+03 2.8905755842517254e+02 8.2715026802382440e+01 3.4512282476028605e+02 6.5668394512377319e+01 -1.1535545695290414e+03 -4.0714883143489442e+02 -4.7812481148490933e+03 6.1700977607556638e+01 -2.4532878100158878e+03 2.3209152142130051e+02 -2.3939654008270669e+01 2.8010348078647127e+02 -2.7605620516574643e+00 2.5485831496833825e+02 -1.9020729089506208e+03 1.7633420263136190e+02 -2.1637058461565299e+01 3.2264077038815890e+02 4.7170169809749501e+02 -2.9013128842213852e+01 6.6920640211064921e+01 -9.3633870421536542e+00 2.3251017994934801e+02 2.7492089590896526e+03 -2.0792690001488168e+03 -4.4075879811155050e+02 -1.0781277335926320e+03 
      </Row>
      <Row Index="10">
        -5.8759059082074782e+02 1.2221370332468973e+02 -1.3743927460780640e+02 6.6736615811489878e+02 -5.1756749898513021e-01 5.0811384071976228e+01 -1.0277420053684145e+03 -2.0573707690924348e+03 2.1475336369523444e+02 5.7639361055211339e+01 1.6801991393762307e+02 -2.0398898134930805e+00 -5.4431022789794653e+01 -5.4004071130029185e-01 4.6324506548766742e+00 1.1035518212892725e+00 -7.9574107937385270e+02 5.3396791438555091e+00 -1.1929409883799963e+02 2.4412091692921996e+02 1.3934546810433179e+00 2.2678270770925758e+02 -4.3132240565488278e-01 -2.4677506798532704e+01 -2.0514796256106408e+02 -7.4713904828455998e+02 7.8661172299822709e+01 3.4611165848219736e+02 -1.8504093338728731e+02 1.1702533668896588e+02 -6.1295919965973371e+02 2.0008347457018933e+00 -1.6465376202453470e+01 9.5796294362928779e+02 -1.2625689459071873e+03 -2.4327663065451378e+02 -1.4042288744224416e+02 5.3467249604391213e+02 -8.7374284678771375e-01 2.3680019709035287e+02 -1.6192134178352191e-01 4.0897578652793491e+00 -3.3529021448070125e+02 -6.6122631527837541e+01 2.5388688991110431e+01 9.3293812813010007e+01 -4.3009061143711058e+01 7.4285267807829001e+01 4.4548106288251653e+01 -6.1277036311845134e-01 -6.0467962290192361e+00 5.2533392935605059e+02 -7.2110711962589320e+01 -2.0927304934966841e+01 -4.2117268464034646e+02 
      </Row>
      <Row Index="11">
        4.8090237895997234e+01 8.0689870626007405e+00 2.1365229765279494e+01 -8.5112568705465304e+00 4.8431259110539600e+00 -1.1023323689489768e+01 -1.0744258595698068e+02 -9.3758650452225993e+01 -2.3305482707437658e+01 -1.3274759022863691e+01 -2.0398898706523938e+00 6.7524760334557303e+00 -1.0249193026013693e+01 8.1023739974126463e-01 3.8917089417334410e+00 -6.4076770936250668e+01 5.0909255355101777e+02 8.8434934046883189e+00 3.0009126016419032e+01 1.2243574610272339e+00 1.1112020111905895e+01 -3.7959638843800448e+01 2.4783204053735686e+00 4.2827678084731815e+00 -5.4990220622320578e+01 -1.2733499647321150e+02 9.8335472356150273e+00 1.3727364230661749e+02 -2.5048882206842876e+01 -3.2733772739982776e+01 7.7096234919161333e-01 -8.0600933383035098e+00 -1.2381552103022324e+00 -9.0413177331136382e+01 -3.0723999686073131e+02 3.1559496735491042e+00 1.0596477894969989e+02 -4.3512027389303881e+01 1.8743406362042099e+00 -4.4554423550659664e+01 4.9165856874719605e-01 2.1431195851815730e+00 6.6944877068703136e+01 6.5556821265229416e+01 -2.2806587210233791e+00 -4.6289855019597809e+01 -1.0220593705879374e+01 -5.5860929154568293e+00 -2.1244429738767508e+01 1.0655561648191831e+00 1.6637907767193716e+00 -2.8021775161314860e+01 -1.6479114171604706e+02 -1.6688378057086812e+01 1.6004709683414632e+02 
      </Row>
      <Row Index="12">
        3.1819936726619198e+02 8.2532516668933386e+02 -5.8354029916572834e+01 -1.6797887220398688e+03 -1.1398620289737778e+01 1.2478645609496786e+01 -2.5021227645473609e+03 1.8127623932952993e+03 -5.1267178347415310e+01 -1.9559035846774350e+01 -5.4431022412481980e+01 -1.0249192968459386e+01 4.5189179679042149e+02 -3.1633943439887853e+00 -2.5817933306503164e+01 6.1463989635529902e+02 -3.7623954464482376e+03 9.0155066155292246e+01 1.2328950990049634e+02 1.4593526613260744e+02 -1.2269244980114838e+02 6.5254158498940888e+02 -4.5814450760851226e+00 -3.5095676656390424e+01 -8.2405089332235639e+02 -3.4194603010056890e+03 6.0950616135434223e+02 -2.4260231903129429e+03 -4.5986351063855824e+02 1.2732400424225153e+02 1.5367480370976389e+03 1.8775781248421779e+01 9.1371091857462659e+01 8.1731857749837036e+02 2.8985153456560474e+03 -5.6585230061399761e+02 -7.0531910679559917e+02 -5.6774799286257462e+02 2.2124689277501496e+01 5.2256660633692934e+02 -1.3943991444879091e+00 -5.3364633139693872e+01 -8.0315168773167534e+02 3.1348265756623960e+01 -3.4382866326702370e+01 2.4311319772008295e+02 -6.5630310668634183e+02 -8.1025586362314172e+01 7.9495293007954933e+02 -2.9286370710937648e+00 -1.4607271002968417e+01 7.5104402036809563e+02 9.6247015685454744e+02 -2.6830884962271000e+02 -1.5620097253725585e+03 
      </Row>
      <Row Index="13">
        4.4108476047312024e+01 -9.6192553797494043e+00 8.8908009234020220e+00 2.1105990304178931e+01 2.9470590129984036e+00 -2.1577534728744125e+00 4.5138316724533162e+01 -2.4869725910299167e+01 -5.0134192327136615e+00 -7.2436505993352966e+00 -5.4004071777280416e-01 8.1023739488016200e-01 -3.1633943238028803e+00 6.4719666503157214e-01 2.7345650484571138e-01 -2.1357983586173482e+01 6.6503502167965053e+01 3.9521539706971121e-01 2.9687573602623161e+00 -1.0035943063576329e+00 2.7268778298715581e+00 -1.4990518070419315e+01 1.3066734114685239e+00 -3.0377765195541997e+00 -7.9101482017733375e+01 2.4852884730617006e+01 -2.4070671562369892e+00 6.9172793284059131e-01 1.2744304023194612e+01 -1.5047089295511720e+01 -1.2136106771920016e+01 -4.6414681853840607e+00 7.9430672989482316e+00 -5.3742379506730508e+01 -1.1757035044995353e+01 6.7989655172716512e+00 3.7063678665835020e+01 -1.4424322079022986e+00 1.0903243122739517e+00 -9.6893611689532992e+00 2.6538273442397897e-01 -9.7080596145572118e-01 3.1490662194758443e+01 -9.7168465978901830e-03 -7.9803787269146609e-01 -1.3945053827005912e+01 8.1999664293216679e-01 -3.9335481254463853e+00 -4.9245321331782677e-01 5.5696573879157130e-01 -1.4136814948697165e+00 -4.7230050178986481e+01 -1.0493478886033403e+01 -1.0025475841303250e-01 4.1925682610527488e+01 
      </Row>
      <Row Index="14">
        1.0507731936817218e+03 1.2642216685346739e+02 1.2548005202447307e+01 6.6362001563762490e+01 -1.2676282062448934e+00 -1.0426968042495316e+01 -2.7613550452608183e+02 4.6963441934727598e+02 2.1047228314246222e+01 -1.9177172565377987e+01 4.6324506370963263e+00 3.8917087488618263e+00 -2.5817932182808768e+01 2.7345648666323541e-01 4.1344594867908427e+01 -3.0785301903944094e+02 2.0599546252007713e+02 -1.6308936033766699e+01 4.4138007358182222e+02 1.3774187510434329e+01 2.2916321764831665e+01 -6.9999564996988099e+01 5.6062635156143181e-01 -2.2552147015820083e+01 -1.3943115905112204e+03 2.7180752239562571e+02 -6.5017865178692588e+01 1.2526064845392773e+02 -2.0244962708000543e+02 -3.6286206757073067e+01 8.5712304584186683e+01 4.2535646312907383e-01 1.5108092643922242e+02 6.3358346321619467e+02 3.3561322554071029e+02 2.2235115586314343e+01 1.2676012496576989e+03 1.4638431956647075e+01 -1.4030278656194692e+00 -1.3998371247091853e+01 4.7870799464448971e-02 -2.3725746285883428e+01 9.3451577696239838e+02 7.0443131023164568e+01 1.6964185213411072e+00 -3.9414822179106164e+02 -5.8669946113180373e+01 1.1193095391298854e+01 2.1179464223923766e+01 6.5577697318246919e-02 -4.9755801933330368e+01 -1.5226541440035276e+03 -2.7403351481759401e+01 4.0275469412923940e+01 1.1468700262320638e+03 
      </Row>
      <Row Index="15">
        -1.3359516128804040e+04 1.8695527563014111e+03 1.6834589757695389e+02 -2.8337045271196157e+03 -1.3241428758874156e+02 8.2233927555443699e+02 -6.7672065394673118e+03 -1.6018423776136246e+04 -2.0238182013739120e+03 4.7886446085127754e+03 1.1035513762590199e+00 -6.4076770411990537e+01 6.1463989026012723e+02 -2.1357983544253329e+01 -3.0785301851719214e+02 1.7947686480115826e+04 8.9442485935544828e+03 1.0121588665554757e+03 -5.2747517116623931e+02 2.4371136937286209e+02 -3.8272057768439799e+02 -1.6394142725332648e+02 -4.8569584316308223e+01 2.9993239434558200e+02 4.2741108378338424e+04 -9.3816701858720044e+03 3.0470026850337531e+03 4.1577120695615422e+03 -1.8256768144536493e+03 1.8398178505655699e+02 3.1041981533901048e+03 1.9165179153279684e+02 -2.6655322097775802e+03 8.7034894139142161e+03 -1.3447569426364196e+04 -1.2517749221637109e+02 -1.1623923987689568e+04 -5.7934746392061697e+02 -3.3959981504678183e+01 3.7431448716997897e+02 -9.2033100420228457e+00 5.1915604894857847e+02 4.5822933711897349e+02 5.6531831556476982e+02 -2.1655820184941803e+02 3.7787121665069189e+03 -9.7638966642589298e+02 -4.6890476458045009e+02 1.5943204080298215e+03 -2.6700612769836084e+01 6.0608700586897896e+02 2.4246515712835217e+03 -3.8714680252781022e+03 -2.4071639387218338e+03 3.2571916638852667e+03 
      </Row>
      <Row Index="16">
        1.4225280522298999e+03 -8.6697065630546422e+03 2.2160056143700062e+03 9.9520371049407095e+03 2.9019914368864193e+02 8.6452244524972775e+02 1.3722885585817115e+04 -1.2586393958654255e+05 -7.5896962986154567e+03 4.6088187749967910e+03 -7.9574109714744554e+02 5.0909255341496464e+02 -3.7623954912973218e+03 6.6503503337968141e+01 2.0599551602464635e+02 8.9442484741432127e+03 2.9744680945008621e+05 3.3367939253405075e+03 1.1964010427005589e+04 1.6644008172648796e+03 2.6919624835634627e+03 -3.5790321655492487e+04 2.8356533238859566e+01 -1.1420623242645524e+03 6.4644016441217886e+04 -6.0487482510652393e+04 -4.5785368733429641e+02 1.2565655323400595e+04 6.0144321722537406e+03 -5.9148415968077989e+03 1.0200615339400976e+04 -4.0709372751073954e+02 -7.9000953660476853e+01 -2.4255373044701035e+04 -6.5496685170339508e+04 4.8790047949863056e+03 1.0062743452076269e+04 -4.1682875958403183e+03 -6.3595561777849423e+02 -1.5949749588053483e+03 3.5465149651756285e+01 4.8846677838966480e+02 3.7656267901453190e+04 6.1532158873184380e+03 -5.3788797870390044e+02 -3.2142807196946051e+03 2.1083715858757851e+03 -2.1315803458157661e+03 8.7890112053258854e+03 6.9275031547778781e+01 -1.0441377474339004e+02 -2.4930791505859121e+04 -8.5384624457404541e+04 -5.9833534120117256e+03 8.9513164264738181e+04 
      </Row>
      <Row Index="17">
        -3.4242659545285278e+02 1.9593726577112830e+02 6.9422726029912695e+01 -7.4962978872670945e+01 1.5554957826744271e+00 2.7950705561558504e+01 -5.4725315629593661e+02 -2.6185096760550514e+03 -2.4614125147416937e+02 1.8977174066471707e+02 5.3396788398586068e+00 8.8434933128781950e+00 9.0155066022889514e+01 3.9521540550231293e-01 -1.6308935250255217e+01 1.0121588642205206e+03 3.3367938973322744e+03 1.6706795413486222e+02 3.0107463807344902e+02 1.4053685713650259e+02 4.0068817887109498e+00 -3.1821773517582290e+01 1.0768746834812830e+00 -4.4468869293879834e+01 2.7605000117128325e+03 -4.8511020172870485e+02 4.7294409928903082e+02 4.5784637125445990e+01 -2.6946116480799844e+02 -1.1703346311930000e+02 -9.9951120531086115e+00 -2.7321669261375723e+00 1.5422356084719013e+00 6.9060441829722868e+02 -1.5938841131992390e+03 -2.1878936886242573e+02 -6.5264011978999960e+01 -1.0887391003991075e+01 -1.9650791856980012e+00 -7.2760591634237215e+01 2.3215583349172791e-01 6.0452802749564398e+00 1.1288946735881764e+03 1.0597381835713787e+02 -2.1898335046735340e+01 5.9527181176697688e+01 -1.4023658227043413e+02 -8.9398862682781299e+01 1.1809418598840739e+02 5.4123391149772715e-01 2.3665347787442736e+00 -1.1963220790666019e+03 -9.5764354423758562e+02 -3.7755082027014203e+02 1.9086331143838802e+03 
      </Row>
      <Row Index="18">
        5.9147530329627087e+04 -2.4830035750045645e+03 7.8284616517382645e+01 -5.0624639798518074e+03 -2.2250344360811368e+01 -1.6745487309866116e+03 -1.0094646988308731e+05 -9.7982072617374361e+03 -3.0157659655149439e+02 1.5852703409326205e+02 -1.1929411219212034e+02 3.0009125028352628e+01 1.2328950641128358e+02 2.9687584984621935e+00 4.4138011753880573e+02 -5.2747519529786223e+02 1.1964011144416174e+04 3.0107466862727779e+02 3.8264271126934327e+04 -5.0358789287163131e+02 3.1170671851052134e+00 -1.1268204053129411e+03 -1.0019074038896811e+01 -1.2002171918853128e+03 -2.3450918749880926e+04 -3.3072620118057821e+03 6.4994647192813477e+02 5.5527460726221011e+02 8.2434580212637445e+02 -9.1664897362286581e+01 5.2629269222421599e+03 3.1808156497782448e+01 4.9758273593412405e+03 -6.2314430307760187e+04 -8.3141567023545831e+03 -1.4335392016335175e+02 5.1189740592356546e+04 -7.6645508409616514e+02 -1.2247418395716986e+02 -3.8996053895030927e+03 -9.4820542699622479e-01 -7.6970706767273373e+02 -7.6753449135180563e+02 1.2138841145122083e+03 -4.0622558882745587e+01 -2.5669672932054564e+04 1.6286512279092713e+03 -5.0198294785306047e+01 -1.2347989084859182e+02 -1.4834098318858651e+00 -1.0449968205904861e+03 -2.6827676978211268e+04 -3.6088295650357268e+03 -6.5963742638257054e+02 3.4176295262141480e+03 
      </Row>
      <Row Index="19">
        -2.2152491881933529e+03 1.7665620086395873e+04 -2.1864887298820261e+02 5.3636718461682744e+02 1.2884529135910043e+01 2.3365634076420974e+01 1.1919538857976193e+04 -1.4397655319003388e+03 5.2503619421380949e+02 -1.3262903695496789e+02 2.4412092319664771e+02 1.2243549454146887e+00 1.4593529195330484e+02 -1.0035949795237684e+00 1.3774170074992071e+01 2.4371137113336590e+02 1.6643997807335109e+03 1.4053683391838422e+02 -5.0358829983347096e+02 4.7036092993661314e+03 7.2648889805938651e+01 -1.2022817019287288e+03 7.7274229105903247e-01 -1.5531076576752821e+02 1.8015297202163792e+03 -2.3265194785918575e+03 5.3096282733555495e+02 1.4178410153910447e+03 -2.0007087142320768e+04 7.2800431162754364e+01 3.5558644255581785e+03 -3.8305202770726510e+00 6.7197094010322508e+02 -6.6808965626326617e+03 -1.2164266236983894e+02 -9.1749997900066592e+02 1.1787816371100514e+03 -4.6307826883032913e+03 -3.2706953526643439e+01 -1.4253738611637991e+03 1.2366542672845426e-01 -8.4444103366934726e+01 2.0730446367383702e+03 5.9149828978713106e+02 5.4645795081163897e+01 4.4326706505997851e+02 -1.0970360480894140e+04 1.5326401173118271e+02 2.4749123173254293e+03 -7.7516882955455912e-01 -2.0598165950271510e+02 5.1084273011986988e+02 -6.7581152616334339e+02 -3.2341129906425726e+02 8.7871994206988948e+03 
      </Row>
      <Row Index="20">
        5.4212887353237602e+02 4.9682707905402640e+02 8.8544134973356492e+00 6.4470636369568570e+02 1.2874509667867301e+01 3.3869339929655325e+01 1.0906782872117019e+03 -1.4957664675917476e+03 -2.3453788699890698e+01 -3.3258870627796568e+01 1.3934545719102971e+00 1.1112019928360723e+01 -1.2269244872459149e+02 2.7268778230018142e+00 2.2916322179732560e+01 -3.8272058040150660e+02 2.6919624220671249e+03 4.0068811086659935e+00 3.1170339428936131e+00 7.2648912266966647e+01 1.3707201767442996e+02 -2.1187713467098206e+02 6.1090074647211168e+00 -5.0080576197156915e+01 -6.9136634975103880e+02 1.8821147657989641e+03 -1.2331387806738802e+02 1.7867104607973963e+03 -7.2709634978240274e+02 -1.3182609086003259e+02 -5.1144247845988377e+02 -2.0504561293304960e+01 7.2129938227774275e+01 -3.6466058322907065e+02 -1.6150830777387005e+03 1.0257776024971130e+02 1.2246494962343454e+03 -2.3885328301962772e+01 4.3186074296737367e+00 2.9924221324316488e+02 1.3893328542725059e+00 1.5432607501415424e+01 1.0406930093269621e+03 -3.8191232004488484e+01 -3.5024355905824653e+00 -4.3990458512644591e+02 -2.5954131755044466e+02 8.3789760647630004e+01 -1.2281894629119989e+02 2.8627945326759345e+00 -3.3474217501091310e+01 -1.0560196760041788e+03 -8.2557290826705116e+02 1.7503175829083400e+01 1.6419759548784696e+03 
      </Row>
      <Row Index="21">
        -2.4323357610123057e+03 2.5369721362873679e+02 -8.6305313347966251e+02 3.9468952610895526e+03 -7.2189833130101761e+01 -5.2801209316692257e+02 -4.0955046082327226e+03 1.5046543632734101e+04 8.2975726888465351e+02 -2.9770263823983259e+02 2.2678270753872857e+02 -3.7959638962460303e+01 6.5254159205638643e+02 -1.4990518043588963e+01 -6.9999564385446320e+01 -1.6394145211452269e+02 -3.5790321858894546e+04 -3.1821776878238779e+01 -1.1268201909749769e+03 -1.2022817272281068e+03 -2.1187713628758212e+02 1.1166926711393513e+04 -2.5614361782297237e+01 1.4992983964452287e+02 1.5668519329346445e+03 1.9461843359244755e+04 1.7316505178986749e+03 4.7364077443730494e+03 1.6800897604850815e+02 1.6082802715211437e+03 -1.4743021890700937e+04 1.1472043701922775e+02 -1.9928175947272052e+01 7.7722352335364067e+03 -7.8668461622939358e+03 -2.4117518593794321e+03 -7.3552867516835340e+02 2.5471515127246412e+03 5.7153569535079527e+01 -2.4115281891180002e+03 -1.0969355128106333e+01 1.2127984938828030e+02 -1.1403519558316912e+03 7.1833141531831643e+01 2.2695555607413425e+01 9.3339989048886991e+01 1.0797610225789660e+03 7.9786532038829307e+02 -6.6740251322274653e+03 -1.7225862306557701e+01 1.5417567045887986e+02 1.3898743884502446e+03 9.7913803825890282e+03 -2.5828395457151214e+02 -6.6074642945970363e+03 
      </Row>
      <Row Index="22">
        6.6104536728970743e+01 -2.1105721478244732e+01 2.3868777434368543e+01 1.6796951061910914e+01 6.6405535808491614e+00 -1.1883733201746338e+00 1.6407610184328507e+02 -2.8147726526905899e+01 -1.0489287550872048e+01 -1.6003269261315154e+01 -4.3132241633614399e-01 2.4783204001567913e+00 -4.5814450678356877e+00 1.3066734117219312e+00 5.6062637954951100e-01 -4.8569584264825153e+01 2.8356533032536390e+01 1.0768746949329895e+00 -1.0019075730303484e+01 7.7274302303385412e-01 6.1090074788161104e+00 -2.5614361975850546e+01 3.7604764898477114e+00 -3.0324807648134993e+00 -1.7451045505820139e+02 2.1679979474556603e+01 -5.3196810841746456e-01 1.7574794038672280e+01 1.9601317847999834e+01 -3.8216283942993911e+01 3.3292404264133495e+00 -1.1190210594482529e+01 6.9119596458447221e+00 -1.2963287130814828e+02 -1.5587942193198302e+01 1.0890194799816982e+01 5.5043387835893377e+01 8.5107805697758232e-01 3.6307956724141008e+00 1.5261775785614962e+01 6.4059185454409484e-01 -8.6949687998538550e-01 3.9367340377001028e+01 6.7296574203859905e-01 -1.7904789780526840e+00 -2.0970081713760546e+01 5.0416153213097541e+00 -8.6923290345958328e+00 9.3536253101677875e+00 1.2872232690436709e+00 -1.7812742956699608e+00 -7.4785918743297202e+01 -8.0793004615914032e-01 -1.1166779308972985e+00 3.6958839847683933e+01 
      </Row>
      <Row Index="23">
        -2.3766223091485517e+03 -4.8421896743603793e+02 9.0550526644119785e+01 -5.6797288582144006e+02 -1.7485957059928012e+01 -6.8152321389272402e+01 3.4216563986438305e+03 -1.2531025446072454e+03 1.2422036492175806e+01 2.0852228040435330e+02 -2.4677506635848204e+01 4.2827681219191049e+00 -3.5095678284666519e+01 -3.0377765058392470e+00 -2.2552147499306784e+01 2.9993239271784114e+02 -1.1420622721481486e+03 -4.4468868808671459e+01 -1.2002171176075353e+03 -1.5531079278835932e+02 -5.0080575807924724e+01 1.4992984745116831e+02 -3.0324807487961607e+00 4.1061886345646053e+02 1.8464895671016320e+03 -1.6539725016365992e+02 -1.2568264232710862e+02 -9.8511613527858572e+01 3.4798023119180908e+02 9.0560125995069754e+01 1.9642103482151327e+02 2.0322803494566429e+01 -6.7051801807696188e+02 1.7060907748869986e+03 -7.7717284774924144e+02 8.5174166055129803e+01 -3.1353669857294803e+03 -7.1957107974535390e+01 1.8686711597938164e+00 -6.4596614811577501e+02 -1.2239941509574717e+00 8.5889551092691434e+01 -1.6128611960951239e+03 -2.0414469441924030e+02 3.2712346150067177e+01 1.0303732864264564e+03 4.5909142071688495e+02 -2.7716483779727881e+01 -4.9948507037321565e+02 -3.0396692695676961e+00 1.5401090569713961e+02 2.6442037990509480e+03 1.0066793064080844e+02 9.3282639781137277e+01 -1.5212722868888784e+03 
      </Row>
      <Row Index="24">
        -1.3813483189565461e+05 -1.0914469661656985e+03 -2.1770177576604660e+03 1.7941983796410481e+04 -3.2286168545147416e+02 2.7730718436171519e+03 9.9290297297008496e+04 3.7066601452496834e+03 -5.9710835305275887e+03 9.8898773939460516e+03 -2.0514794564839030e+02 -5.4990216473738656e+01 -8.2405090676090185e+02 -7.9101483349975751e+01 -1.3943116481346842e+03 4.2741108327516151e+04 6.4644015404113336e+04 2.7604999702601526e+03 -2.3450918077836279e+04 1.8015291564381187e+03 -6.9136638231899269e+02 1.5668524285960536e+03 -1.7451045742382848e+02 1.8464896618928178e+03 2.7154331143825228e+05 3.4514905560535844e+04 5.7414658874757697e+03 -5.0018923477210774e+04 7.0200719807202149e+03 3.7528939571824944e+03 -3.5822721579639605e+04 5.0606139548480883e+02 -1.0916504458183477e+04 1.8943970801124684e+04 1.9010443965623315e+04 1.8749800898454023e+03 -1.2137472439946441e+05 -5.8517083608210523e+03 -8.6255657666800676e+02 1.9614520570939551e+03 -2.8998605674689511e+01 1.6748796982989011e+03 -1.1897510747026710e+04 -2.6749306772527143e+02 -5.6261808763123156e+02 5.5254052083646355e+04 -2.0427935010422880e+03 9.6293240789435359e+01 -8.1181675758741021e+03 -7.4996544148687462e+01 3.0329801449065621e+03 6.1734336057076704e+04 -1.0516317312756732e+04 -6.1373114140944135e+03 8.5638493712180880e+03 
      </Row>
      <Row Index="25">
        -1.1714486709315097e+04 -1.5507277389905648e+03 2.6404791436278610e+03 1.1379128714504466e+04 3.2188709788882989e+01 -4.0973853851374588e+02 6.6313774959178481e+04 -1.9176382634331472e+05 -9.2002462225748150e+02 -3.4157180809893180e+03 -7.4713903244407265e+02 -1.2733500212111903e+02 -3.4194602240728127e+03 2.4852882879684330e+01 2.7180746675180853e+02 -9.3816701319414424e+03 -6.0487484673146158e+04 -4.8511026279760699e+02 -3.3072626884765923e+03 -2.3265198624303448e+03 1.8821146927805003e+03 1.9461843268197881e+04 2.1679977934094495e+01 -1.6539717351784930e+02 3.4514906456046810e+04 8.2331807518169843e+05 -2.5623198305759943e+03 -1.5849317782093422e+04 -2.6925110180208867e+02 -3.8021849660750022e+03 -3.0244312126223143e+04 -6.9268370131888105e+01 1.8477827011745919e+03 -3.4264096131399929e+03 -1.2212585888654902e+05 3.2301932932356976e+03 -5.2768550650089073e+03 1.4922653075610906e+03 1.8883381712264509e+01 5.7864416579860226e+03 8.7460069813971018e+00 -4.8836656711391504e+02 -4.7639873184636235e+03 4.1742339877695194e+03 -2.9027860319496995e+01 7.5261289780094503e+03 3.1900542942146794e+03 -2.8667955910899627e+02 -1.8297086554892307e+04 1.5265960918652127e+01 -3.9382448856328676e+02 -3.0614883608606182e+04 9.3990415292879014e+04 1.3100865385964148e+03 -4.1376301508940531e+04 
      </Row>
      <Row Index="26">
        -8.4357970480222139e+02 1.1657761040147525e+03 6.7717707630943096e+01 -1.0528080193253636e+03 -1.0785434864761669e+01 6.4372167782237739e+01 -3.8355510560956063e+03 -3.0813194334011059e+03 -4.6974722036551879e+02 4.3499483689181216e+02 7.8661171804717924e+01 9.8335470302146177e+00 6.0950616200165405e+02 -2.4070671466970452e+00 -6.5017864016086605e+01 3.0470026816033060e+03 -4.5785374152637087e+02 4.7294409906249575e+02 6.4994642515043961e+02 5.3096285973013801e+02 -1.2331387749866259e+02 1.7316505186523643e+03 -5.3196811285761214e-01 -1.2568264331443061e+02 5.7414659382137725e+03 -2.5623197324062930e+03 1.9053042723031376e+03 -7.3724025648961833e+02 -1.2924653258007042e+03 -6.1986226552740902e+01 -4.2573400875371158e+02 1.5762655921233488e+01 4.3691263782660506e+01 3.2548731091291520e+03 -1.7170159554376114e+03 -1.3294507524555675e+03 -5.7573322952711806e+02 6.9509026435582882e+01 2.4055698076166571e+01 -1.8022039541590760e+02 -1.4651385335873262e+00 -9.6805184412382310e+00 1.9503474477257841e+03 1.6702343864555360e+02 -5.9602874096550813e+01 2.3793595479147717e+02 -6.8227720610649567e+02 -2.1062459307023542e+02 9.2797055084722587e+01 -2.2751614676589043e+00 5.8945434017383995e+00 -2.3924409202945162e+03 -6.9865416444236530e+00 -1.1719530652434828e+03 2.3399866835322232e+03 
      </Row>
      <Row Index="27">
        1.3638928758669761e+04 2.2989537480697938e+04 1.2741129678740836e+03 7.4478535780296606e+03 -3.9012974270310224e+01 -1.2135215487631212e+03 -5.1932930683659710e+04 -4.2041214085638523e+04 8.5118649344330697e+02 3.9958852732569794e+03 3.4611164389611076e+02 1.3727363764805523e+02 -2.4260231601579144e+03 6.9172893842187477e-01 1.2526069971063771e+02 4.1577119323969237e+03 1.2565654300010763e+04 4.5784645572806767e+01 5.5527443640772253e+02 1.4178417958357022e+03 1.7867104902006361e+03 4.7364076113267793e+03 1.7574795732813072e+01 -9.8511707819066942e+01 -5.0018924547934555e+04 -1.5849315420380794e+04 -7.3724022186295042e+02 1.7027267615604086e+05 -4.0928785012886205e+04 -1.8902245369873012e+03 -8.4408416575256178e+03 6.4117609699781951e+01 -1.4887155912426065e+03 6.4724633538196140e+04 -3.9559605761032537e+04 -4.3016037282548723e+01 6.1836377389215668e+04 5.6927808283893028e+03 -2.3149999517476155e+02 -1.6026042197378199e+04 1.2494477884895048e+00 2.5142467900061188e+03 3.6265403630961897e+04 5.0193010250130974e+03 2.1771348845208490e+02 -3.4029585061415833e+04 -6.1138086096146035e+03 1.9093833104237872e+03 -1.2609982769899307e+04 -6.8103377279012420e+00 3.0103918877430397e+02 -3.2971577900832242e+04 -1.4404206868553800e+04 7.8579860181329877e+01 2.8494328663544165e+04 
      </Row>
      <Row Index="28">
        -3.3395540861333720e+03 -1.0508197184360237e+05 4.9452917204458208e+02 -5.6199508675395336e+03 -4.8403870925412775e+00 1.9658850793499732e+03 -5.4811250211793602e+04 2.3588521133873612e+04 -1.5815448257937678e+03 2.8905757502827328e+02 -1.8504096620513883e+02 -2.5048864921827771e+01 -4.5986367791265366e+02 1.2744307877204847e+01 -2.0244953694204742e+02 -1.8256767817419022e+03 6.0144389497712255e+03 -2.6946102353711467e+02 8.2434855537116528e+02 -2.0007087476134475e+04 -7.2709622228978026e+02 1.6800885520515249e+02 1.9601321986003313e+01 3.4798009116202593e+02 7.0200685023518745e+03 -2.6925436835177243e+02 -1.2924651334153459e+03 -4.0928780078028329e+04 1.1737908880964638e+05 -6.0998273513276763e+02 -1.3446204776696057e+04 -7.5795929689410514e+01 -4.7680861125010360e+03 1.9048743486402178e+04 1.3566590407414886e+04 2.2555900685911702e+03 -3.0209166242114388e+04 2.5744804509597649e+04 1.5603106974257125e+02 1.3291428108773285e+04 6.0736269441830828e+00 1.8765190120404785e+02 -2.8266008768467698e+04 -3.1469356632270828e+03 -1.7014963848385420e+02 7.7158387560701904e+03 6.1949671297315697e+04 -1.5640581938638948e+03 -8.3358458568674323e+03 1.5773627877066247e+01 1.1103884687916659e+03 2.0058163198804374e+04 2.3885826979234134e+03 6.4766187426863053e+02 -6.5590624054456770e+04 
      </Row>
      <Row Index="29">
        -3.2091031229127111e+03 1.2658761045707543e+03 -8.5492851982277261e+02 6.0786333295456643e+01 -5.6468126146797431e+01 -2.2128149346002101e+02 -8.2078466776369223e+03 4.8487068677991629e+03 5.5787568366173946e+02 8.2715039777634956e+01 1.1702533766424403e+02 -3.2733772416007469e+01 1.2732400430702000e+02 -1.5047089325596062e+01 -3.6286209220809269e+01 1.8398178588920564e+02 -5.9148415632994147e+03 -1.1703346384926408e+02 -9.1664787770947441e+01 7.2800369092234178e+01 -1.3182609260614973e+02 1.6082802767107860e+03 -3.8216283938647393e+01 9.0560127663251478e+01 3.7528938065445036e+03 -3.8021851087170653e+03 -6.1986227239348409e+01 -1.8902244577748352e+03 -6.0998236767487469e+02 1.2918811298682238e+03 -1.1868562573537231e+03 1.0324118817850058e+02 -5.6167236418173765e+00 4.3489308545872836e+03 -8.1515279194267282e+02 -4.5221571562416784e+02 -2.8404634937582919e+03 -4.0887770620447816e+02 -2.5168656221429217e+01 3.6022329896526412e+02 -6.9129256578563663e+00 -4.0565150568715325e-01 -3.0067925049125042e+03 8.9110804872985523e+02 7.4610110573995243e+01 1.1215154117503039e+03 -7.9497417810144259e+02 5.0726297315885955e+02 -2.9436684269858790e+02 -1.5033590077115377e+01 8.3981031763023537e+01 5.3112024074942910e+03 5.4968957935748494e+02 2.0595203460949801e+02 -3.4753234822530967e+03 
      </Row>
      <Row Index="30">
        1.5722916252408788e+04 1.1502114253773394e+04 1.1522440708097156e+03 -2.8705496488166566e+04 -1.5081552810541780e+01 2.7683068090646702e+02 -4.5071955635102051e+04 -2.4749714011140633e+04 -4.7064374143473219e+02 3.4512286039176979e+02 -6.1295919636274812e+02 7.7096233047905116e-01 1.5367480329223836e+03 -1.2136106954149000e+01 8.5712296333700579e+01 3.1041982546520303e+03 1.0200616056939587e+04 -9.9951046941005188e+00 5.2629265580596402e+03 3.5558642586772330e+03 -5.1144248643982155e+02 -1.4743022018001231e+04 3.3292402623146700e+00 1.9642105419829022e+02 -3.5822720737935379e+04 -3.0244312911835266e+04 -4.2573401313033537e+02 -8.4408423490681162e+03 -1.3446203573279228e+04 -1.1868562597285857e+03 5.1214772189451971e+04 2.2962643659702621e+01 9.1787497640138963e+02 6.6314663291278448e+03 9.2221431675337935e+03 1.0739001002283712e+03 1.0947405762647126e+04 -9.9237955092557077e+03 1.6060546645913493e+02 6.7811899913787274e+03 5.6689682603590583e+00 -6.5641713952029670e+02 -6.4132692675977014e+03 -2.1921328304619237e+02 5.1298247333085527e+00 -5.5082011071969328e+03 -8.2867314821221116e+03 -1.2202596075483627e+03 1.8005884964579360e+04 -5.4990655879007591e+00 -4.6655439238554084e+02 -1.0128297388995088e+02 -3.4828183763923817e+03 1.0915022047524531e+02 -7.6982791674447990e+03 
      </Row>
      <Row Index="31">
        -1.5745360231646282e+02 3.9756872874814349e+01 -5.6912494416855111e+01 -1.1081487083814051e+02 -2.6465943596596681e+01 1.0599068126154634e+01 -2.9289661985546934e+02 1.3570103108739568e+02 2.8955193672431236e+01 6.5668394859417504e+01 2.0008347558919866e+00 -8.0600933233340442e+00 1.8775781204779207e+01 -4.6414681846185886e+00 4.2535643449548388e-01 1.9165179146765013e+02 -4.0709372483705374e+02 -2.7321669046709474e+00 3.1808161166722130e+01 -3.8305221533198619e+00 -2.0504561296407452e+01 1.1472043716712471e+02 -1.1190210592256278e+01 2.0322803464922799e+01 5.0606138859476778e+02 -6.9268374624007265e+01 1.5762655971648826e+01 6.4117614171550940e+01 -7.5795919489480241e+01 1.0324118802515093e+02 2.2962643560584723e+01 4.0963227548628218e+01 -4.5674432737584453e+01 2.9329539935183425e+02 8.1958664421172841e+01 -3.9217166814821041e+01 -1.2095608751636642e+02 2.6843657709839377e+01 -8.0860976175119994e+00 9.0317201111663046e+00 -2.3417629417432462e+00 6.6061159408242300e+00 -1.0595318672536268e+02 -3.6584730772519478e+00 5.7874345826642690e+00 3.6493698389739478e+01 1.7133155323309126e+01 2.3435375656950608e+01 -3.8292042223499706e+01 -4.6319266439069118e+00 7.4539804085258750e+00 1.3614246489749610e+02 7.2998043728476972e+01 -3.0601812722523286e-01 -1.5205679716264271e+02 
      </Row>
      <Row Index="32">
        1.0326434906516050e+04 4.7314032917469958e+03 -4.4382725802273853e+01 7.7803996147102407e+02 4.1640642590730295e+01 -9.9662751942862815e+02 -1.0870589297102522e+04 2.0962994249085896e+03 1.0716339655031607e+02 -1.1535545989468083e+03 -1.6465375393670911e+01 -1.2381575086265002e+00 9.1371107060280337e+01 7.9430670180117886e+00 1.5108092370450686e+02 -2.6655322110583948e+03 -7.9001610294915736e+01 1.5422247660790163e+00 4.9758268600809388e+03 6.7197110320451611e+02 7.2129930377106803e+01 -1.9928185749846307e+01 6.9119592752686003e+00 -6.7051800917170476e+02 -1.0916503798018428e+04 1.8477832808820531e+03 4.3691247592818399e+01 -1.4887162415036000e+03 -4.7680868920818139e+03 -5.6166913177158904e+00 9.1787509284544137e+02 -4.5674432203355323e+01 2.9365643336972348e+03 3.0635086919219621e+03 1.8311053262586529e+03 -1.2979420480799246e+02 1.2904525819532420e+04 -5.0586092152747716e+02 -2.2527410168500230e+00 -2.3302865825506956e+01 2.0393964094634498e+00 -4.3756932411050047e+02 9.7956437122379430e+03 5.7892150090075461e+02 -1.0595721483295595e+01 -3.9934483698078388e+03 -2.8284266890753579e+03 8.8067697575384898e+01 1.1416982788633063e+03 6.9891591756033904e+00 -5.2936291709413115e+02 -1.5037816060526053e+04 2.3374443515954090e+02 8.2665206667968576e+00 1.1843489553039870e+04 
      </Row>
      <Row Index="33">
        -1.3404485269397218e+05 -1.6548112830751692e+04 -1.9194996089585475e+03 3.8699993688799150e+03 -1.5739376393357088e+02 -6.2428688976913691e+02 3.7237193946724568e+04 3.8886271176859736e+04 -3.3932488220426603e+02 -4.0714900787617080e+02 9.5796296981061460e+02 -9.0413198972157261e+01 8.1731869129597908e+02 -5.3742384952784050e+01 6.3358335109212203e+02 8.7034893944640644e+03 -2.4255381946779788e+04 6.9060423725072178e+02 -6.2314437024891376e+04 -6.6808949093348347e+03 -3.6466070524087991e+02 7.7722359709793818e+03 -1.2963288091967115e+02 1.7060910718655214e+03 1.8943982421872905e+04 -3.4264033873975277e+03 3.2548728262590012e+03 6.4724626474794000e+04 1.9048736199273786e+04 4.3489315354569189e+03 6.6314655108732704e+03 2.9329541695811980e+02 3.0635077944471850e+03 6.2001422663854202e+05 3.3123484430667639e+04 -2.6699226441640112e+03 -3.9841780917062868e+04 2.0776575484743611e+04 -2.6920080467134414e+02 3.3426702642609416e+03 -8.2310847959533930e+00 4.8784687991376302e+01 1.0494209204179980e+05 1.6503775086899790e+04 4.0734390089625705e+01 4.1301751958483808e+04 1.4602151216585291e+04 1.7284661562266599e+03 2.0697526130093429e+03 -4.9178270428888936e+01 -1.1607325624189107e+03 -1.7310700943049786e+05 2.3691555550264384e+03 -1.7846174529806467e+03 1.8227493958479803e+05 
      </Row>
      <Row Index="34">
        -1.9155215252715629e+04 -1.0507411575561942e+04 2.0485234079328657e+03 -1.1788021111667767e+04 -6.6336396297538158e+01 -1.6870169383258326e+02 4.8439198785223991e+04 -2.2835157674062997e+05 1.3469113199312542e+03 -4.7812479777802364e+03 -1.2625689306208296e+03 -3.0723999769750480e+02 2.8985153647961997e+03 -1.1757036515191430e+01 3.3561317198249890e+02 -1.3447569296417700e+04 -6.5496685552051291e+04 -1.5938841445048711e+03 -8.3141572635630146e+03 -1.2164320664844126e+02 -1.6150831286496768e+03 -7.8668461689158576e+03 -1.5587943970520428e+01 -7.7717275490192696e+02 1.9010445550403150e+04 -1.2212586011269223e+05 -1.7170160221084589e+03 -3.9559607244746294e+04 1.3566594349534287e+04 -8.1515267756502328e+02 9.2221431415374464e+03 8.1958668934308207e+01 1.8311047086799226e+03 3.3123478980321888e+04 8.3680296587628964e+05 3.5592352786278934e+02 -2.5076918803690693e+04 -4.5718398178219795e+03 -3.7393337971957249e+02 -7.6178111638917107e+02 -1.0131183751340131e+01 -3.7406516104201000e+02 -8.3056349559354130e+03 -2.2871937457813328e+02 -3.4804344759024445e+01 1.5335212126489540e+04 4.1716576310723494e+03 -2.9876638538745465e+03 5.7608227314924925e+03 -1.2921738348958570e+01 -1.4234763944473974e+02 -2.7945863392243436e+03 4.4831260635952749e+04 3.0971633108482620e+03 -3.0048649816349447e+04 
      </Row>
      <Row Index="35">
        8.8775144266762072e+02 -1.9100846021960642e+03 3.9448865782253006e+02 6.5779381446650427e+02 2.0121138123355422e+01 -5.4471147690534053e+01 5.6613739147749848e+03 1.3541953682486201e+03 -4.4162957960979872e+02 6.1700974750307068e+01 -2.4327663058954295e+02 3.1559495230604853e+00 -5.6585230071268506e+02 6.7989654804623569e+00 2.2235115036600291e+01 -1.2517749071722210e+02 4.8790047470652498e+03 -2.1878936977316062e+02 -1.4335399917757604e+02 -9.1749995429556475e+02 1.0257775997966485e+02 -2.4117518527839693e+03 1.0890194705983049e+01 8.5174168742669281e+01 1.8749802381814552e+03 3.2301933451368241e+03 -1.3294507543661512e+03 -4.3016097396604891e+01 2.2555899405057544e+03 -4.5221570979385001e+02 1.0739000779404435e+03 -3.9217166688182814e+01 -1.2979420777110954e+02 -2.6699225133424443e+03 3.5592357082877061e+02 1.8414475867264955e+03 2.1061875180278048e+02 -2.3989857679238378e+02 2.3021305808232739e-01 4.9468132086014975e+01 2.9182317591704248e+00 3.1889491000963289e+01 1.3203086000930343e+03 2.4495042324830592e+01 -1.0666732337143028e+01 -1.5285145874303339e+01 1.0840546033015567e+03 -1.1586323078429427e+02 1.7421184482420415e+02 6.2129551366844566e+00 3.4497560154133339e+01 -2.2593021659140559e+03 -8.1532216150715931e+02 6.1346164596453877e+02 2.1748508224532816e+03 
      </Row>
      <Row Index="36">
        1.1755323959113797e+05 1.9796510727952817e+04 1.9524502258512293e+03 -2.0741945218694891e+03 7.9758140129104504e+01 -4.8242876474693185e+03 -1.4026207203055263e+05 -2.8306054593622684e+04 4.6508970328533724e+02 -2.4532881142076803e+03 -1.4042290557072556e+02 1.0596476836398506e+02 -7.0531905034073861e+02 3.7063679385741125e+01 1.2676013095707603e+03 -1.1623924062822131e+04 1.0062741737697273e+04 -6.5264009545360750e+01 5.1189738780893385e+04 1.1787829464411479e+03 1.2246495189868947e+03 -7.3552900399809005e+02 5.5043389094957092e+01 -3.1353670731848106e+03 -1.2137472318904847e+05 -5.2768514819927514e+03 -5.7573321789490001e+02 6.1836375339464052e+04 -3.0209173867752863e+04 -2.8404635380786085e+03 1.0947406793821208e+04 -1.2095609267722649e+02 1.2904526628486565e+04 -3.9841767345214299e+04 -2.5076915521533403e+04 2.1061887728045258e+02 1.4208780615882669e+05 1.8133250594631852e+03 5.0845577554858579e+01 -1.0272672617040731e+04 8.9381315498185359e+00 -1.2417526437755805e+03 5.8019757690267172e+04 4.1994692032603734e+03 4.2847817517426208e+01 -5.5558879890954624e+04 -7.6764372779262303e+03 4.4776770436740890e+02 -6.1833498011530537e+02 2.5231707651684701e+01 -2.8556945359741771e+03 -9.6568439376777998e+04 -7.8135327678755648e+03 3.0256293583303886e+02 5.4227104282713037e+04 
      </Row>
      <Row Index="37">
        2.5420369819932966e+02 -2.5136060827252051e+04 1.9968849634896560e+02 4.7501683754180594e+03 -2.4793093087630155e+01 2.8808362357180522e+02 -4.2144743263272176e+03 -6.4224401787142269e+03 2.5505783269242534e+02 2.3209148474619724e+02 5.3467248596145510e+02 -4.3512024638157300e+01 -5.6774802774706950e+02 -1.4424312931460008e+00 1.4638458631030517e+01 -5.7934747569556930e+02 -4.1682863963770214e+03 -1.0887360758975774e+01 -7.6645474123361055e+02 -4.6307825704980132e+03 -2.3885295838818251e+01 2.5471514999168467e+03 8.5107893153417535e-01 -7.1957144401298137e+01 -5.8517088130646225e+03 1.4922651568227448e+03 6.9509069480433027e+01 5.6927817629028141e+03 2.5744803359714482e+04 -4.0887778265421798e+02 -9.9237957813470857e+03 2.6843655189543597e+01 -5.0586065525305457e+02 2.0776578694156444e+04 -4.5718403380069358e+03 -2.3989853812367255e+02 1.8133266974379569e+03 1.4584689849397942e+04 6.6894109584391117e+00 8.2165621150781953e+02 -1.3192114327079878e+00 1.3320557318394549e+02 2.9466593178403855e+03 -1.2386272025364178e+03 2.1183801275698279e+01 -7.4978518843055235e+02 1.7717072471727377e+04 -2.0237419809419970e+02 -4.4967623691844783e+03 -2.2876131651681817e+00 5.0299028143741566e+01 -1.0730974391378775e+04 6.1491793672464962e+02 2.0274820716280828e+01 -4.7046379948704443e+03 
      </Row>
      <Row Index="38">
        5.1218586840832359e+02 -8.3005764773091528e+01 2.0354308282527569e+01 -1.3309453882176803e+02 4.0407278918965517e+00 -6.3302332502564695e+00 3.5356122515724041e+02 6.9016718021492125e+01 -1.6197503438932983e+01 -2.3939653806457045e+01 -8.7374286486135588e-01 1.8743406470546944e+00 2.2124689126876262e+01 1.0903243150149251e+00 -1.4030278176317950e+00 -3.3959980554297090e+01 -6.3595560531738738e+02 -1.9650789736273282e+00 -1.2247418499808555e+02 -3.2706954985856328e+01 4.3186074822758620e+00 5.7153567915994813e+01 3.6307956767150813e+00 1.8686711307691439e+00 -8.6255657285069947e+02 1.8883373130098335e+01 2.4055698243503514e+01 -2.3149999806351843e+02 1.5603107847319171e+02 -2.5168656685181052e+01 1.6060546635072129e+02 -8.0860976309476058e+00 -2.2527408822857637e+00 -2.6920078318695306e+02 -3.7393338130757616e+02 2.3021348000182229e-01 5.0845576184005608e+01 6.6894140858541391e+00 2.4417439789423184e+01 2.2915648174619076e+02 2.9414930263572536e-01 -3.9609919841035435e-01 -4.2817208169295554e+01 1.4951025820046527e+02 -1.2128653757452761e+00 -6.3493581979521508e+01 2.7312493468722835e+01 -8.4554351250151027e-01 9.6604344334883422e+01 1.0803464633773530e+00 2.5967412447655427e+00 -9.3934870783614969e+01 9.8504758764229962e+01 1.5911396043260595e-01 -1.9990264938911957e+02 
      </Row>
      <Row Index="39">
        -4.0633961523132166e+03 -8.1565563548010250e+03 -8.3444637871915620e+02 -3.2038590598722003e+03 -2.6086956013445615e+01 3.2776775053811434e+02 -3.7299150838658461e+03 7.0346211343137547e+03 1.4336421841040556e+02 2.8010353522808873e+02 2.3680019802447350e+02 -4.4554421000669208e+01 5.2256658277839597e+02 -9.6893610452825669e+00 -1.3998375372717419e+01 3.7431456230604090e+02 -1.5949737917874008e+03 -7.2760575487243841e+01 -3.8996052264645696e+03 -1.4253741227921564e+03 2.9924221653536733e+02 -2.4115282297103913e+03 1.5261775841923736e+01 -6.4596613669488579e+02 1.9614522519068560e+03 5.7864405781859532e+03 -1.8022038250265177e+02 -1.6026042007184005e+04 1.3291429610899690e+04 3.6022327386808001e+02 6.7811897428508582e+03 9.0317199683731815e+00 -2.3302960255408834e+01 3.3426700201204185e+03 -7.6178176120930584e+02 4.9468142805635580e+01 -1.0272672669728854e+04 8.2165663691517739e+02 2.2915648053342562e+02 2.0348750888754323e+04 2.7536737733798873e+00 -1.0042585266738388e+02 -7.3397456872413168e+03 -3.4304814973154862e+02 -3.3802832011163950e+01 4.7963698782393185e+03 2.7550352412515981e+03 4.5915012953130974e+02 8.5540451793963293e+03 -3.7415318395746908e+00 1.3675195625814140e+02 9.5694876342855896e+03 1.4725284766244181e+02 1.7010985841507431e+02 -1.5882886979015544e+04 
      </Row>
      <Row Index="40">
        8.3172586963255526e+00 -4.0494628078509365e+00 3.7540449268791445e+00 4.1966839660810074e+00 1.4948758558808222e+00 -1.1815562151534920e-01 8.4482507716078743e+00 -1.6984429022654695e+01 -1.8373838087391934e+00 -2.7605620710950944e+00 -1.6192134326350427e-01 4.9165856830821442e-01 -1.3943991489508676e+00 2.6538273447787120e-01 4.7870803489480807e-02 -9.2033100193096686e+00 3.5465149818710643e+01 2.3215583842485721e-01 -9.4820574017785475e-01 1.2366552832379085e-01 1.3893328580973905e+00 -1.0969355157190499e+01 6.4059185448129163e-01 -1.2239941499580027e+00 -2.8998605121965610e+01 8.7460070812137474e+00 -1.4651385305425446e+00 1.2494475351517735e+00 6.0736263684538976e+00 -6.9129256595768442e+00 5.6689682012993670e+00 -2.3417629420552011e+00 2.0393964577105628e+00 -8.2310830709119855e+00 -1.0131183564846296e+01 2.9182317764374233e+00 8.9381312678319347e+00 -1.3192115347228781e+00 2.9414930113119991e-01 2.7536737348198397e+00 1.5391503276704954e-01 -2.5051164095329792e-01 6.8093797475445967e+00 -9.3318446363342122e-01 -3.7053125984689678e-01 -2.8610845698367928e+00 -2.5408421956629157e-01 -1.6570205003183409e+00 5.5546579622850434e+00 2.6888991444652621e-01 -4.3295372452030001e-01 -9.1441449641178281e+00 -6.7934711602273969e+00 1.6427405649303475e-02 8.3191068378629005e+00 
      </Row>
      <Row Index="41">
        -1.4270497126253613e+03 -3.3888561698271678e+02 1.0472067562126540e+01 2.3968453945401939e+02 -5.9306919027566209e+00 8.4550227475854626e+01 1.5350722135065898e+03 -3.5565934793167980e+02 -2.6308198023666534e+01 2.5485831662476085e+02 4.0897575933570351e+00 2.1431198440247385e+00 -5.3364634804391699e+01 -9.7080591207850375e-01 -2.3725745329223628e+01 5.1915604690568580e+02 4.8846684954961529e+02 6.0452817564801080e+00 -7.6970699918613536e+02 -8.4444115931719352e+01 1.5432608910823660e+01 1.2127985035566689e+02 -8.6949681095779852e-01 8.5889548748862580e+01 1.6748795909286619e+03 -4.8836661397886928e+02 -9.6805158447864414e+00 2.5142468829803547e+03 1.8765194578418914e+02 -4.0565666085487351e-01 -6.5641714770697126e+02 6.6061158225534768e+00 -4.3756931649244279e+02 4.8784631729935427e+01 -3.7406522868110551e+02 3.1889490993190520e+01 -1.2417525054082062e+03 1.3320559727027401e+02 -3.9609914641156152e-01 -1.0042586902885193e+02 -2.5051163226792283e-01 1.1587099811553378e+02 -1.0481176570694588e+03 2.9589404262657268e+01 3.7093587997656239e+00 2.1097896744496302e+02 2.7354152268571568e+02 2.1251446399594837e+01 -3.8256089062766478e+02 -9.8699988312003484e-01 9.7107203530092733e+01 1.8079283182452473e+03 -3.1538525940376803e+02 -1.2233619867697644e+01 -1.1690581377726412e+03 
      </Row>
      <Row Index="42">
        1.6173708803967573e+04 2.3248421517870855e+04 2.3806335055942181e+03 1.4676376021730248e+04 6.2940526735226740e+01 -2.7834204509325791e+03 3.7279329179721768e+04 2.2069327229931951e+03 -3.0302126484452601e+03 -1.9020727134379558e+03 -3.3529023195101763e+02 6.6944895357992209e+01 -8.0315178552345606e+02 3.1490666091674939e+01 9.3451584790536435e+02 4.5822933569317684e+02 3.7656274333022535e+04 1.1288948052257183e+03 -7.6752882784232497e+02 2.0730430253039813e+03 1.0406930906355738e+03 -1.1403522745055379e+03 3.9367347218270879e+01 -1.6128613970289007e+03 -1.1897520076991059e+04 -4.7639920338913798e+03 1.9503476726524241e+03 3.6265409689589869e+04 -2.8266001277447678e+04 -3.0067930085337707e+03 -6.4132690804744798e+03 -1.0595319756283425e+02 9.7956441982680117e+03 1.0494208848722573e+05 -8.3056396815663902e+03 1.3203086507114494e+03 5.8019768202784937e+04 2.9466622143011191e+03 -4.2817192422891367e+01 -7.3397460383001344e+03 6.8093808545390857e+00 -1.0481176648982801e+03 8.9748768244229350e+05 -6.6873346094631816e+03 -3.2228754617315184e+02 -6.8416143514257092e+03 -1.1095657886394209e+04 -4.2776747229766534e+02 -6.5688378224060580e+02 2.1647545538555278e+01 -2.2981297023059997e+03 1.5121901823036961e+05 -1.3480372751854844e+04 -2.2963979122092915e+03 -1.4284058194813126e+05 
      </Row>
      <Row Index="43">
        8.0379188886005431e+02 3.1103669910338067e+03 -7.1774746662896359e+02 9.3998067554308363e+02 3.2203357321750445e+00 -1.2029304180262261e+02 -3.5935859021154174e+03 3.8478041063565761e+03 -2.4793390568948598e+02 1.7633425139292376e+02 -6.6122624879462819e+01 6.5556818367860615e+01 3.1348300756973913e+01 -9.7176114068133757e-03 7.0443106865946902e+01 5.6531838204048108e+02 6.1532151829246432e+03 1.0597379757722956e+02 1.2138837845027447e+03 5.9149797408527229e+02 -3.8191269202367039e+01 7.1833037951437291e+01 6.7296538115624571e-01 -2.0414466155413538e+02 -2.6749262498278404e+02 4.1742339090304449e+03 1.6702340417503001e+02 5.0192996595406439e+03 -3.1469333199173707e+03 8.9110808521380795e+02 -2.1921288364246493e+02 -3.6584714452856133e+00 5.7892122668155207e+02 1.6503773203561548e+04 -2.2871866757370299e+02 2.4495037717522791e+01 4.1994674431260792e+03 -1.2386268764383858e+03 1.4951026368956707e+02 -3.4304751034524247e+02 -9.3318443113616922e-01 2.9589422419459879e+01 -6.6873331678372342e+03 9.9391412587296264e+05 -3.2613118247009396e+01 -1.0955037493657901e+03 -2.2908198451969402e+03 7.2224178831514337e+02 8.1196281064472657e+01 4.5895042276697495e-01 -1.4304618723897147e+02 -1.3556458776432273e+04 4.7559709180633938e+04 -2.2191714493438030e+02 -3.4283653044232553e+04 
      </Row>
      <Row Index="44">
        1.7906828498937102e+01 9.1871128195392657e+01 -3.7722655079983952e+01 1.4684879230334218e+01 -3.3941284481882263e+00 -4.4735245928481618e+01 -3.8474410317461525e+02 -1.1161089089256711e+02 7.0572330438884535e+01 -2.1637057725630257e+01 2.5388689005010519e+01 -2.2806586856443403e+00 -3.4382866390640402e+01 -7.9803786759657669e-01 1.6964185519958050e+00 -2.1655820200990365e+02 -5.3788796918559819e+02 -2.1898334905446177e+01 -4.0622544984405977e+01 5.4645790377333924e+01 -3.5024355421207432e+00 2.2695554952045995e+01 -1.7904789651611850e+00 3.2712345811625710e+01 -5.6261811139052315e+02 -2.9027872353792191e+01 -5.9602873822738388e+01 2.1771350068980610e+02 -1.7014961368016145e+02 7.4610109749593562e+01 5.1298269237991079e+00 5.7874345678802968e+00 -1.0595721720844381e+01 4.0734356031359084e+01 -3.4804355344494070e+01 -1.0666732474091418e+01 4.2847837420998530e+01 2.1183808318663068e+01 -1.2128653164799488e+00 -3.3802830746459975e+01 -3.7053125753276817e-01 3.7093589382700429e+00 -3.2228752652493131e+02 -3.2613120511852458e+01 4.2553627695043026e+01 -4.9250722500422746e+01 -2.6181413506403608e+01 3.9278974619507977e+01 -6.2242193748268249e+01 -8.3991489812456166e-01 9.4360880063631960e+00 4.3625272752957466e+02 5.4713052250541722e+01 4.9938962945519627e+01 -4.1990265747353197e+02 
      </Row>
      <Row Index="45">
        -6.1258033547902683e+04 -3.1913741284852949e+03 -8.4580708166372369e+02 3.8576906252462704e+03 -1.9143541356593687e+01 1.6120133388746399e+03 7.5958882809187970e+04 1.7197346488369396e+04 -2.6273696153960827e+02 3.2264089936510572e+02 9.3293826097832607e+01 -4.6289853122679233e+01 2.4311319327989258e+02 -1.3945054915289802e+01 -3.9414826646102665e+02 3.7787122002267279e+03 -3.2142811494348571e+03 5.9527154448599504e+01 -2.5669672843254870e+04 4.4326660211579292e+02 -4.3990461600946526e+02 9.3340212019986211e+01 -2.0970083418960712e+01 1.0303733633487718e+03 5.5254052745338638e+04 7.5261280316661578e+03 2.3793591136327814e+02 -3.4029585066091619e+04 7.7158417988793390e+03 1.1215155166776972e+03 -5.5082015681482098e+03 3.6493703069206504e+01 -3.9934488888322612e+03 4.1301744988465507e+04 1.5335211327788376e+04 -1.5285225456244007e+01 -5.5558881611014272e+04 -7.4978475797653846e+02 -6.3493583695370930e+01 4.7963699944628679e+03 -2.8610848880495041e+00 2.1097904111763273e+02 -6.8416085051502450e+03 -1.0955042548848837e+03 -4.9250708425455258e+01 2.9227526402376745e+04 1.7120578362956803e+02 -1.5611066946566146e+02 1.2954356265595197e+03 -8.6518313181145459e+00 8.5551051095077014e+02 2.9709928821409263e+04 3.9549836182015138e+03 -1.7338179906315918e+02 -5.8459653620135441e+03 
      </Row>
      <Row Index="46">
        1.3307451946130022e+03 -5.9222265261414694e+04 8.2567180188438215e+02 -3.9009187882034821e+03 -4.1168204532796153e+01 9.3572679151871125e+02 -3.2246131741414662e+04 6.8185094807855785e+03 -6.8394149949290113e+02 4.7170167174254311e+02 -4.3009082851975108e+01 -1.0220584515976952e+01 -6.5630319912286359e+02 8.1999902102688793e-01 -5.8669885568873724e+01 -9.7638967576832511e+02 2.1083752701692283e+03 -1.4023650031620855e+02 1.6286527571873739e+03 -1.0970360520622256e+04 -2.5954123857298873e+02 1.0797609466609574e+03 5.0416179166495567e+00 4.5909132578829303e+02 -2.0427956179433968e+03 3.1900528692714870e+03 -6.8227709076640167e+02 -6.1138057493992383e+03 6.1949670333936177e+04 -7.9497439857251970e+02 -8.2867320938437751e+03 1.7133148801967764e+01 -2.8284261288098423e+03 1.4602156627199511e+04 4.1716556102037139e+03 1.0840546860754766e+03 -7.6764325654270360e+03 1.7717072940889753e+04 2.7312488453806623e+01 2.7550343102755542e+03 -2.5408386536605576e-01 2.7354148161954436e+02 -1.1095663268334931e+04 -2.2908209751357463e+03 -2.6181429564696145e+01 1.7120405471028471e+02 3.7284814868920861e+04 -8.1859146933525210e+02 -8.3431787310915515e+03 9.0887276578268938e-01 5.8517660684954171e+02 2.9797723150391685e+03 1.1335266579837175e+03 3.4043549571628046e+02 -3.1958436086425354e+04 
      </Row>
      <Row Index="47">
        -8.3217257687177516e+02 1.5062673316373375e+03 -4.2255461220010136e+02 7.4825232626551815e+02 -1.1580612424267713e+01 -4.3981509129324877e+01 -3.1810001182983742e+03 2.5238642995455448e+03 3.3120057196417639e+02 -2.9013127021326454e+01 7.4285268259302882e+01 -5.5860930077231359e+00 -8.1025584416594597e+01 -3.9335481552113833e+00 1.1193094438575713e+01 -4.6890476712725922e+02 -2.1315804117052176e+03 -8.9398864120178132e+01 -5.0198276700939459e+01 1.5326400347693288e+02 8.3789759355177594e+01 7.9786532253473740e+02 -8.6923290442943539e+00 -2.7716483409461944e+01 9.6293192702817123e+01 -2.8667954658222152e+02 -2.1062459445542817e+02 1.9093833033203000e+03 -1.5640581335981512e+03 5.0726297530565438e+02 -1.2202595865410858e+03 2.3435375741099094e+01 8.8067688452976256e+01 1.7284659234495539e+03 -2.9876638429894938e+03 -1.1586323351636770e+02 4.4776769137583017e+02 -2.0237419448516175e+02 -8.4554322074224597e-01 4.5915014769671780e+02 -1.6570205016015933e+00 2.1251447400203205e+01 -4.2776729259344756e+02 7.2224181785766211e+02 3.9278974998602450e+01 -1.5611068640938510e+02 -8.1859143934189592e+02 3.8976372962300286e+02 -3.9439324487740174e+02 -3.8407533887733436e+00 -7.5924323526271564e+00 1.4511486637895027e+03 -1.8408441346568560e+02 1.9433107617649893e+02 -2.8936898203195580e+02 
      </Row>
      <Row Index="48">
        2.4628450516877783e+03 1.0722296580724138e+04 -1.4161528101141585e+02 -5.9654069319950750e+03 2.7722881324472723e+01 1.9109966008714036e+02 -3.9219866785679897e+03 -1.2373206292457995e+04 -1.6039201116125992e+02 6.6920673534503294e+01 4.4548111997673914e+01 -2.1244430762063303e+01 7.9495293690140988e+02 -4.9245374861038727e-01 2.1179447148223971e+01 1.5943204722097071e+03 8.7890110759931849e+03 1.1809417702043402e+02 -1.2348036375897937e+02 2.4749122053080846e+03 -1.2281896352055219e+02 -6.6740251548243368e+03 9.3536246084909180e+00 -4.9948503628536128e+02 -8.1181665790582210e+03 -1.8297086841679935e+04 9.2797033452421601e+01 -1.2609983555415085e+04 -8.3358448863851463e+03 -2.9436680048434346e+02 1.8005884933292957e+04 -3.8292040712270818e+01 1.1416980885074054e+03 2.0697519003267753e+03 5.7608229465173263e+03 1.7421183908145849e+02 -6.1833644787566482e+02 -4.4967622639358897e+03 9.6604344096687015e+01 8.5540454129138689e+03 5.5546578922143084e+00 -3.8256087307530629e+02 -6.5688270868318796e+02 8.1196139726411047e+01 -6.2242191465724048e+01 1.2954361876969811e+03 -8.3431782909177109e+03 -3.9439324821742451e+02 1.1553419261918050e+04 3.6203794688288440e+00 -3.0686146850672048e+02 3.8153085917015426e+02 -3.2578658807349075e+03 -2.0615363531444063e+02 2.0076795154606416e+03 
      </Row>
      <Row Index="49">
        3.1468203628607966e+01 -1.1067714311449123e+01 8.4880699913969835e+00 1.7017173543994229e+01 2.9610820573744423e+00 -1.5444123186914283e+00 4.2458539129413509e+01 -2.3482127717832554e+01 -4.8135838614753954e+00 -9.3633871302320131e+00 -6.1277036816904484e-01 1.0655561621809646e+00 -2.9286370665311239e+00 5.5696573888842238e-01 6.5577711470325539e-02 -2.6700612779614630e+01 6.9275031112216311e+01 5.4123391229942541e-01 -1.4834106254602375e+00 -7.7516838864781334e-01 2.8627945415564513e+00 -1.7225862333275472e+01 1.2872232688996164e+00 -3.0396692782146602e+00 -7.4996543086772078e+01 1.5265961967770636e+01 -2.2751614676589469e+00 -6.8103383408212039e+00 1.5773625317328829e+01 -1.5033590066079892e+01 -5.4990655684693621e+00 -4.6319266446458904e+00 6.9891593757975912e+00 -4.9178266187576583e+01 -1.2921737495601661e+01 6.2129551691935347e+00 2.5231707198555341e+01 -2.2876137295138292e+00 1.0803464604895594e+00 -3.7415319770476989e+00 2.6888991441622989e-01 -9.8699991640463836e-01 2.1647542582725691e+01 4.5895079123823734e-01 -8.3991490268128288e-01 -8.6518305578428496e+00 9.0887120955270584e-01 -3.8407533708587591e+00 3.6203797835055260e+00 5.6873965458026898e-01 -1.2335051303918974e+00 -3.0882159779358737e+01 -1.2426722899520016e+01 -2.1328162783992610e-01 2.9560005100855008e+01 
      </Row>
      <Row Index="50">
        -2.2908947327405185e+03 -9.7257769080412072e+02 7.4836672357282623e+00 -1.5363363762773770e+02 -6.2056794274909635e+00 -1.3193964020680141e+01 1.1524323603657976e+03 -2.8256386766384821e+02 -3.6757416222638540e+01 2.3251018683765142e+02 -6.0467964478361864e+00 1.6637913276513245e+00 -1.4607274558402423e+01 -1.4136814233206678e+00 -4.9755801147832699e+01 6.0608700594894617e+02 -1.0441361550707370e+02 2.3665374641527706e+00 -1.0449966963161714e+03 -2.0598169866902026e+02 -3.3474215550685756e+01 1.5417567183802385e+02 -1.7812741971456489e+00 1.5401090319670038e+02 3.0329799751618593e+03 -3.9382462737185415e+02 5.8945474845049830e+00 3.0103934791259235e+02 1.1103886546332587e+03 8.3981023467387331e+01 -4.6655441693657667e+02 7.4539802624726690e+00 -5.2936291566978070e+02 -1.1607327722332666e+03 -1.4234778726124932e+02 3.4497559567983444e+01 -2.8556943304599135e+03 5.0299092667823061e+01 2.5967413134761870e+00 1.3675193438405881e+02 -4.3295371112517955e-01 9.7107205170405905e+01 -2.2981295929780463e+03 -1.4304625060011290e+02 9.4360879139135534e+00 8.5551038163664316e+02 5.8517674095956079e+02 -7.5924347261608318e+00 -3.0686151257133270e+02 -1.2335050790143214e+00 1.5474045279820348e+02 3.7095071832207304e+03 -8.2785257541182489e+01 -1.0097723598976700e+01 -2.9259487703908849e+03 
      </Row>
      <Row Index="51">
        -7.3171260257182643e+04 -1.3155559794451343e+04 -4.3496597298526904e+03 -1.2089515184901480e+04 -5.8966913235752145e+01 3.8136215295239817e+03 -5.7249204514683224e+03 9.6638162909448147e+02 4.0053839115237206e+03 2.7492095344844274e+03 5.2533392184186960e+02 -2.8021737595248851e+01 7.5104381098796148e+02 -4.7230045111849904e+01 -1.5226540964225424e+03 2.4246517009027302e+03 -2.4930779450826347e+04 -1.1963218799795141e+03 -2.6827667484670877e+04 5.1083927613007836e+02 -1.0560195679142853e+03 1.3898740605238127e+03 -7.4785910090315156e+01 2.6442035945896059e+03 6.1734322291690856e+04 -3.0614894863955677e+04 -2.3924406202299288e+03 -3.2971567529946566e+04 2.0058180691811955e+04 5.3112017231430218e+03 -1.0128365471921279e+02 1.3614245262835175e+02 -1.5037816104785190e+04 -1.7310702581861522e+05 -2.7945965301103424e+03 -2.2593021770702326e+03 -9.6568424700826174e+04 -1.0730968797287671e+04 -9.3934851604001778e+01 9.5694871430060957e+03 -9.1441435156557418e+00 1.8079284342537285e+03 1.5121902709285915e+05 -1.3556463202398096e+04 4.3625271504498050e+02 2.9709919166628177e+04 2.9797841620911204e+03 1.4511483976903428e+03 3.8152808993848157e+02 -3.0882155755389249e+01 3.7095072136879317e+03 2.9976572276519553e+05 4.4111049725327794e+03 2.4618711066047545e+03 -2.6557700200566050e+05 
      </Row>
      <Row Index="52">
        -3.9363301554133650e+03 -1.2761654019913112e+03 1.6784620062909380e+02 -3.5556725336155141e+03 -5.5871294671823307e+01 1.6805135980245541e+02 1.0458543916299182e+04 1.7579490053785965e+04 1.5989603784828505e+03 -2.0792689183023176e+03 -7.2110704469734628e+01 -1.6479114191382178e+02 9.6247017509640136e+02 -1.0493479471333558e+01 -2.7403375996123941e+01 -3.8714679697927786e+03 -8.5384624543145299e+04 -9.5764355813172006e+02 -3.6088294262383133e+03 -6.7581193282132153e+02 -8.2557293570826914e+02 9.7913803120153170e+03 -8.0793035062379204e-01 1.0066796021279879e+02 -1.0516317419799336e+04 9.3990414463386871e+04 -6.9865692591265542e+00 -1.4404207446954097e+04 2.3885854181940813e+03 5.4968960618278652e+02 -3.4828181306406855e+03 7.2998045192623977e+01 2.3374414003377751e+02 2.3691520069507824e+03 4.4831260556440946e+04 -8.1532218146603554e+02 -7.8135337992507557e+03 6.1491838777385419e+02 9.8504763132178709e+01 1.4725332381128374e+02 -6.7934711291086387e+00 -3.1538522803633168e+02 -1.3480370131001575e+04 4.7559708850279756e+04 5.4713056656577237e+01 3.9549836089496148e+03 1.1335281131828906e+03 -1.8408443675602820e+02 -3.2578659397829215e+03 -1.2426723158911955e+01 -8.2785186368739232e+01 4.4111102099399395e+03 3.8690385350622448e+04 1.7140333001244799e+03 -3.4466559915939026e+04 
      </Row>
      <Row Index="53">
        8.1907447973075614e+02 -5.0606458847082104e+02 -1.3070075844438543e+02 3.3916377618287061e+02 7.6573090293561563e-01 -6.0688331165118143e+01 1.6861492978619026e+03 5.1182210435674060e+03 5.2704169451714483e+02 -4.4075878887612635e+02 -2.0927304296097645e+01 -1.6688377872595083e+01 -2.6830884939939460e+02 -1.0025477728049736e-01 4.0275467780158579e+01 -2.4071639338791210e+03 -5.9833533565063262e+03 -3.7755082030067342e+02 -6.5963736716471612e+02 -3.2341134536036407e+02 1.7503174449445055e+01 -2.5828396083016014e+02 -1.1166779123464039e+00 9.3282640902616549e+01 -6.1373114920175867e+03 1.3100864156668540e+03 -1.1719530657604846e+03 7.8579876416028128e+01 6.4766215669979010e+02 2.0595203340350463e+02 1.0915023358128667e+02 -3.0601807578977969e-01 8.2664983101503822e+00 -1.7846178200697213e+03 3.0971632474108774e+03 6.1346164403121020e+02 3.0256293586324682e+02 2.0274880853004106e+01 1.5911436831882497e-01 1.7010989038736784e+02 1.6427414686233988e-02 -1.2233616803333007e+01 -2.2963976404022833e+03 -2.2191718652640839e+02 4.9938963246944979e+01 -1.7338185063054817e+02 3.4043565942721898e+02 1.9433107340556293e+02 -2.0615365391553178e+02 -2.1328162784107008e-01 -1.0097718062113927e+01 2.4618715166855900e+03 1.7140332723299346e+03 8.7707770406224063e+02 -3.7498037975003022e+03 
      </Row>
      <Row Index="54">
        1.2630840806988999e+04 5.7548069863290992e+04 2.5458400123085594e+03 2.6416858399204502e+04 1.1131224036109052e+02 -3.2538513842094690e+03 1.0048432523710234e+05 4.3039591402560472e+03 -4.5320545512528770e+03 -1.0781282390016131e+03 -4.2117265558789950e+02 1.6004705495886446e+02 -1.5620094633270055e+03 4.1925675431848504e+01 1.1468699169032043e+03 3.2571914755590260e+03 8.9513148983269930e+04 1.9086328400735511e+03 3.4176193308085203e+03 8.7872027933746576e+03 1.6419757862371771e+03 -6.6074636121798540e+03 3.6958828317990992e+01 -1.5212719827126712e+03 8.5638644651360810e+03 -4.1376289286732674e+04 2.3399862875221297e+03 2.8494317193035036e+04 -6.5590640301843523e+04 -3.4753225755476305e+03 -7.6982785687992109e+03 -1.5205677733290941e+02 1.1843488994526444e+04 1.8227494726774003e+05 -3.0048639007949270e+04 2.1748507008714951e+03 5.4227086265366757e+04 -4.7046438955892809e+03 -1.9990266842173696e+02 -1.5882886141127368e+04 8.3191048392181983e+00 -1.1690581825805712e+03 -1.4284058298527822e+05 -3.4283647791093535e+04 -4.1990262262185570e+02 -5.8459549308622554e+03 -3.1958447491877043e+04 -2.8936865767441486e+02 2.0076821074492618e+03 2.9559999536490068e+01 -2.9259486500385683e+03 -2.6557698856246611e+05 -3.4466553555583043e+04 -3.7498032399728545e+03 3.0918691042197391e+05 
      </Row>
    </InverseHessian>
  </Weights>
</MethodSetup>
